~o
<STREAMINFO> 1 39
<VECSIZE> 39<NULLD><MFCC_E_D_A_Z><DIAGC>
~h "hmmdef"
<BEGINHMM>
<NUMSTATES> 15
<STATE> 2
<MEAN> 39
 -1.082900e-08 -5.429895e-09 -6.207994e-09 6.448700e-09 1.850643e-08 1.445919e-08 1.929292e-08 -7.764190e-09 -2.860491e-09 9.765414e-09 6.381526e-09 3.921280e-09 7.100832e-01 1.332749e-02 -2.589555e-02 -1.775300e-03 1.820765e-02 1.440497e-02 -1.096846e-02 -1.403561e-02 -2.681334e-02 -6.095394e-03 2.780368e-03 -1.148313e-03 -4.305887e-03 1.331587e-03 -9.053770e-03 -3.783373e-03 4.780928e-03 2.122156e-03 6.131086e-03 8.621839e-03 7.099916e-03 9.842538e-03 9.067082e-03 1.861131e-03 4.151828e-04 1.593801e-04 -1.564158e-03
<VARIANCE> 39
 4.872062e+01 8.793837e+01 4.467798e+01 5.986337e+01 4.655360e+01 5.547998e+01 5.233105e+01 5.238747e+01 4.623669e+01 4.285940e+01 4.554257e+01 4.065517e+01 8.178990e-02 2.131718e+00 2.467502e+00 2.295796e+00 3.262999e+00 2.705514e+00 3.277762e+00 3.157425e+00 3.330884e+00 3.002590e+00 2.830696e+00 2.829967e+00 2.573834e+00 3.754082e-03 3.006852e-01 3.204699e-01 3.548019e-01 5.152391e-01 4.554175e-01 5.507924e-01 5.410464e-01 5.677051e-01 5.208372e-01 4.984414e-01 4.887287e-01 4.422383e-01 3.730629e-04
<GCONST> 1.056898e+02
<STATE> 3
<MEAN> 39
 -1.082900e-08 -5.429895e-09 -6.207994e-09 6.448700e-09 1.850643e-08 1.445919e-08 1.929292e-08 -7.764190e-09 -2.860491e-09 9.765414e-09 6.381526e-09 3.921280e-09 7.100832e-01 1.332749e-02 -2.589555e-02 -1.775300e-03 1.820765e-02 1.440497e-02 -1.096846e-02 -1.403561e-02 -2.681334e-02 -6.095394e-03 2.780368e-03 -1.148313e-03 -4.305887e-03 1.331587e-03 -9.053770e-03 -3.783373e-03 4.780928e-03 2.122156e-03 6.131086e-03 8.621839e-03 7.099916e-03 9.842538e-03 9.067082e-03 1.861131e-03 4.151828e-04 1.593801e-04 -1.564158e-03
<VARIANCE> 39
 4.872062e+01 8.793837e+01 4.467798e+01 5.986337e+01 4.655360e+01 5.547998e+01 5.233105e+01 5.238747e+01 4.623669e+01 4.285940e+01 4.554257e+01 4.065517e+01 8.178990e-02 2.131718e+00 2.467502e+00 2.295796e+00 3.262999e+00 2.705514e+00 3.277762e+00 3.157425e+00 3.330884e+00 3.002590e+00 2.830696e+00 2.829967e+00 2.573834e+00 3.754082e-03 3.006852e-01 3.204699e-01 3.548019e-01 5.152391e-01 4.554175e-01 5.507924e-01 5.410464e-01 5.677051e-01 5.208372e-01 4.984414e-01 4.887287e-01 4.422383e-01 3.730629e-04
<GCONST> 1.056898e+02
<STATE> 4
<MEAN> 39
 -1.082900e-08 -5.429895e-09 -6.207994e-09 6.448700e-09 1.850643e-08 1.445919e-08 1.929292e-08 -7.764190e-09 -2.860491e-09 9.765414e-09 6.381526e-09 3.921280e-09 7.100832e-01 1.332749e-02 -2.589555e-02 -1.775300e-03 1.820765e-02 1.440497e-02 -1.096846e-02 -1.403561e-02 -2.681334e-02 -6.095394e-03 2.780368e-03 -1.148313e-03 -4.305887e-03 1.331587e-03 -9.053770e-03 -3.783373e-03 4.780928e-03 2.122156e-03 6.131086e-03 8.621839e-03 7.099916e-03 9.842538e-03 9.067082e-03 1.861131e-03 4.151828e-04 1.593801e-04 -1.564158e-03
<VARIANCE> 39
 4.872062e+01 8.793837e+01 4.467798e+01 5.986337e+01 4.655360e+01 5.547998e+01 5.233105e+01 5.238747e+01 4.623669e+01 4.285940e+01 4.554257e+01 4.065517e+01 8.178990e-02 2.131718e+00 2.467502e+00 2.295796e+00 3.262999e+00 2.705514e+00 3.277762e+00 3.157425e+00 3.330884e+00 3.002590e+00 2.830696e+00 2.829967e+00 2.573834e+00 3.754082e-03 3.006852e-01 3.204699e-01 3.548019e-01 5.152391e-01 4.554175e-01 5.507924e-01 5.410464e-01 5.677051e-01 5.208372e-01 4.984414e-01 4.887287e-01 4.422383e-01 3.730629e-04
<GCONST> 1.056898e+02
<STATE> 5
<MEAN> 39
 -1.082900e-08 -5.429895e-09 -6.207994e-09 6.448700e-09 1.850643e-08 1.445919e-08 1.929292e-08 -7.764190e-09 -2.860491e-09 9.765414e-09 6.381526e-09 3.921280e-09 7.100832e-01 1.332749e-02 -2.589555e-02 -1.775300e-03 1.820765e-02 1.440497e-02 -1.096846e-02 -1.403561e-02 -2.681334e-02 -6.095394e-03 2.780368e-03 -1.148313e-03 -4.305887e-03 1.331587e-03 -9.053770e-03 -3.783373e-03 4.780928e-03 2.122156e-03 6.131086e-03 8.621839e-03 7.099916e-03 9.842538e-03 9.067082e-03 1.861131e-03 4.151828e-04 1.593801e-04 -1.564158e-03
<VARIANCE> 39
 4.872062e+01 8.793837e+01 4.467798e+01 5.986337e+01 4.655360e+01 5.547998e+01 5.233105e+01 5.238747e+01 4.623669e+01 4.285940e+01 4.554257e+01 4.065517e+01 8.178990e-02 2.131718e+00 2.467502e+00 2.295796e+00 3.262999e+00 2.705514e+00 3.277762e+00 3.157425e+00 3.330884e+00 3.002590e+00 2.830696e+00 2.829967e+00 2.573834e+00 3.754082e-03 3.006852e-01 3.204699e-01 3.548019e-01 5.152391e-01 4.554175e-01 5.507924e-01 5.410464e-01 5.677051e-01 5.208372e-01 4.984414e-01 4.887287e-01 4.422383e-01 3.730629e-04
<GCONST> 1.056898e+02
<STATE> 6
<MEAN> 39
 -1.082900e-08 -5.429895e-09 -6.207994e-09 6.448700e-09 1.850643e-08 1.445919e-08 1.929292e-08 -7.764190e-09 -2.860491e-09 9.765414e-09 6.381526e-09 3.921280e-09 7.100832e-01 1.332749e-02 -2.589555e-02 -1.775300e-03 1.820765e-02 1.440497e-02 -1.096846e-02 -1.403561e-02 -2.681334e-02 -6.095394e-03 2.780368e-03 -1.148313e-03 -4.305887e-03 1.331587e-03 -9.053770e-03 -3.783373e-03 4.780928e-03 2.122156e-03 6.131086e-03 8.621839e-03 7.099916e-03 9.842538e-03 9.067082e-03 1.861131e-03 4.151828e-04 1.593801e-04 -1.564158e-03
<VARIANCE> 39
 4.872062e+01 8.793837e+01 4.467798e+01 5.986337e+01 4.655360e+01 5.547998e+01 5.233105e+01 5.238747e+01 4.623669e+01 4.285940e+01 4.554257e+01 4.065517e+01 8.178990e-02 2.131718e+00 2.467502e+00 2.295796e+00 3.262999e+00 2.705514e+00 3.277762e+00 3.157425e+00 3.330884e+00 3.002590e+00 2.830696e+00 2.829967e+00 2.573834e+00 3.754082e-03 3.006852e-01 3.204699e-01 3.548019e-01 5.152391e-01 4.554175e-01 5.507924e-01 5.410464e-01 5.677051e-01 5.208372e-01 4.984414e-01 4.887287e-01 4.422383e-01 3.730629e-04
<GCONST> 1.056898e+02
<STATE> 7
<MEAN> 39
 -1.082900e-08 -5.429895e-09 -6.207994e-09 6.448700e-09 1.850643e-08 1.445919e-08 1.929292e-08 -7.764190e-09 -2.860491e-09 9.765414e-09 6.381526e-09 3.921280e-09 7.100832e-01 1.332749e-02 -2.589555e-02 -1.775300e-03 1.820765e-02 1.440497e-02 -1.096846e-02 -1.403561e-02 -2.681334e-02 -6.095394e-03 2.780368e-03 -1.148313e-03 -4.305887e-03 1.331587e-03 -9.053770e-03 -3.783373e-03 4.780928e-03 2.122156e-03 6.131086e-03 8.621839e-03 7.099916e-03 9.842538e-03 9.067082e-03 1.861131e-03 4.151828e-04 1.593801e-04 -1.564158e-03
<VARIANCE> 39
 4.872062e+01 8.793837e+01 4.467798e+01 5.986337e+01 4.655360e+01 5.547998e+01 5.233105e+01 5.238747e+01 4.623669e+01 4.285940e+01 4.554257e+01 4.065517e+01 8.178990e-02 2.131718e+00 2.467502e+00 2.295796e+00 3.262999e+00 2.705514e+00 3.277762e+00 3.157425e+00 3.330884e+00 3.002590e+00 2.830696e+00 2.829967e+00 2.573834e+00 3.754082e-03 3.006852e-01 3.204699e-01 3.548019e-01 5.152391e-01 4.554175e-01 5.507924e-01 5.410464e-01 5.677051e-01 5.208372e-01 4.984414e-01 4.887287e-01 4.422383e-01 3.730629e-04
<GCONST> 1.056898e+02
<STATE> 8
<MEAN> 39
 -1.082900e-08 -5.429895e-09 -6.207994e-09 6.448700e-09 1.850643e-08 1.445919e-08 1.929292e-08 -7.764190e-09 -2.860491e-09 9.765414e-09 6.381526e-09 3.921280e-09 7.100832e-01 1.332749e-02 -2.589555e-02 -1.775300e-03 1.820765e-02 1.440497e-02 -1.096846e-02 -1.403561e-02 -2.681334e-02 -6.095394e-03 2.780368e-03 -1.148313e-03 -4.305887e-03 1.331587e-03 -9.053770e-03 -3.783373e-03 4.780928e-03 2.122156e-03 6.131086e-03 8.621839e-03 7.099916e-03 9.842538e-03 9.067082e-03 1.861131e-03 4.151828e-04 1.593801e-04 -1.564158e-03
<VARIANCE> 39
 4.872062e+01 8.793837e+01 4.467798e+01 5.986337e+01 4.655360e+01 5.547998e+01 5.233105e+01 5.238747e+01 4.623669e+01 4.285940e+01 4.554257e+01 4.065517e+01 8.178990e-02 2.131718e+00 2.467502e+00 2.295796e+00 3.262999e+00 2.705514e+00 3.277762e+00 3.157425e+00 3.330884e+00 3.002590e+00 2.830696e+00 2.829967e+00 2.573834e+00 3.754082e-03 3.006852e-01 3.204699e-01 3.548019e-01 5.152391e-01 4.554175e-01 5.507924e-01 5.410464e-01 5.677051e-01 5.208372e-01 4.984414e-01 4.887287e-01 4.422383e-01 3.730629e-04
<GCONST> 1.056898e+02
<STATE> 9
<MEAN> 39
 -1.082900e-08 -5.429895e-09 -6.207994e-09 6.448700e-09 1.850643e-08 1.445919e-08 1.929292e-08 -7.764190e-09 -2.860491e-09 9.765414e-09 6.381526e-09 3.921280e-09 7.100832e-01 1.332749e-02 -2.589555e-02 -1.775300e-03 1.820765e-02 1.440497e-02 -1.096846e-02 -1.403561e-02 -2.681334e-02 -6.095394e-03 2.780368e-03 -1.148313e-03 -4.305887e-03 1.331587e-03 -9.053770e-03 -3.783373e-03 4.780928e-03 2.122156e-03 6.131086e-03 8.621839e-03 7.099916e-03 9.842538e-03 9.067082e-03 1.861131e-03 4.151828e-04 1.593801e-04 -1.564158e-03
<VARIANCE> 39
 4.872062e+01 8.793837e+01 4.467798e+01 5.986337e+01 4.655360e+01 5.547998e+01 5.233105e+01 5.238747e+01 4.623669e+01 4.285940e+01 4.554257e+01 4.065517e+01 8.178990e-02 2.131718e+00 2.467502e+00 2.295796e+00 3.262999e+00 2.705514e+00 3.277762e+00 3.157425e+00 3.330884e+00 3.002590e+00 2.830696e+00 2.829967e+00 2.573834e+00 3.754082e-03 3.006852e-01 3.204699e-01 3.548019e-01 5.152391e-01 4.554175e-01 5.507924e-01 5.410464e-01 5.677051e-01 5.208372e-01 4.984414e-01 4.887287e-01 4.422383e-01 3.730629e-04
<GCONST> 1.056898e+02
<STATE> 10
<MEAN> 39
 -1.082900e-08 -5.429895e-09 -6.207994e-09 6.448700e-09 1.850643e-08 1.445919e-08 1.929292e-08 -7.764190e-09 -2.860491e-09 9.765414e-09 6.381526e-09 3.921280e-09 7.100832e-01 1.332749e-02 -2.589555e-02 -1.775300e-03 1.820765e-02 1.440497e-02 -1.096846e-02 -1.403561e-02 -2.681334e-02 -6.095394e-03 2.780368e-03 -1.148313e-03 -4.305887e-03 1.331587e-03 -9.053770e-03 -3.783373e-03 4.780928e-03 2.122156e-03 6.131086e-03 8.621839e-03 7.099916e-03 9.842538e-03 9.067082e-03 1.861131e-03 4.151828e-04 1.593801e-04 -1.564158e-03
<VARIANCE> 39
 4.872062e+01 8.793837e+01 4.467798e+01 5.986337e+01 4.655360e+01 5.547998e+01 5.233105e+01 5.238747e+01 4.623669e+01 4.285940e+01 4.554257e+01 4.065517e+01 8.178990e-02 2.131718e+00 2.467502e+00 2.295796e+00 3.262999e+00 2.705514e+00 3.277762e+00 3.157425e+00 3.330884e+00 3.002590e+00 2.830696e+00 2.829967e+00 2.573834e+00 3.754082e-03 3.006852e-01 3.204699e-01 3.548019e-01 5.152391e-01 4.554175e-01 5.507924e-01 5.410464e-01 5.677051e-01 5.208372e-01 4.984414e-01 4.887287e-01 4.422383e-01 3.730629e-04
<GCONST> 1.056898e+02
<STATE> 11
<MEAN> 39
 -1.082900e-08 -5.429895e-09 -6.207994e-09 6.448700e-09 1.850643e-08 1.445919e-08 1.929292e-08 -7.764190e-09 -2.860491e-09 9.765414e-09 6.381526e-09 3.921280e-09 7.100832e-01 1.332749e-02 -2.589555e-02 -1.775300e-03 1.820765e-02 1.440497e-02 -1.096846e-02 -1.403561e-02 -2.681334e-02 -6.095394e-03 2.780368e-03 -1.148313e-03 -4.305887e-03 1.331587e-03 -9.053770e-03 -3.783373e-03 4.780928e-03 2.122156e-03 6.131086e-03 8.621839e-03 7.099916e-03 9.842538e-03 9.067082e-03 1.861131e-03 4.151828e-04 1.593801e-04 -1.564158e-03
<VARIANCE> 39
 4.872062e+01 8.793837e+01 4.467798e+01 5.986337e+01 4.655360e+01 5.547998e+01 5.233105e+01 5.238747e+01 4.623669e+01 4.285940e+01 4.554257e+01 4.065517e+01 8.178990e-02 2.131718e+00 2.467502e+00 2.295796e+00 3.262999e+00 2.705514e+00 3.277762e+00 3.157425e+00 3.330884e+00 3.002590e+00 2.830696e+00 2.829967e+00 2.573834e+00 3.754082e-03 3.006852e-01 3.204699e-01 3.548019e-01 5.152391e-01 4.554175e-01 5.507924e-01 5.410464e-01 5.677051e-01 5.208372e-01 4.984414e-01 4.887287e-01 4.422383e-01 3.730629e-04
<GCONST> 1.056898e+02
<STATE> 12
<MEAN> 39
 -1.082900e-08 -5.429895e-09 -6.207994e-09 6.448700e-09 1.850643e-08 1.445919e-08 1.929292e-08 -7.764190e-09 -2.860491e-09 9.765414e-09 6.381526e-09 3.921280e-09 7.100832e-01 1.332749e-02 -2.589555e-02 -1.775300e-03 1.820765e-02 1.440497e-02 -1.096846e-02 -1.403561e-02 -2.681334e-02 -6.095394e-03 2.780368e-03 -1.148313e-03 -4.305887e-03 1.331587e-03 -9.053770e-03 -3.783373e-03 4.780928e-03 2.122156e-03 6.131086e-03 8.621839e-03 7.099916e-03 9.842538e-03 9.067082e-03 1.861131e-03 4.151828e-04 1.593801e-04 -1.564158e-03
<VARIANCE> 39
 4.872062e+01 8.793837e+01 4.467798e+01 5.986337e+01 4.655360e+01 5.547998e+01 5.233105e+01 5.238747e+01 4.623669e+01 4.285940e+01 4.554257e+01 4.065517e+01 8.178990e-02 2.131718e+00 2.467502e+00 2.295796e+00 3.262999e+00 2.705514e+00 3.277762e+00 3.157425e+00 3.330884e+00 3.002590e+00 2.830696e+00 2.829967e+00 2.573834e+00 3.754082e-03 3.006852e-01 3.204699e-01 3.548019e-01 5.152391e-01 4.554175e-01 5.507924e-01 5.410464e-01 5.677051e-01 5.208372e-01 4.984414e-01 4.887287e-01 4.422383e-01 3.730629e-04
<GCONST> 1.056898e+02
<STATE> 13
<MEAN> 39
 -1.082900e-08 -5.429895e-09 -6.207994e-09 6.448700e-09 1.850643e-08 1.445919e-08 1.929292e-08 -7.764190e-09 -2.860491e-09 9.765414e-09 6.381526e-09 3.921280e-09 7.100832e-01 1.332749e-02 -2.589555e-02 -1.775300e-03 1.820765e-02 1.440497e-02 -1.096846e-02 -1.403561e-02 -2.681334e-02 -6.095394e-03 2.780368e-03 -1.148313e-03 -4.305887e-03 1.331587e-03 -9.053770e-03 -3.783373e-03 4.780928e-03 2.122156e-03 6.131086e-03 8.621839e-03 7.099916e-03 9.842538e-03 9.067082e-03 1.861131e-03 4.151828e-04 1.593801e-04 -1.564158e-03
<VARIANCE> 39
 4.872062e+01 8.793837e+01 4.467798e+01 5.986337e+01 4.655360e+01 5.547998e+01 5.233105e+01 5.238747e+01 4.623669e+01 4.285940e+01 4.554257e+01 4.065517e+01 8.178990e-02 2.131718e+00 2.467502e+00 2.295796e+00 3.262999e+00 2.705514e+00 3.277762e+00 3.157425e+00 3.330884e+00 3.002590e+00 2.830696e+00 2.829967e+00 2.573834e+00 3.754082e-03 3.006852e-01 3.204699e-01 3.548019e-01 5.152391e-01 4.554175e-01 5.507924e-01 5.410464e-01 5.677051e-01 5.208372e-01 4.984414e-01 4.887287e-01 4.422383e-01 3.730629e-04
<GCONST> 1.056898e+02
<STATE> 14
<MEAN> 39
 -1.082900e-08 -5.429895e-09 -6.207994e-09 6.448700e-09 1.850643e-08 1.445919e-08 1.929292e-08 -7.764190e-09 -2.860491e-09 9.765414e-09 6.381526e-09 3.921280e-09 7.100832e-01 1.332749e-02 -2.589555e-02 -1.775300e-03 1.820765e-02 1.440497e-02 -1.096846e-02 -1.403561e-02 -2.681334e-02 -6.095394e-03 2.780368e-03 -1.148313e-03 -4.305887e-03 1.331587e-03 -9.053770e-03 -3.783373e-03 4.780928e-03 2.122156e-03 6.131086e-03 8.621839e-03 7.099916e-03 9.842538e-03 9.067082e-03 1.861131e-03 4.151828e-04 1.593801e-04 -1.564158e-03
<VARIANCE> 39
 4.872062e+01 8.793837e+01 4.467798e+01 5.986337e+01 4.655360e+01 5.547998e+01 5.233105e+01 5.238747e+01 4.623669e+01 4.285940e+01 4.554257e+01 4.065517e+01 8.178990e-02 2.131718e+00 2.467502e+00 2.295796e+00 3.262999e+00 2.705514e+00 3.277762e+00 3.157425e+00 3.330884e+00 3.002590e+00 2.830696e+00 2.829967e+00 2.573834e+00 3.754082e-03 3.006852e-01 3.204699e-01 3.548019e-01 5.152391e-01 4.554175e-01 5.507924e-01 5.410464e-01 5.677051e-01 5.208372e-01 4.984414e-01 4.887287e-01 4.422383e-01 3.730629e-04
<GCONST> 1.056898e+02
<TRANSP> 15
 0.000000e+00 1.000000e+00 0.000000e+00 0.000000e+00 0.000000e+00 0.000000e+00 0.000000e+00 0.000000e+00 0.000000e+00 0.000000e+00 0.000000e+00 0.000000e+00 0.000000e+00 0.000000e+00 0.000000e+00
 0.000000e+00 5.000000e-01 5.000000e-01 0.000000e+00 0.000000e+00 0.000000e+00 0.000000e+00 0.000000e+00 0.000000e+00 0.000000e+00 0.000000e+00 0.000000e+00 0.000000e+00 0.000000e+00 0.000000e+00
 0.000000e+00 0.000000e+00 5.000000e-01 5.000000e-01 0.000000e+00 0.000000e+00 0.000000e+00 0.000000e+00 0.000000e+00 0.000000e+00 0.000000e+00 0.000000e+00 0.000000e+00 0.000000e+00 0.000000e+00
 0.000000e+00 0.000000e+00 0.000000e+00 5.000000e-01 5.000000e-01 0.000000e+00 0.000000e+00 0.000000e+00 0.000000e+00 0.000000e+00 0.000000e+00 0.000000e+00 0.000000e+00 0.000000e+00 0.000000e+00
 0.000000e+00 0.000000e+00 0.000000e+00 0.000000e+00 5.000000e-01 5.000000e-01 0.000000e+00 0.000000e+00 0.000000e+00 0.000000e+00 0.000000e+00 0.000000e+00 0.000000e+00 0.000000e+00 0.000000e+00
 0.000000e+00 0.000000e+00 0.000000e+00 0.000000e+00 0.000000e+00 5.000000e-01 5.000000e-01 0.000000e+00 0.000000e+00 0.000000e+00 0.000000e+00 0.000000e+00 0.000000e+00 0.000000e+00 0.000000e+00
 0.000000e+00 0.000000e+00 0.000000e+00 0.000000e+00 0.000000e+00 0.000000e+00 5.000000e-01 5.000000e-01 0.000000e+00 0.000000e+00 0.000000e+00 0.000000e+00 0.000000e+00 0.000000e+00 0.000000e+00
 0.000000e+00 0.000000e+00 0.000000e+00 0.000000e+00 0.000000e+00 0.000000e+00 0.000000e+00 5.000000e-01 5.000000e-01 0.000000e+00 0.000000e+00 0.000000e+00 0.000000e+00 0.000000e+00 0.000000e+00
 0.000000e+00 0.000000e+00 0.000000e+00 0.000000e+00 0.000000e+00 0.000000e+00 0.000000e+00 0.000000e+00 5.000000e-01 5.000000e-01 0.000000e+00 0.000000e+00 0.000000e+00 0.000000e+00 0.000000e+00
 0.000000e+00 0.000000e+00 0.000000e+00 0.000000e+00 0.000000e+00 0.000000e+00 0.000000e+00 0.000000e+00 0.000000e+00 5.000000e-01 5.000000e-01 0.000000e+00 0.000000e+00 0.000000e+00 0.000000e+00
 0.000000e+00 0.000000e+00 0.000000e+00 0.000000e+00 0.000000e+00 0.000000e+00 0.000000e+00 0.000000e+00 0.000000e+00 0.000000e+00 5.000000e-01 5.000000e-01 0.000000e+00 0.000000e+00 0.000000e+00
 0.000000e+00 0.000000e+00 0.000000e+00 0.000000e+00 0.000000e+00 0.000000e+00 0.000000e+00 0.000000e+00 0.000000e+00 0.000000e+00 0.000000e+00 5.000000e-01 5.000000e-01 0.000000e+00 0.000000e+00
 0.000000e+00 0.000000e+00 0.000000e+00 0.000000e+00 0.000000e+00 0.000000e+00 0.000000e+00 0.000000e+00 0.000000e+00 0.000000e+00 0.000000e+00 0.000000e+00 5.000000e-01 5.000000e-01 0.000000e+00
 0.000000e+00 0.000000e+00 0.000000e+00 0.000000e+00 0.000000e+00 0.000000e+00 0.000000e+00 0.000000e+00 0.000000e+00 0.000000e+00 0.000000e+00 0.000000e+00 0.000000e+00 5.000000e-01 5.000000e-01
 0.000000e+00 0.000000e+00 0.000000e+00 0.000000e+00 0.000000e+00 0.000000e+00 0.000000e+00 0.000000e+00 0.000000e+00 0.000000e+00 0.000000e+00 0.000000e+00 0.000000e+00 0.000000e+00 0.000000e+00
<ENDHMM>
