~o
<STREAMINFO> 1 39
<VECSIZE> 39<NULLD><MFCC_E_D_A_Z><DIAGC>
~s "silst"
<NUMMIXES> 3
<MIXTURE> 1 3.783939e-01
<MEAN> 39
 -2.983957e+00 -3.842993e+00 2.795520e+00 3.999857e+00 4.408547e+00 5.496775e+00 3.851289e+00 4.379262e+00 4.550959e+00 4.256986e+00 3.223751e+00 2.015570e+00 1.445212e-01 -1.450722e+00 -5.029140e-01 -7.045667e-01 2.168685e-01 9.286551e-02 4.877032e-01 6.505314e-01 1.034601e+00 7.240202e-01 6.706184e-01 3.867978e-01 7.608411e-02 -5.359064e-02 3.976740e-01 6.818416e-01 4.150313e-02 -5.174487e-02 -2.412434e-01 -3.491562e-01 -3.729414e-01 -3.974358e-01 -3.849273e-01 -3.587663e-01 -2.549714e-01 -1.386778e-01 3.385444e-02
<VARIANCE> 39
 1.637368e+01 3.928558e+01 3.294680e+01 3.406898e+01 3.537935e+01 4.137097e+01 3.758252e+01 4.220392e+01 3.852967e+01 3.295444e+01 3.715274e+01 2.670910e+01 2.507526e-02 2.067410e+00 2.807768e+00 2.826274e+00 2.867094e+00 2.991941e+00 3.581871e+00 4.101583e+00 4.667404e+00 3.820026e+00 3.465190e+00 3.323759e+00 2.876795e+00 5.166638e-03 3.737349e-01 4.383150e-01 4.654336e-01 5.189711e-01 5.827613e-01 6.057411e-01 6.232880e-01 6.918731e-01 6.774168e-01 6.650515e-01 6.350405e-01 5.435709e-01 6.659457e-04
<GCONST> 1.046481e+02
<MIXTURE> 2 1.816350e-01
<MEAN> 39
 -1.204068e+00 7.238574e-01 4.919842e+00 4.788741e+00 3.956144e+00 3.101070e+00 1.625076e+00 6.683653e-01 2.306395e+00 1.337876e+00 9.766098e-01 1.870047e+00 2.409131e-01 2.337838e+00 2.171827e+00 1.780013e-01 -8.962782e-01 -1.254382e+00 -1.539605e+00 -1.541798e+00 -1.359749e+00 -1.075241e+00 -6.916109e-01 -5.459394e-01 -3.220323e-01 1.664514e-01 1.805890e-01 -6.924483e-03 -4.716032e-01 -6.170117e-01 -3.890186e-01 -2.636275e-01 -2.014341e-01 4.319745e-02 -6.344225e-02 -7.738923e-03 2.406999e-02 3.576271e-03 1.574717e-02
<VARIANCE> 39
 2.656346e+01 4.698828e+01 3.861643e+01 2.920898e+01 3.487998e+01 4.091043e+01 3.910604e+01 4.469417e+01 3.708457e+01 3.639982e+01 3.930420e+01 2.880866e+01 4.689051e-02 2.129970e+00 2.731945e+00 4.359169e+00 3.505083e+00 3.819393e+00 3.872192e+00 4.523708e+00 3.827517e+00 3.451825e+00 3.208346e+00 3.910022e+00 3.167659e+00 4.046366e-03 4.916451e-01 4.459755e-01 5.171246e-01 5.205528e-01 5.251293e-01 6.178393e-01 6.304823e-01 6.201870e-01 6.864560e-01 6.098481e-01 6.618529e-01 5.194145e-01 8.664695e-04
<GCONST> 1.073043e+02
<MIXTURE> 3 4.399692e-01
<MEAN> 39
 -1.898412e+00 -7.797254e-01 2.131074e+00 2.696199e+00 3.074069e+00 3.627610e+00 1.327330e+00 2.657642e+00 3.256247e+00 1.367379e+00 1.730985e+00 8.923798e-01 -1.200921e-02 -1.203683e-01 1.787567e-01 8.480972e-02 4.229483e-02 -6.975687e-02 3.233718e-02 6.383782e-03 5.385140e-02 -2.732076e-02 -7.919434e-02 -7.028990e-02 -7.180318e-02 -9.963395e-03 8.004606e-02 9.248569e-02 7.527877e-02 9.246778e-02 3.265148e-02 5.145300e-02 2.659665e-02 8.353399e-03 -3.768572e-03 1.591895e-02 -3.968790e-03 8.684231e-03 1.287461e-02
<VARIANCE> 39
 9.940854e+00 3.934247e+01 2.090181e+01 2.376581e+01 2.428547e+01 2.535068e+01 2.546051e+01 3.257071e+01 2.336374e+01 2.583894e+01 2.474686e+01 1.914173e+01 1.463066e-02 5.130481e-01 8.793502e-01 9.019623e-01 1.181125e+00 1.488751e+00 1.564970e+00 1.584275e+00 1.837531e+00 1.799377e+00 1.843568e+00 1.573991e+00 1.494769e+00 1.172181e-03 1.288207e-01 1.943649e-01 1.932531e-01 2.237996e-01 2.926196e-01 3.296587e-01 3.350815e-01 3.880475e-01 4.003478e-01 3.620273e-01 3.171440e-01 3.108107e-01 3.126299e-04
<GCONST> 7.829841e+01
~h "#i"
<BEGINHMM>
<NUMSTATES> 15
<STATE> 2
<NUMMIXES> 20
<MIXTURE> 2 2.212802e-02
<MEAN> 39
 -4.226323e+00 1.030578e+01 -4.280426e+00 -1.746220e+00 -6.674974e+00 -4.547723e+00 2.544064e-01 -1.483116e+00 2.568553e+00 2.724364e+00 6.558540e+00 1.084108e+01 8.568594e-01 -9.398805e-01 -1.582855e-01 -2.574806e-01 -5.877433e-02 -1.856260e-01 5.757215e-02 -7.068194e-01 -4.616694e-01 1.032107e+00 2.747573e+00 3.495886e+00 3.073332e+00 4.753627e-02 5.731909e-01 -1.660836e-01 4.801810e-01 1.939368e-01 3.795012e-01 5.183420e-01 4.748774e-01 5.329884e-01 2.556456e-01 1.515172e-01 -7.699739e-01 -1.246667e+00 -2.597434e-02
<VARIANCE> 39
 1.627784e+01 3.638057e+01 1.748269e+01 1.278867e+01 1.787888e+01 9.713297e+00 2.045822e+01 8.565125e+00 3.517045e+01 7.743821e+01 5.080283e+01 3.571599e+01 3.112217e-03 8.083910e-01 3.963070e-01 5.466920e-01 5.318683e-01 5.978851e-01 1.123907e+00 1.586727e+00 1.206612e+00 2.626996e+00 3.263471e+00 4.390703e+00 2.944635e+00 1.681124e-04 9.088530e-02 1.232537e-01 2.923525e-01 1.967539e-01 3.483356e-01 3.109685e-01 3.239393e-01 1.877722e-01 3.991608e-01 8.974735e-01 6.563087e-01 2.516516e-01 2.416236e-04
<GCONST> 7.380534e+01
<MIXTURE> 3 8.225591e-03
<MEAN> 39
 -6.235727e+00 9.881200e+00 -5.108061e+00 -4.765443e+00 -5.229520e+00 -3.518411e+00 3.433336e+00 5.288211e+00 1.582777e+01 1.615367e+01 9.588351e+00 4.554959e+00 9.369374e-01 -4.120227e-01 -2.362989e-01 -2.092932e-01 -5.302567e-01 -6.509384e-01 -1.075976e-01 4.193353e-02 4.136330e-01 1.846467e+00 1.801622e+00 1.572996e-01 -2.960753e-02 1.528613e-02 4.060111e-01 -7.725850e-02 -2.386164e-02 2.039420e-02 -6.475867e-02 9.080422e-02 3.139153e-01 1.479667e-01 -6.950284e-01 -1.070033e+00 -8.473226e-01 -6.284502e-01 -9.297485e-03
<VARIANCE> 39
 9.682222e+00 2.982252e+01 9.912198e+00 2.309648e+01 8.482707e+00 1.191235e+01 1.803436e+01 2.848969e+01 5.568237e+01 3.969637e+01 2.379688e+01 1.336661e+02 8.178990e-04 5.634733e-01 8.881190e-01 1.236876e+00 1.642877e+00 8.888234e-01 6.831920e-01 1.621486e+00 6.989154e-01 3.989929e+00 3.260136e+00 2.852563e+00 9.585422e-01 1.119797e-04 1.255084e-01 1.486526e-01 1.976833e-01 3.011532e-01 1.818054e-01 1.839119e-01 2.235440e-01 2.303942e-01 5.238532e-01 4.025115e-01 5.078359e-01 4.291508e-01 5.908347e-05
<GCONST> 7.042429e+01
<MIXTURE> 4 5.470546e-02
<MEAN> 39
 1.390453e+00 1.117747e+01 -3.703032e+00 -2.739699e+00 -5.752212e+00 -5.069814e+00 -2.821021e+00 1.948460e-01 -3.663142e+00 -2.149401e+00 -5.852692e+00 -2.597949e+00 6.875980e-01 -4.933745e-02 9.165624e-01 -2.211234e-02 4.023032e-01 -5.007702e-01 1.352653e-01 -5.827798e-01 -4.279623e-01 -5.769559e-01 -5.093777e-02 -2.845683e-01 7.842684e-01 1.483132e-02 -8.719945e-02 -1.391633e-01 1.899676e-01 -7.162350e-02 2.188172e-01 5.153874e-02 5.687507e-02 5.500150e-03 2.844206e-01 1.659482e-01 6.027759e-01 3.682956e-01 6.478468e-03
<VARIANCE> 39
 1.425052e+01 2.674732e+01 1.809214e+01 2.510090e+01 1.996032e+01 1.638367e+01 4.871726e+01 3.216249e+01 2.903316e+01 3.117556e+01 5.737379e+01 4.709495e+01 1.617774e-02 9.408367e-01 1.771816e+00 1.167758e+00 1.741392e+00 1.499974e+00 2.219254e+00 2.715023e+00 2.748378e+00 2.278840e+00 2.407060e+00 5.070357e+00 5.542140e+00 1.306744e-03 1.236246e-01 2.659045e-01 1.894202e-01 3.241858e-01 2.332924e-01 4.248735e-01 4.949263e-01 4.401059e-01 3.963102e-01 6.280316e-01 5.247474e-01 5.552515e-01 1.352093e-04
<GCONST> 8.872882e+01
<MIXTURE> 5 3.574317e-02
<MEAN> 39
 6.860146e-01 6.776165e+00 -4.344770e+00 -3.443171e+00 -4.180543e+00 -3.373351e+00 5.365745e+00 8.457738e+00 9.882155e+00 7.963013e+00 5.598317e+00 2.204477e+00 5.933830e-01 -5.411173e-02 1.931880e+00 -1.713918e+00 -1.069973e-01 -1.711943e+00 -2.338110e+00 -1.843659e+00 -4.842013e-01 -6.783291e-01 8.556268e-01 5.931115e-01 1.028000e+00 7.142635e-02 -9.161039e-02 -3.466554e-01 5.397609e-01 1.294836e-01 1.873416e-01 4.926645e-01 -5.605418e-01 -7.011474e-01 -9.929786e-01 -7.578891e-01 -5.910123e-01 3.780328e-02 1.095854e-03
<VARIANCE> 39
 9.621009e+00 4.852399e+01 2.942476e+01 2.909427e+01 2.017729e+01 4.958851e+01 7.007195e+01 4.073230e+01 6.505461e+01 1.320197e+02 1.535571e+02 9.869310e+01 2.471732e-02 1.418193e+00 4.153304e+00 2.883039e+00 5.611531e+00 3.462212e+00 5.995339e+00 5.197339e+00 7.998374e+00 1.045735e+01 1.099566e+01 9.485269e+00 7.733986e+00 8.318407e-03 3.117533e-01 4.902881e-01 5.134329e-01 8.664697e-01 7.938125e-01 6.605838e-01 1.220307e+00 8.951955e-01 1.246663e+00 1.998654e+00 2.456760e+00 2.068959e+00 6.505224e-04
<GCONST> 1.219483e+02
<MIXTURE> 6 4.979891e-02
<MEAN> 39
 -1.172906e+00 1.280566e+01 4.254177e-01 -3.367112e+00 -3.523386e+00 -6.452237e+00 -6.131278e+00 -6.211541e-01 9.773062e-01 -2.532890e+00 3.629014e+00 -8.890364e-01 7.903644e-01 -2.333422e-01 1.504692e+00 -6.615324e-01 1.375614e+00 -8.490094e-01 1.003056e-01 -1.124171e+00 -4.491576e-01 -8.742026e-01 -1.062868e+00 4.460251e-01 -7.206427e-01 4.604045e-03 1.789676e-01 -5.919931e-01 1.899823e-01 -1.850920e-01 -2.610742e-01 4.061960e-01 1.861160e-01 2.235557e-01 -1.926631e-01 2.651982e-01 -4.221048e-01 -5.584195e-02 3.701941e-03
<VARIANCE> 39
 9.536538e+00 2.653237e+01 1.874941e+01 2.827774e+01 2.151016e+01 2.738684e+01 4.333298e+01 2.328477e+01 2.985536e+01 3.485072e+01 2.872031e+01 3.187489e+01 9.430979e-03 4.931188e-01 1.064710e+00 1.126715e+00 1.857487e+00 1.662291e+00 2.280920e+00 1.818836e+00 2.075130e+00 2.287215e+00 2.354949e+00 2.491598e+00 2.363606e+00 2.554153e-04 7.894339e-02 2.575045e-01 2.041792e-01 3.142650e-01 3.606107e-01 3.794467e-01 3.456481e-01 3.199099e-01 3.696075e-01 3.856775e-01 3.206944e-01 4.098755e-01 2.636927e-05
<GCONST> 7.846828e+01
<MIXTURE> 7 4.978973e-02
<MEAN> 39
 -1.177850e+00 1.281320e+01 4.199292e-01 -3.356239e+00 -3.512958e+00 -6.468007e+00 -6.090630e+00 -6.280891e-01 9.897239e-01 -2.526976e+00 3.621205e+00 -8.683296e-01 7.900141e-01 -2.341354e-01 1.508037e+00 -6.658769e-01 1.382466e+00 -8.523873e-01 1.045859e-01 -1.126791e+00 -4.540046e-01 -8.762872e-01 -1.069437e+00 4.443643e-01 -7.159228e-01 4.586287e-03 1.806513e-01 -5.957091e-01 1.913985e-01 -1.846195e-01 -2.633272e-01 4.087470e-01 1.850412e-01 2.252389e-01 -1.948227e-01 2.659849e-01 -4.221389e-01 -5.831651e-02 3.717119e-03
<VARIANCE> 39
 9.536985e+00 2.649431e+01 1.876534e+01 2.824816e+01 2.154914e+01 2.740806e+01 4.354570e+01 2.329419e+01 2.986238e+01 3.484291e+01 2.869947e+01 3.183733e+01 9.463106e-03 4.956605e-01 1.068366e+00 1.128072e+00 1.862630e+00 1.667630e+00 2.288067e+00 1.821092e+00 2.079426e+00 2.294422e+00 2.358979e+00 2.501751e+00 2.372467e+00 2.560410e-04 7.943435e-02 2.587902e-01 2.045600e-01 3.151101e-01 3.621531e-01 3.801674e-01 3.465469e-01 3.203262e-01 3.710520e-01 3.853392e-01 3.210083e-01 4.100184e-01 2.648628e-05
<GCONST> 7.854800e+01
<MIXTURE> 8 5.653588e-02
<MEAN> 39
 2.295852e+00 1.141157e+01 -2.404831e+00 -2.746419e+00 -6.145546e+00 -4.297982e+00 -1.081351e+00 1.982654e+00 7.605875e-01 1.740247e+00 5.879779e-01 2.423476e+00 7.145965e-01 -2.736371e-01 2.215718e+00 -1.507130e+00 -1.717121e+00 -2.077732e+00 -2.160755e+00 -1.538100e+00 -1.393026e+00 -1.527080e+00 -1.306401e+00 -5.981664e-01 5.817790e-02 1.444857e-01 -6.175957e-01 -1.106473e+00 4.688615e-01 5.444666e-01 8.013929e-01 7.820446e-01 1.972094e-01 1.013698e-01 2.869814e-02 -4.266993e-02 3.648683e-02 -1.415858e-01 -4.489919e-02
<VARIANCE> 39
 1.302923e+01 4.821091e+01 2.241767e+01 2.296934e+01 2.267595e+01 2.647780e+01 5.356412e+01 3.008734e+01 3.547691e+01 3.749466e+01 2.939749e+01 5.024780e+01 1.351028e-02 1.613986e+00 4.390889e+00 2.547355e+00 2.132371e+00 2.830604e+00 2.705404e+00 2.722089e+00 2.996213e+00 2.601980e+00 2.909456e+00 5.909380e+00 8.038018e+00 4.277598e-03 1.932590e-01 3.589904e-01 4.338664e-01 4.577684e-01 4.117709e-01 4.523073e-01 6.914127e-01 5.468682e-01 6.072678e-01 5.425208e-01 5.725792e-01 7.049572e-01 3.086977e-04
<GCONST> 9.951035e+01
<MIXTURE> 9 3.542216e-02
<MEAN> 39
 5.815892e-01 7.326995e+00 -7.546004e+00 -6.300740e+00 -3.020458e+00 -3.969827e+00 -4.445010e-01 -4.070507e-01 6.547901e+00 6.494303e+00 7.666336e+00 7.993723e+00 7.339503e-01 -1.145531e+00 2.091815e-01 -1.089940e-01 -1.658196e-01 -5.010179e-01 -3.632351e-01 -1.512639e+00 -2.565170e+00 -1.139840e+00 1.165764e-01 6.266603e-01 6.808215e-01 5.666768e-02 -1.305830e-01 -9.179733e-02 7.218906e-01 7.396083e-01 3.220789e-01 3.990674e-01 2.061415e-01 3.931288e-01 -1.965904e-01 -2.142804e-01 -4.857531e-01 -6.557500e-01 -2.129431e-02
<VARIANCE> 39
 1.385582e+01 3.966912e+01 3.666271e+01 1.391913e+01 3.717750e+01 2.184292e+01 3.272563e+01 3.614139e+01 5.678196e+01 3.931216e+01 6.317777e+01 9.680553e+01 3.493110e-02 1.346230e+00 1.558017e+00 2.440731e+00 2.158693e+00 1.734310e+00 3.781728e+00 3.414397e+00 2.776536e+00 1.034386e+01 1.346551e+01 1.282285e+01 5.911401e+00 1.590586e-03 2.546858e-01 5.438522e-01 5.540100e-01 3.344169e-01 4.948094e-01 9.073266e-01 4.990485e-01 6.123991e-01 5.814433e-01 7.846660e-01 1.279647e+00 1.081606e+00 5.343963e-04
<GCONST> 1.067821e+02
<MIXTURE> 10 4.986574e-02
<MEAN> 39
 -1.194051e+00 1.281109e+01 4.362071e-01 -3.375575e+00 -3.490816e+00 -6.491648e+00 -6.057490e+00 -6.374622e-01 1.017122e+00 -2.532061e+00 3.622201e+00 -8.276564e-01 7.900602e-01 -2.362491e-01 1.516070e+00 -6.745775e-01 1.393639e+00 -8.539370e-01 1.020091e-01 -1.127248e+00 -4.639581e-01 -8.726072e-01 -1.083380e+00 4.501748e-01 -7.162677e-01 4.572134e-03 1.827512e-01 -5.996063e-01 1.910882e-01 -1.807052e-01 -2.688466e-01 4.142400e-01 1.846661e-01 2.272849e-01 -1.982401e-01 2.680064e-01 -4.221684e-01 -6.340735e-02 3.717513e-03
<VARIANCE> 39
 9.518517e+00 2.637944e+01 1.876322e+01 2.807312e+01 2.152220e+01 2.734403e+01 4.345060e+01 2.329726e+01 2.986093e+01 3.479608e+01 2.857392e+01 3.173228e+01 9.465066e-03 4.959183e-01 1.071897e+00 1.125465e+00 1.862663e+00 1.670300e+00 2.291704e+00 1.822002e+00 2.080486e+00 2.297096e+00 2.362691e+00 2.508606e+00 2.376380e+00 2.560464e-04 7.961310e-02 2.592601e-01 2.038961e-01 3.149753e-01 3.628132e-01 3.795286e-01 3.464536e-01 3.199704e-01 3.715643e-01 3.838755e-01 3.216227e-01 4.101930e-01 2.649226e-05
<GCONST> 7.853298e+01
<MIXTURE> 11 4.970086e-02
<MEAN> 39
 -1.178005e+00 1.284122e+01 3.808773e-01 -3.300894e+00 -3.501607e+00 -6.499305e+00 -5.984936e+00 -6.427069e-01 1.000306e+00 -2.500210e+00 3.586821e+00 -8.435493e-01 7.888657e-01 -2.342696e-01 1.509833e+00 -6.709188e-01 1.393907e+00 -8.628522e-01 1.225142e-01 -1.133999e+00 -4.602810e-01 -8.870085e-01 -1.075578e+00 4.313673e-01 -6.984591e-01 4.523484e-03 1.840311e-01 -6.039612e-01 1.966793e-01 -1.873131e-01 -2.646640e-01 4.115484e-01 1.813271e-01 2.287478e-01 -1.982200e-01 2.660656e-01 -4.215798e-01 -6.108816e-02 3.764633e-03
<VARIANCE> 39
 9.558517e+00 2.649619e+01 1.882289e+01 2.832883e+01 2.171865e+01 2.754404e+01 4.439264e+01 2.331778e+01 2.989262e+01 3.486436e+01 2.878463e+01 3.183042e+01 9.567227e-03 5.037316e-01 1.076497e+00 1.135642e+00 1.879704e+00 1.682438e+00 2.309375e+00 1.827361e+00 2.091715e+00 2.315315e+00 2.368589e+00 2.528290e+00 2.399237e+00 2.578982e-04 8.084936e-02 2.623857e-01 2.064390e-01 3.179002e-01 3.667659e-01 3.834063e-01 3.498408e-01 3.220039e-01 3.754181e-01 3.858965e-01 3.213927e-01 4.102679e-01 2.684093e-05
<GCONST> 7.882720e+01
<MIXTURE> 12 4.989940e-02
<MEAN> 39
 1.949233e+00 1.100271e+01 -2.688426e+00 -2.869112e+00 -5.949484e+00 -4.449286e+00 -9.749386e-01 1.875695e+00 7.669169e-02 1.789535e+00 -1.254988e-02 2.953647e+00 7.318166e-01 -4.749251e-01 1.723584e+00 -1.227396e+00 -1.289554e+00 -1.562248e+00 -1.774794e+00 -1.419244e+00 -1.285709e+00 -1.665753e+00 -1.414510e+00 -8.983720e-01 -1.576261e-01 1.211082e-01 -5.528076e-01 -1.068114e+00 4.952663e-01 6.057754e-01 8.093861e-01 8.375906e-01 2.073321e-01 1.694915e-01 1.583329e-01 1.291249e-02 1.116652e-01 -1.601537e-01 -4.474028e-02
<VARIANCE> 39
 1.470291e+01 5.054117e+01 2.057911e+01 2.083701e+01 2.143547e+01 2.606736e+01 4.673875e+01 2.948785e+01 3.229840e+01 3.438964e+01 3.142346e+01 4.928051e+01 1.439392e-02 1.552588e+00 4.087988e+00 1.970449e+00 2.087160e+00 2.596123e+00 2.677738e+00 2.499391e+00 2.930324e+00 2.414809e+00 2.558269e+00 5.467421e+00 6.824408e+00 3.992990e-03 2.057351e-01 3.633126e-01 3.914694e-01 3.962828e-01 3.799631e-01 4.215747e-01 6.244473e-01 4.965603e-01 5.475184e-01 4.983820e-01 5.554630e-01 6.822307e-01 3.069794e-04
<GCONST> 9.731215e+01
<MIXTURE> 13 4.986691e-02
<MEAN> 39
 -1.182065e+00 1.279592e+01 4.457379e-01 -3.394573e+00 -3.513602e+00 -6.457465e+00 -6.139467e+00 -6.228978e-01 9.910318e-01 -2.542735e+00 3.638388e+00 -8.711768e-01 7.906906e-01 -2.344523e-01 1.508896e+00 -6.652585e-01 1.378996e+00 -8.470093e-01 9.376792e-02 -1.122413e+00 -4.533097e-01 -8.691519e-01 -1.069299e+00 4.529297e-01 -7.256035e-01 4.611386e-03 1.792497e-01 -5.919203e-01 1.882894e-01 -1.819750e-01 -2.639540e-01 4.086415e-01 1.868353e-01 2.237484e-01 -1.937445e-01 2.662882e-01 -4.222601e-01 -5.811395e-02 3.689789e-03
<VARIANCE> 39
 9.519975e+00 2.646329e+01 1.873478e+01 2.815400e+01 2.145296e+01 2.730980e+01 4.304980e+01 2.328281e+01 2.984954e+01 3.481877e+01 2.862820e+01 3.182505e+01 9.406309e-03 4.910408e-01 1.064572e+00 1.123245e+00 1.852756e+00 1.659946e+00 2.277500e+00 1.817757e+00 2.072350e+00 2.283269e+00 2.354880e+00 2.489208e+00 2.359094e+00 2.549728e-04 7.866245e-02 2.567748e-01 2.032638e-01 3.134387e-01 3.598213e-01 3.782137e-01 3.446976e-01 3.192367e-01 3.687593e-01 3.846777e-01 3.209656e-01 4.099806e-01 2.628276e-05
<GCONST> 7.838605e+01
<MIXTURE> 14 4.989940e-02
<MEAN> 39
 1.949233e+00 1.100271e+01 -2.688426e+00 -2.869112e+00 -5.949484e+00 -4.449286e+00 -9.749386e-01 1.875695e+00 7.669169e-02 1.789535e+00 -1.254988e-02 2.953647e+00 7.318166e-01 -4.749251e-01 1.723584e+00 -1.227396e+00 -1.289554e+00 -1.562248e+00 -1.774794e+00 -1.419244e+00 -1.285709e+00 -1.665753e+00 -1.414510e+00 -8.983720e-01 -1.576261e-01 1.211082e-01 -5.528076e-01 -1.068114e+00 4.952663e-01 6.057754e-01 8.093861e-01 8.375906e-01 2.073321e-01 1.694915e-01 1.583329e-01 1.291249e-02 1.116652e-01 -1.601537e-01 -4.474028e-02
<VARIANCE> 39
 1.470291e+01 5.054117e+01 2.057911e+01 2.083701e+01 2.143547e+01 2.606736e+01 4.673875e+01 2.948785e+01 3.229840e+01 3.438964e+01 3.142346e+01 4.928051e+01 1.439392e-02 1.552588e+00 4.087988e+00 1.970449e+00 2.087160e+00 2.596123e+00 2.677738e+00 2.499391e+00 2.930324e+00 2.414809e+00 2.558269e+00 5.467421e+00 6.824408e+00 3.992990e-03 2.057351e-01 3.633126e-01 3.914694e-01 3.962828e-01 3.799631e-01 4.215747e-01 6.244473e-01 4.965603e-01 5.475184e-01 4.983820e-01 5.554630e-01 6.822307e-01 3.069794e-04
<GCONST> 9.731215e+01
<MIXTURE> 15 4.973247e-02
<MEAN> 39
 1.790899e+00 1.069173e+01 -2.917268e+00 -3.102196e+00 -6.084102e+00 -4.679129e+00 -1.245665e+00 1.586400e+00 -2.724294e-01 1.503552e+00 -2.152050e-01 2.897890e+00 7.421805e-01 -5.793175e-01 1.481868e+00 -1.107045e+00 -1.106715e+00 -1.339012e+00 -1.574842e+00 -1.382977e+00 -1.222862e+00 -1.682282e+00 -1.451580e+00 -9.395642e-01 -2.584648e-01 1.104111e-01 -5.243922e-01 -1.019185e+00 5.255443e-01 6.599267e-01 8.449505e-01 8.902249e-01 2.480134e-01 2.260339e-01 2.247899e-01 7.704381e-02 1.497966e-01 -1.333227e-01 -4.521359e-02
<VARIANCE> 39
 1.550839e+01 5.069358e+01 2.043072e+01 2.060719e+01 2.155393e+01 2.577740e+01 4.697306e+01 2.866431e+01 3.145735e+01 3.443732e+01 3.194109e+01 5.133007e+01 1.447251e-02 1.493951e+00 3.779077e+00 1.788642e+00 2.103325e+00 2.464655e+00 2.585222e+00 2.421721e+00 2.919126e+00 2.402646e+00 2.478820e+00 5.498244e+00 6.698182e+00 3.677544e-03 2.159376e-01 3.664184e-01 3.852604e-01 3.824726e-01 3.716612e-01 4.099699e-01 6.197263e-01 4.707319e-01 5.345808e-01 4.991513e-01 5.361542e-01 6.946992e-01 2.912763e-04
<GCONST> 9.670036e+01
<MIXTURE> 16 6.434108e-02
<MEAN> 39
 -1.560176e+00 8.242490e+00 -1.823411e+00 -1.182412e+01 -1.262118e+00 -9.732668e+00 -4.671375e-01 3.457985e+00 -2.149187e+00 -9.935261e-01 -1.562859e+00 -5.072947e+00 8.250574e-01 -2.978878e-01 2.311415e+00 -1.569261e+00 1.675635e+00 -8.886468e-01 -1.962767e+00 5.825866e-01 -1.363966e+00 -1.171801e+00 8.497775e-01 -8.670407e-01 1.051988e+00 -1.612710e-02 2.746957e-01 -3.944672e-01 2.519166e-01 6.575391e-01 -6.046364e-01 1.111431e+00 -1.864165e-01 -4.407736e-01 1.815608e-01 -1.936579e-01 -4.547242e-02 5.558761e-01 5.448157e-04
<VARIANCE> 39
 1.117829e+01 1.530466e+01 2.144006e+01 1.550770e+01 2.186279e+01 3.941070e+01 4.041322e+01 3.545852e+01 3.297253e+01 4.353190e+01 3.795321e+01 2.258353e+01 5.801538e-03 5.570717e-01 1.192638e+00 8.785836e-01 1.800595e+00 2.834940e+00 4.567982e+00 1.956935e+00 2.245023e+00 4.592288e+00 6.082748e+00 3.578193e+00 4.353330e+00 2.706562e-04 8.579016e-02 2.745704e-01 2.738197e-01 5.166162e-01 5.433145e-01 6.261975e-01 3.958520e-01 5.028360e-01 5.878782e-01 8.125419e-01 6.326213e-01 5.712489e-01 2.710607e-05
<GCONST> 8.680843e+01
<MIXTURE> 17 8.225591e-03
<MEAN> 39
 -6.235727e+00 9.881200e+00 -5.108061e+00 -4.765443e+00 -5.229520e+00 -3.518411e+00 3.433336e+00 5.288211e+00 1.582777e+01 1.615367e+01 9.588351e+00 4.554959e+00 9.369374e-01 -4.120227e-01 -2.362989e-01 -2.092932e-01 -5.302567e-01 -6.509384e-01 -1.075976e-01 4.193353e-02 4.136330e-01 1.846467e+00 1.801622e+00 1.572996e-01 -2.960753e-02 1.528613e-02 4.060111e-01 -7.725850e-02 -2.386164e-02 2.039420e-02 -6.475867e-02 9.080422e-02 3.139153e-01 1.479667e-01 -6.950284e-01 -1.070033e+00 -8.473226e-01 -6.284502e-01 -9.297485e-03
<VARIANCE> 39
 9.682222e+00 2.982252e+01 9.912198e+00 2.309648e+01 8.482707e+00 1.191235e+01 1.803436e+01 2.848969e+01 5.568237e+01 3.969637e+01 2.379688e+01 1.336661e+02 8.178990e-04 5.634733e-01 8.881190e-01 1.236876e+00 1.642877e+00 8.888234e-01 6.831920e-01 1.621486e+00 6.989154e-01 3.989929e+00 3.260136e+00 2.852563e+00 9.585422e-01 1.119797e-04 1.255084e-01 1.486526e-01 1.976833e-01 3.011532e-01 1.818054e-01 1.839119e-01 2.235440e-01 2.303942e-01 5.238532e-01 4.025115e-01 5.078359e-01 4.291508e-01 5.908347e-05
<GCONST> 7.042429e+01
<MIXTURE> 18 5.340185e-02
<MEAN> 39
 1.485316e+00 1.069367e+01 -3.481960e+00 -2.675585e+00 -6.216207e+00 -5.175267e+00 -3.313861e+00 -1.940540e-01 -3.487828e+00 -2.417535e+00 -4.958765e+00 -2.379563e+00 6.769270e-01 -8.179119e-02 1.052608e+00 3.068359e-02 4.236019e-01 -4.537470e-01 1.502126e-01 -6.264257e-01 -2.769784e-01 -5.354645e-01 -6.360174e-02 -2.667460e-01 5.056254e-01 1.840452e-02 -1.022019e-01 -1.321686e-01 1.771992e-01 -7.258718e-02 2.302914e-01 1.149657e-01 1.050548e-01 6.921552e-02 3.435322e-01 2.376383e-01 5.893124e-01 3.918639e-01 5.196945e-03
<VARIANCE> 39
 1.503409e+01 3.144565e+01 1.928033e+01 2.453033e+01 2.159181e+01 1.636279e+01 5.173386e+01 3.474480e+01 2.784713e+01 3.547926e+01 6.141038e+01 4.854531e+01 1.912839e-02 9.860508e-01 2.122736e+00 1.259724e+00 1.792534e+00 1.537330e+00 2.191416e+00 2.907124e+00 2.991750e+00 2.434226e+00 2.490516e+00 5.615377e+00 7.038451e+00 1.563267e-03 1.438689e-01 3.227098e-01 2.047956e-01 3.298773e-01 2.340755e-01 4.067573e-01 5.274143e-01 4.952539e-01 4.475935e-01 6.728966e-01 5.886439e-01 5.853662e-01 1.641074e-04
<GCONST> 9.180505e+01
<MIXTURE> 19 5.340848e-02
<MEAN> 39
 1.486777e+00 1.069093e+01 -3.476695e+00 -2.670441e+00 -6.235482e+00 -5.183528e+00 -3.326950e+00 -2.019343e-01 -3.478200e+00 -2.416964e+00 -4.950502e+00 -2.396003e+00 6.768502e-01 -8.299525e-02 1.056957e+00 3.086401e-02 4.244971e-01 -4.546059e-01 1.480688e-01 -6.318873e-01 -2.754236e-01 -5.370182e-01 -6.509259e-02 -2.655275e-01 5.039874e-01 1.853727e-02 -1.025184e-01 -1.321345e-01 1.766927e-01 -7.288402e-02 2.321264e-01 1.166938e-01 1.069457e-01 7.026381e-02 3.430572e-01 2.375576e-01 5.888965e-01 3.938975e-01 5.178614e-03
<VARIANCE> 39
 1.505597e+01 3.153190e+01 1.928082e+01 2.456530e+01 2.163224e+01 1.639936e+01 5.193116e+01 3.471159e+01 2.778099e+01 3.548396e+01 6.142251e+01 4.868919e+01 1.913637e-02 9.845378e-01 2.132904e+00 1.264117e+00 1.796282e+00 1.539114e+00 2.193279e+00 2.902120e+00 2.999898e+00 2.429068e+00 2.491181e+00 5.616137e+00 7.048116e+00 1.558674e-03 1.441869e-01 3.238936e-01 2.053000e-01 3.311682e-01 2.348545e-01 4.069657e-01 5.275388e-01 4.953118e-01 4.476288e-01 6.727897e-01 5.889208e-01 5.863551e-01 1.649055e-04
<GCONST> 9.185088e+01
<MIXTURE> 20 2.093072e-01
<MEAN> 39
 2.798666e+00 1.359332e+01 -1.504001e+00 -6.934919e-01 -3.578282e+00 -3.260216e+00 1.873965e+00 3.031261e+00 1.151597e+00 4.109291e+00 -9.549899e-02 4.954480e+00 6.883858e-01 -4.911632e-02 6.568107e-01 -3.585113e-01 -9.420519e-02 -7.540620e-01 -3.984769e-01 -6.513287e-01 -4.755158e-01 -6.850489e-01 -5.419648e-01 -8.735782e-01 4.532590e-02 2.879648e-02 -2.593331e-01 -3.784957e-01 -1.953357e-01 -2.088561e-01 -9.289631e-02 -2.470015e-01 -3.262609e-01 -3.213065e-01 -2.854856e-01 -4.987014e-01 -2.290443e-01 -3.925537e-01 6.567645e-03
<VARIANCE> 39
 8.292109e+00 2.429632e+01 1.902912e+01 1.741003e+01 1.584631e+01 1.685128e+01 2.960534e+01 2.530789e+01 2.437345e+01 2.532476e+01 2.736639e+01 3.189430e+01 1.242556e-02 6.606280e-01 1.274885e+00 8.262736e-01 1.138185e+00 9.564477e-01 1.222599e+00 1.787662e+00 1.542540e+00 1.839007e+00 2.233402e+00 2.469053e+00 2.063263e+00 8.550364e-04 8.630261e-02 2.409852e-01 1.255927e-01 2.043298e-01 2.461456e-01 2.436087e-01 2.901849e-01 2.951531e-01 3.064194e-01 2.796167e-01 3.971278e-01 3.699780e-01 1.363623e-04
<GCONST> 7.463319e+01
<STATE> 3
<NUMMIXES> 20
<MIXTURE> 1 6.523915e-04
<MEAN> 39
 -9.222593e+00 1.809765e+01 -6.699024e+00 -3.396321e+00 -1.109437e+01 -5.139926e+00 -9.997174e+00 -6.728352e+00 6.315451e-01 -1.274954e+00 -2.745883e+00 1.092229e+01 7.603796e-01 9.300752e-01 2.345727e+00 2.992041e+00 2.299529e+00 1.047929e+00 4.057094e+00 4.249472e+00 1.445913e+00 2.896761e+00 2.139575e+00 1.963861e+00 2.581223e+00 1.365488e-02 3.678875e-01 3.823711e-01 3.414450e-01 4.357339e-01 6.398757e-01 1.196040e-01 4.225713e-01 5.186287e-01 -5.980273e-02 -4.834566e-02 4.332166e-01 -3.406241e-02 3.558413e-03
<VARIANCE> 39
 4.872062e-01 8.793837e-01 4.467798e-01 5.986336e-01 4.655360e-01 5.547998e-01 5.233105e-01 5.238746e-01 4.623669e-01 4.285940e-01 4.554257e-01 4.065517e-01 8.178990e-04 2.131718e-02 2.467502e-02 2.295796e-02 3.262999e-02 2.705514e-02 3.277762e-02 3.157425e-02 3.330884e-02 3.002590e-02 2.830696e-02 2.829967e-02 2.573834e-02 3.754082e-05 3.006852e-03 3.204699e-03 3.548019e-03 5.152391e-03 4.554175e-03 5.507924e-03 5.410464e-03 5.677051e-03 5.208372e-03 4.984414e-03 4.887287e-03 4.422382e-03 3.730629e-06
<GCONST> -7.391186e+01
<MIXTURE> 2 1.387728e-02
<MEAN> 39
 -3.310452e+00 7.691697e+00 -1.018350e+01 -5.868373e+00 -8.023036e+00 -9.978119e+00 -3.063999e+00 -4.494808e+00 6.396452e-01 5.649505e+00 1.116364e+01 1.847329e+01 9.206015e-01 -5.918459e-01 -2.242658e-01 -1.571112e-01 2.323922e-01 -5.235947e-01 -6.720720e-01 -1.345796e+00 -2.990513e-01 2.528475e-01 3.467305e-01 1.403969e+00 1.285989e+00 1.491834e-02 3.450095e-01 2.564987e-01 2.652571e-01 2.451583e-01 4.081560e-01 3.475236e-01 5.098644e-01 3.487377e-01 1.668054e-01 -2.094586e-01 -5.881745e-01 -6.081146e-01 -5.779488e-03
<VARIANCE> 39
 2.450788e+01 4.270533e+01 1.454976e+01 8.936184e+00 2.865396e+01 2.015298e+01 2.386285e+01 2.755315e+01 2.705397e+01 2.786030e+01 4.471737e+01 7.395171e+01 4.224672e-03 5.257013e-01 5.595037e-01 7.879454e-01 1.380433e+00 1.361883e+00 1.150200e+00 1.566592e+00 7.939371e-01 7.529057e-01 1.260720e+00 2.210698e+00 2.281786e+00 1.048051e-04 6.253714e-02 8.364847e-02 1.298529e-01 1.709145e-01 2.331738e-01 1.304355e-01 2.690401e-01 2.470160e-01 2.611411e-01 3.435859e-01 2.849141e-01 5.513678e-01 1.840902e-05
<GCONST> 6.710760e+01
<MIXTURE> 3 1.665822e-02
<MEAN> 39
 -4.133811e+00 7.347651e+00 -8.600055e+00 -6.283786e+00 -9.675193e+00 -7.701004e+00 4.600945e-01 2.057385e-01 7.394566e+00 1.170298e+01 1.238202e+01 1.316393e+01 9.210911e-01 1.173426e-01 2.299004e-01 1.171555e-01 3.134415e-01 -1.561227e-01 -5.632005e-02 7.540984e-04 1.717140e-01 5.345159e-01 2.757817e-01 4.225004e-01 1.727531e-01 1.184462e-02 3.947789e-01 3.430834e-01 3.160377e-01 5.070362e-01 5.106387e-01 4.005281e-01 1.764113e-01 1.695656e-01 -1.117997e-01 -5.205237e-01 -5.087277e-01 -5.290193e-01 -4.883796e-03
<VARIANCE> 39
 2.786423e+01 2.750739e+01 2.435335e+01 1.322604e+01 2.108273e+01 1.972063e+01 3.003167e+01 5.286198e+01 8.725685e+01 6.472576e+01 5.404158e+01 1.060016e+02 3.691027e-03 3.991729e-01 4.971624e-01 6.344159e-01 9.643754e-01 1.371603e+00 9.429461e-01 1.063819e+00 7.804741e-01 1.224124e+00 1.236063e+00 2.478302e+00 2.575906e+00 8.384766e-05 7.296561e-02 1.149860e-01 1.670354e-01 1.739417e-01 2.532739e-01 1.417067e-01 3.627608e-01 3.384062e-01 4.913535e-01 4.505771e-01 5.379779e-01 5.482599e-01 1.629263e-05
<GCONST> 7.253078e+01
<MIXTURE> 4 6.705028e-02
<MEAN> 39
 2.514533e-01 1.207931e+01 -3.104038e+00 -1.577808e+00 -5.809681e+00 -5.048643e+00 -4.175415e+00 -1.137694e+00 -5.181988e+00 -1.799683e+00 -3.577920e+00 7.419770e-01 8.157985e-01 3.126503e-02 8.143377e-01 9.731618e-02 5.269669e-01 -8.591108e-02 -1.779099e-02 -3.337093e-01 -2.387225e-01 -1.394370e-01 -1.328142e-02 -1.578280e-03 6.901870e-01 1.320959e-02 1.372380e-02 -9.176004e-02 3.639332e-02 -1.575096e-01 1.491283e-01 -5.762006e-02 8.414275e-02 1.803938e-01 4.043075e-01 1.437969e-01 1.912663e-01 -8.354767e-02 -8.377426e-05
<VARIANCE> 39
 1.074625e+01 2.355107e+01 2.172902e+01 2.108362e+01 2.366783e+01 3.105432e+01 3.414969e+01 3.247578e+01 2.570189e+01 2.464919e+01 3.531770e+01 3.349165e+01 6.642968e-03 3.775412e-01 6.833500e-01 1.043713e+00 1.309586e+00 1.453862e+00 1.653992e+00 1.758457e+00 1.776981e+00 1.992249e+00 2.187331e+00 1.978906e+00 1.607201e+00 2.055424e-04 6.010100e-02 1.039345e-01 1.581462e-01 2.239045e-01 2.863697e-01 3.210666e-01 3.031424e-01 3.301211e-01 3.575768e-01 3.016337e-01 3.274644e-01 3.227401e-01 2.250045e-05
<GCONST> 7.229442e+01
<MIXTURE> 5 7.398931e-02
<MEAN> 39
 -2.611503e+00 1.087910e+01 -5.942714e+00 -3.293589e+00 -8.845695e+00 -9.380445e+00 -5.615332e+00 -4.959618e+00 -6.233799e+00 -4.164030e+00 -7.444169e+00 6.316164e-01 8.673139e-01 -2.448034e-01 -2.670925e-01 -2.173319e-01 1.769765e-01 -2.279199e-01 -2.408385e-01 -6.930774e-01 -7.748687e-01 -5.546617e-01 -6.246540e-01 -5.269393e-01 -2.743669e-01 1.740793e-02 3.518287e-01 2.220785e-01 4.316368e-01 3.148864e-01 4.882680e-01 5.202473e-01 5.822826e-01 6.313249e-01 6.245465e-01 6.128937e-01 5.995100e-01 3.631943e-01 -5.807090e-03
<VARIANCE> 39
 1.188460e+01 3.021851e+01 1.386835e+01 1.569840e+01 1.385998e+01 1.830304e+01 2.454563e+01 2.509839e+01 2.254168e+01 2.108643e+01 2.453217e+01 3.459230e+01 7.130374e-03 3.405374e-01 3.670924e-01 5.329949e-01 8.184690e-01 8.330765e-01 7.948435e-01 1.035081e+00 1.016784e+00 9.735684e-01 1.176004e+00 1.472232e+00 1.588263e+00 1.548562e-04 5.442281e-02 8.249167e-02 8.248061e-02 1.494489e-01 1.309857e-01 1.733763e-01 1.826716e-01 1.875453e-01 1.657118e-01 1.936683e-01 2.667111e-01 2.928389e-01 4.027822e-05
<GCONST> 5.874007e+01
<MIXTURE> 6 5.688645e-02
<MEAN> 39
 -1.466150e+00 1.568239e+01 9.451111e-01 -2.388161e+00 -6.132575e+00 -4.141419e+00 -1.096387e+01 7.622836e-01 -1.133255e+00 -4.006125e+00 5.187918e+00 -3.956920e+00 8.235738e-01 -3.238490e-01 4.878716e-01 -1.633915e-01 2.159706e-01 -2.477696e-01 1.281242e-01 -2.710698e-01 -1.020932e-01 -3.348446e-01 -3.887587e-01 1.228511e-01 -3.847319e-01 1.512671e-02 9.111330e-02 -2.314714e-01 4.869371e-02 -1.339771e-01 1.167319e-01 -4.338282e-03 1.615639e-01 -1.825623e-02 5.554654e-02 1.149592e-01 -1.273754e-01 1.800699e-01 -2.197367e-03
<VARIANCE> 39
 7.930234e+00 2.362556e+01 1.012657e+01 1.600773e+01 1.680468e+01 1.910812e+01 1.864288e+01 2.275617e+01 2.273402e+01 2.888920e+01 1.500274e+01 1.097593e+01 5.328894e-03 4.108518e-01 4.835638e-01 4.068711e-01 7.139823e-01 6.145093e-01 6.728625e-01 8.505459e-01 1.014467e+00 1.141490e+00 6.301000e-01 8.871939e-01 8.780759e-01 2.048110e-04 6.503434e-02 7.659321e-02 8.793454e-02 1.411793e-01 1.095829e-01 1.257021e-01 1.285733e-01 1.776178e-01 1.536740e-01 1.628293e-01 1.279670e-01 1.265899e-01 2.301590e-05
<GCONST> 5.097623e+01
<MIXTURE> 7 5.703290e-02
<MEAN> 39
 -1.469308e+00 1.568655e+01 9.399731e-01 -2.429324e+00 -6.133847e+00 -4.130630e+00 -1.094359e+01 7.595397e-01 -1.136911e+00 -4.025033e+00 5.194692e+00 -3.958495e+00 8.237992e-01 -3.281406e-01 4.810333e-01 -1.626924e-01 2.164721e-01 -2.403053e-01 1.239948e-01 -2.643772e-01 -1.031209e-01 -3.266059e-01 -3.870469e-01 1.215053e-01 -3.820132e-01 1.523879e-02 9.161962e-02 -2.290098e-01 4.812039e-02 -1.291705e-01 1.156891e-01 -5.759470e-03 1.578538e-01 -1.884291e-02 5.477121e-02 1.148751e-01 -1.266137e-01 1.780764e-01 -2.245688e-03
<VARIANCE> 39
 7.929039e+00 2.365371e+01 1.006859e+01 1.579454e+01 1.685476e+01 1.890379e+01 1.849216e+01 2.261220e+01 2.258776e+01 2.864225e+01 1.488724e+01 1.086081e+01 5.347131e-03 4.112412e-01 4.746443e-01 4.034175e-01 7.015600e-01 6.083226e-01 6.650056e-01 8.390578e-01 1.002288e+00 1.137771e+00 6.216896e-01 8.775894e-01 8.707757e-01 2.043828e-04 6.520577e-02 7.613708e-02 8.677831e-02 1.386021e-01 1.083805e-01 1.230933e-01 1.275287e-01 1.752641e-01 1.519701e-01 1.600152e-01 1.266186e-01 1.247618e-01 2.317659e-05
<GCONST> 5.064143e+01
<MIXTURE> 8 3.849407e-02
<MEAN> 39
 -9.492739e-02 1.240645e+01 -3.597367e+00 -1.095538e+00 -5.637774e+00 -5.460251e+00 -3.931487e-01 -3.169406e-01 -1.814306e+00 3.170565e-01 -4.791379e+00 4.572177e+00 8.357568e-01 -9.338420e-01 -6.547194e-01 -8.064334e-01 -2.397090e-01 -7.819448e-01 -1.195566e+00 -1.534751e+00 -1.495376e+00 -1.379566e+00 -1.461598e+00 -1.283941e+00 -6.771304e-01 3.288530e-02 9.891187e-02 -1.520438e-01 1.052807e-01 5.452188e-02 1.026648e-01 5.441243e-02 5.475441e-02 5.537691e-02 1.054167e-01 1.286605e-01 2.172888e-01 1.360067e-02 -7.998040e-03
<VARIANCE> 39
 1.535697e+01 2.935337e+01 1.639159e+01 1.541343e+01 1.189994e+01 1.507516e+01 1.504399e+01 2.471231e+01 1.675949e+01 2.412398e+01 1.976524e+01 1.850536e+01 6.686433e-03 4.622933e-01 4.501701e-01 6.241620e-01 7.203459e-01 9.209322e-01 1.068679e+00 9.854905e-01 1.343343e+00 1.027682e+00 1.399600e+00 1.850779e+00 2.231006e+00 2.498379e-04 9.726044e-02 1.016480e-01 1.087663e-01 1.408761e-01 1.648446e-01 1.821906e-01 2.107893e-01 1.995479e-01 2.277148e-01 2.479507e-01 2.616134e-01 2.440057e-01 5.408616e-05
<GCONST> 6.178728e+01
<MIXTURE> 9 7.398931e-02
<MEAN> 39
 -2.611503e+00 1.087910e+01 -5.942714e+00 -3.293589e+00 -8.845695e+00 -9.380445e+00 -5.615332e+00 -4.959618e+00 -6.233799e+00 -4.164030e+00 -7.444169e+00 6.316164e-01 8.673139e-01 -2.448034e-01 -2.670925e-01 -2.173319e-01 1.769765e-01 -2.279199e-01 -2.408385e-01 -6.930774e-01 -7.748687e-01 -5.546617e-01 -6.246540e-01 -5.269393e-01 -2.743669e-01 1.740793e-02 3.518287e-01 2.220785e-01 4.316368e-01 3.148864e-01 4.882680e-01 5.202473e-01 5.822826e-01 6.313249e-01 6.245465e-01 6.128937e-01 5.995100e-01 3.631943e-01 -5.807090e-03
<VARIANCE> 39
 1.188460e+01 3.021851e+01 1.386835e+01 1.569840e+01 1.385998e+01 1.830304e+01 2.454563e+01 2.509839e+01 2.254168e+01 2.108643e+01 2.453217e+01 3.459230e+01 7.130374e-03 3.405374e-01 3.670924e-01 5.329949e-01 8.184690e-01 8.330765e-01 7.948435e-01 1.035081e+00 1.016784e+00 9.735684e-01 1.176004e+00 1.472232e+00 1.588263e+00 1.548562e-04 5.442281e-02 8.249167e-02 8.248061e-02 1.494489e-01 1.309857e-01 1.733763e-01 1.826716e-01 1.875453e-01 1.657118e-01 1.936683e-01 2.667111e-01 2.928389e-01 4.027822e-05
<GCONST> 5.874007e+01
<MIXTURE> 10 5.703290e-02
<MEAN> 39
 -1.469308e+00 1.568655e+01 9.399731e-01 -2.429324e+00 -6.133847e+00 -4.130630e+00 -1.094359e+01 7.595397e-01 -1.136911e+00 -4.025033e+00 5.194692e+00 -3.958495e+00 8.237992e-01 -3.281406e-01 4.810333e-01 -1.626924e-01 2.164721e-01 -2.403053e-01 1.239948e-01 -2.643772e-01 -1.031209e-01 -3.266059e-01 -3.870469e-01 1.215053e-01 -3.820132e-01 1.523879e-02 9.161962e-02 -2.290098e-01 4.812039e-02 -1.291705e-01 1.156891e-01 -5.759470e-03 1.578538e-01 -1.884291e-02 5.477121e-02 1.148751e-01 -1.266137e-01 1.780764e-01 -2.245688e-03
<VARIANCE> 39
 7.929039e+00 2.365371e+01 1.006859e+01 1.579454e+01 1.685476e+01 1.890379e+01 1.849216e+01 2.261220e+01 2.258776e+01 2.864225e+01 1.488724e+01 1.086081e+01 5.347131e-03 4.112412e-01 4.746443e-01 4.034175e-01 7.015600e-01 6.083226e-01 6.650056e-01 8.390578e-01 1.002288e+00 1.137771e+00 6.216896e-01 8.775894e-01 8.707757e-01 2.043828e-04 6.520577e-02 7.613708e-02 8.677831e-02 1.386021e-01 1.083805e-01 1.230933e-01 1.275287e-01 1.752641e-01 1.519701e-01 1.600152e-01 1.266186e-01 1.247618e-01 2.317659e-05
<GCONST> 5.064143e+01
<MIXTURE> 11 5.700937e-02
<MEAN> 39
 -1.469517e+00 1.568394e+01 9.398724e-01 -2.427464e+00 -6.129507e+00 -4.137824e+00 -1.094178e+01 7.544790e-01 -1.131709e+00 -4.023368e+00 5.197176e+00 -3.955983e+00 8.238295e-01 -3.270954e-01 4.823281e-01 -1.631173e-01 2.172774e-01 -2.415307e-01 1.243162e-01 -2.655736e-01 -1.033713e-01 -3.282965e-01 -3.873601e-01 1.216646e-01 -3.831684e-01 1.520849e-02 9.145095e-02 -2.293364e-01 4.830430e-02 -1.299910e-01 1.157030e-01 -5.235927e-03 1.582392e-01 -1.838341e-02 5.479940e-02 1.148677e-01 -1.269950e-01 1.784707e-01 -2.235564e-03
<VARIANCE> 39
 7.924056e+00 2.364069e+01 1.007287e+01 1.582872e+01 1.684515e+01 1.891809e+01 1.850426e+01 2.263413e+01 2.260804e+01 2.868125e+01 1.490880e+01 1.088170e+01 5.344681e-03 4.102631e-01 4.753871e-01 4.035775e-01 7.027264e-01 6.092336e-01 6.659972e-01 8.403020e-01 1.003170e+00 1.137371e+00 6.224567e-01 8.788958e-01 8.724025e-01 2.044577e-04 6.498638e-02 7.614575e-02 8.688265e-02 1.388949e-01 1.085396e-01 1.233725e-01 1.276148e-01 1.754600e-01 1.521573e-01 1.604218e-01 1.267652e-01 1.250287e-01 2.314558e-05
<GCONST> 5.067231e+01
<MIXTURE> 12 3.847528e-02
<MEAN> 39
 -1.052247e-01 1.240192e+01 -3.598200e+00 -1.078579e+00 -5.630246e+00 -5.459286e+00 -4.121485e-01 -3.184121e-01 -1.820887e+00 3.249098e-01 -4.791026e+00 4.580015e+00 8.361529e-01 -9.308212e-01 -6.534960e-01 -8.030486e-01 -2.373195e-01 -7.825505e-01 -1.196591e+00 -1.536603e+00 -1.495182e+00 -1.374977e+00 -1.454577e+00 -1.278356e+00 -6.760209e-01 3.283317e-02 9.950792e-02 -1.519612e-01 1.043728e-01 5.217278e-02 1.007169e-01 5.444693e-02 5.600780e-02 5.458096e-02 1.041422e-01 1.266621e-01 2.159585e-01 1.255513e-02 -7.999072e-03
<VARIANCE> 39
 1.537859e+01 2.935774e+01 1.635545e+01 1.542941e+01 1.187771e+01 1.507998e+01 1.497672e+01 2.472535e+01 1.674873e+01 2.414720e+01 1.976011e+01 1.847610e+01 6.680919e-03 4.615219e-01 4.490880e-01 6.231759e-01 7.187506e-01 9.195467e-01 1.071144e+00 9.840590e-01 1.344359e+00 1.028187e+00 1.396568e+00 1.839754e+00 2.216987e+00 2.496821e-04 9.694026e-02 1.014422e-01 1.086705e-01 1.410686e-01 1.643673e-01 1.821061e-01 2.104321e-01 1.996016e-01 2.274678e-01 2.467847e-01 2.615603e-01 2.440818e-01 5.411032e-05
<GCONST> 6.174259e+01
<MIXTURE> 13 5.700133e-02
<MEAN> 39
 -1.468475e+00 1.567685e+01 9.381049e-01 -2.438805e+00 -6.115372e+00 -4.159608e+00 -1.092736e+01 7.395414e-01 -1.119601e+00 -4.020095e+00 5.205460e+00 -3.949189e+00 8.239662e-01 -3.253376e-01 4.836528e-01 -1.643828e-01 2.203331e-01 -2.423815e-01 1.232732e-01 -2.670551e-01 -1.048593e-01 -3.305936e-01 -3.873149e-01 1.210140e-01 -3.857282e-01 1.515500e-02 9.079179e-02 -2.291480e-01 4.851275e-02 -1.306884e-01 1.152906e-01 -4.005246e-03 1.578956e-01 -1.729922e-02 5.455609e-02 1.144232e-01 -1.276547e-01 1.790495e-01 -2.218514e-03
<VARIANCE> 39
 7.906647e+00 2.360956e+01 1.005922e+01 1.584767e+01 1.684179e+01 1.887839e+01 1.848345e+01 2.264995e+01 2.262563e+01 2.871636e+01 1.494045e+01 1.090153e+01 5.346302e-03 4.068822e-01 4.740758e-01 4.024409e-01 7.008647e-01 6.095672e-01 6.656307e-01 8.398982e-01 1.000725e+00 1.134315e+00 6.212545e-01 8.791953e-01 8.742764e-01 2.045376e-04 6.430297e-02 7.592741e-02 8.673088e-02 1.387001e-01 1.085771e-01 1.231679e-01 1.274502e-01 1.750666e-01 1.521241e-01 1.605550e-01 1.267216e-01 1.252137e-01 2.309193e-05
<GCONST> 5.062894e+01
<MIXTURE> 14 3.847528e-02
<MEAN> 39
 -1.052247e-01 1.240192e+01 -3.598200e+00 -1.078579e+00 -5.630246e+00 -5.459286e+00 -4.121485e-01 -3.184121e-01 -1.820887e+00 3.249098e-01 -4.791026e+00 4.580015e+00 8.361529e-01 -9.308212e-01 -6.534960e-01 -8.030486e-01 -2.373195e-01 -7.825505e-01 -1.196591e+00 -1.536603e+00 -1.495182e+00 -1.374977e+00 -1.454577e+00 -1.278356e+00 -6.760209e-01 3.283317e-02 9.950792e-02 -1.519612e-01 1.043728e-01 5.217278e-02 1.007169e-01 5.444693e-02 5.600780e-02 5.458096e-02 1.041422e-01 1.266621e-01 2.159585e-01 1.255513e-02 -7.999072e-03
<VARIANCE> 39
 1.537859e+01 2.935774e+01 1.635545e+01 1.542941e+01 1.187771e+01 1.507998e+01 1.497672e+01 2.472535e+01 1.674873e+01 2.414720e+01 1.976011e+01 1.847610e+01 6.680919e-03 4.615219e-01 4.490880e-01 6.231759e-01 7.187506e-01 9.195467e-01 1.071144e+00 9.840590e-01 1.344359e+00 1.028187e+00 1.396568e+00 1.839754e+00 2.216987e+00 2.496821e-04 9.694026e-02 1.014422e-01 1.086705e-01 1.410686e-01 1.643673e-01 1.821061e-01 2.104321e-01 1.996016e-01 2.274678e-01 2.467847e-01 2.615603e-01 2.440818e-01 5.411032e-05
<GCONST> 6.174259e+01
<MIXTURE> 15 3.845807e-02
<MEAN> 39
 -8.266709e-02 1.251053e+01 -3.607401e+00 -9.712658e-01 -5.630668e+00 -5.477132e+00 -4.656993e-01 -3.447549e-01 -1.832626e+00 3.031373e-01 -4.845765e+00 4.635267e+00 8.362721e-01 -9.202532e-01 -6.499116e-01 -7.987926e-01 -2.392436e-01 -7.979934e-01 -1.204075e+00 -1.541573e+00 -1.490080e+00 -1.359677e+00 -1.439214e+00 -1.270875e+00 -6.849707e-01 3.251715e-02 9.730454e-02 -1.536360e-01 9.544521e-02 3.819135e-02 9.006458e-02 4.685427e-02 5.381095e-02 4.688264e-02 9.233125e-02 1.160464e-01 2.053017e-01 5.492209e-03 -7.817341e-03
<VARIANCE> 39
 1.546415e+01 2.894206e+01 1.611273e+01 1.544110e+01 1.163726e+01 1.500220e+01 1.471101e+01 2.497052e+01 1.656121e+01 2.419321e+01 1.960096e+01 1.823902e+01 6.693832e-03 4.563833e-01 4.463566e-01 6.181169e-01 7.150269e-01 9.100114e-01 1.085930e+00 9.778855e-01 1.356182e+00 1.033187e+00 1.395115e+00 1.820976e+00 2.173884e+00 2.466728e-04 9.550586e-02 9.980299e-02 1.097306e-01 1.425240e-01 1.641187e-01 1.841797e-01 2.097909e-01 2.008815e-01 2.258451e-01 2.401605e-01 2.624929e-01 2.451638e-01 5.269386e-05
<GCONST> 6.154350e+01
<MIXTURE> 16 2.094445e-02
<MEAN> 39
 -3.508403e+00 1.377116e+01 -5.462232e+00 -2.877860e+00 -8.157789e+00 -8.843624e+00 -4.484560e+00 -3.645109e+00 -5.875721e+00 -1.472888e+00 -5.485808e+00 3.839360e+00 8.565845e-01 -6.140552e-01 -1.053832e+00 -1.290800e+00 -1.534222e+00 -1.784458e+00 -1.768564e+00 -1.591125e+00 -1.543900e+00 -1.330007e+00 -9.303324e-01 -5.609705e-01 -6.573144e-02 1.384288e-02 1.031648e-01 3.002135e-02 1.253751e-01 -2.245055e-02 2.116163e-01 2.175078e-01 2.785683e-01 1.541617e-01 2.806688e-01 -1.317491e-01 1.173237e-02 1.190825e-05 -3.413298e-03
<VARIANCE> 39
 2.481254e+00 2.397475e+01 5.102108e+00 1.037180e+01 1.368267e+01 1.221049e+01 2.722697e+01 1.575014e+01 1.363810e+01 1.336607e+01 2.218810e+01 1.130478e+01 3.854356e-03 2.013406e-01 2.433572e-01 3.973938e-01 7.129343e-01 8.179788e-01 2.428843e-01 7.174737e-01 8.618678e-01 9.456598e-01 1.447484e+00 4.373903e-01 6.772538e-01 8.084591e-05 3.334085e-02 8.311083e-02 6.012496e-02 1.845037e-01 2.197727e-01 1.533909e-01 1.675397e-01 1.392717e-01 1.618570e-01 1.597006e-01 1.456562e-01 1.242421e-01 6.989989e-06
<GCONST> 4.230714e+01
<MIXTURE> 17 3.093579e-02
<MEAN> 39
 -3.183777e+00 9.957841e+00 -7.435692e+00 -2.731207e+00 -6.498145e+00 -5.686581e+00 -1.045672e+00 -2.381314e+00 1.291330e+00 1.741276e+00 5.394417e+00 1.382684e+01 8.566405e-01 -5.960319e-01 -2.966892e-01 -8.842367e-02 5.074279e-01 6.607094e-02 -1.691069e-01 -1.221781e+00 -7.939532e-01 -2.284885e-01 5.364497e-01 1.985151e+00 2.826136e+00 2.624864e-02 3.802983e-01 1.539587e-01 3.122607e-01 6.707807e-02 1.198807e-01 8.365525e-02 3.281353e-01 4.420515e-01 2.509836e-01 1.022021e-01 -2.156659e-01 -7.253615e-01 -1.104850e-02
<VARIANCE> 39
 1.195252e+01 1.839495e+01 1.585601e+01 1.235241e+01 2.347210e+01 1.643865e+01 2.048984e+01 1.806745e+01 2.022091e+01 1.929143e+01 2.007289e+01 2.518532e+01 4.623245e-03 5.015631e-01 3.373690e-01 9.593537e-01 6.397206e-01 1.425115e+00 1.107180e+00 1.137955e+00 9.344358e-01 1.362242e+00 2.972066e+00 1.741726e+00 2.665612e+00 1.249437e-04 6.555435e-02 5.556129e-02 1.042233e-01 8.620266e-02 1.845290e-01 1.707363e-01 1.741914e-01 2.188677e-01 1.606469e-01 2.951166e-01 1.902743e-01 2.518972e-01 5.277225e-05
<GCONST> 6.024281e+01
<MIXTURE> 18 6.713940e-02
<MEAN> 39
 2.575940e-01 1.208973e+01 -3.110113e+00 -1.585745e+00 -5.826266e+00 -5.078185e+00 -4.176403e+00 -1.128852e+00 -5.185441e+00 -1.799418e+00 -3.591996e+00 7.298651e-01 8.156435e-01 3.202139e-02 8.171843e-01 9.691590e-02 5.263690e-01 -8.738856e-02 -1.872683e-02 -3.352797e-01 -2.389550e-01 -1.385054e-01 -1.169499e-02 -1.585211e-03 6.897098e-01 1.316261e-02 1.293204e-02 -9.201889e-02 3.620219e-02 -1.576333e-01 1.502807e-01 -5.569604e-02 8.326856e-02 1.796472e-01 4.033137e-01 1.427500e-01 1.914841e-01 -8.466213e-02 -6.491084e-05
<VARIANCE> 39
 1.071031e+01 2.348312e+01 2.173069e+01 2.111562e+01 2.368321e+01 3.095984e+01 3.418950e+01 3.254689e+01 2.574304e+01 2.465550e+01 3.524195e+01 3.350104e+01 6.648674e-03 3.773882e-01 6.826319e-01 1.046585e+00 1.310956e+00 1.457584e+00 1.658016e+00 1.759226e+00 1.778305e+00 1.991740e+00 2.193202e+00 1.978120e+00 1.607420e+00 2.054139e-04 5.965012e-02 1.038875e-01 1.583913e-01 2.236241e-01 2.864820e-01 3.211973e-01 3.035888e-01 3.296551e-01 3.572624e-01 3.015863e-01 3.266311e-01 3.227505e-01 2.237343e-05
<GCONST> 7.228558e+01
<MIXTURE> 19 6.727554e-02
<MEAN> 39
 2.780850e-01 1.208919e+01 -3.116053e+00 -1.610167e+00 -5.847422e+00 -5.137239e+00 -4.252455e+00 -1.104478e+00 -5.196724e+00 -1.762678e+00 -3.586123e+00 6.533997e-01 8.158684e-01 3.066992e-02 8.263039e-01 9.775549e-02 5.190161e-01 -9.187037e-02 -2.138655e-02 -3.265718e-01 -2.389962e-01 -1.415331e-01 -1.142882e-02 1.637651e-03 6.857619e-01 1.298087e-02 1.188153e-02 -9.233242e-02 3.690919e-02 -1.557009e-01 1.525570e-01 -4.854169e-02 8.558257e-02 1.794856e-01 4.025085e-01 1.389190e-01 1.920923e-01 -8.229171e-02 -4.790726e-05
<VARIANCE> 39
 1.065858e+01 2.332142e+01 2.187067e+01 2.113631e+01 2.374181e+01 3.086611e+01 3.436769e+01 3.283564e+01 2.592369e+01 2.475050e+01 3.539989e+01 3.367383e+01 6.639662e-03 3.788767e-01 6.832219e-01 1.060537e+00 1.312412e+00 1.481487e+00 1.669142e+00 1.768665e+00 1.791600e+00 1.986698e+00 2.216462e+00 1.983210e+00 1.605807e+00 2.043978e-04 5.882739e-02 1.029521e-01 1.597502e-01 2.223514e-01 2.871312e-01 3.207276e-01 3.049960e-01 3.310996e-01 3.559480e-01 3.018094e-01 3.266272e-01 3.226746e-01 2.210199e-05
<GCONST> 7.234763e+01
<MIXTURE> 20 1.286204e-01
<MEAN> 39
 3.107932e-02 1.261250e+01 -1.125533e+00 -3.648371e+00 -6.746832e+00 -3.982753e+00 -8.042815e+00 6.624315e-01 -1.983848e+00 -3.031432e+00 2.604304e+00 -3.606833e+00 8.103023e-01 -9.860154e-01 7.222890e-01 -1.274935e-01 -2.477709e-01 -1.778684e-01 -1.166693e-01 -5.131654e-01 -1.832996e-01 -3.323831e-01 -5.689009e-01 1.749022e-01 -5.051419e-01 4.827231e-02 -1.079917e-01 -7.309546e-01 1.836513e-01 4.579947e-01 4.324522e-01 3.237897e-01 5.683204e-01 1.013824e-02 3.006759e-01 2.758181e-01 -9.038882e-02 4.337970e-01 -2.786121e-02
<VARIANCE> 39
 8.519219e+00 5.202569e+01 1.851022e+01 1.662433e+01 2.804331e+01 3.513755e+01 3.964810e+01 2.868592e+01 2.417633e+01 2.872931e+01 2.899961e+01 2.408217e+01 9.525286e-03 6.299875e-01 1.607360e+00 9.168977e-01 1.828451e+00 1.540319e+00 1.554631e+00 1.686073e+00 2.985119e+00 2.266113e+00 1.860587e+00 2.472164e+00 2.237892e+00 6.183107e-04 1.648813e-01 3.422468e-01 2.377717e-01 2.390358e-01 3.957516e-01 4.171283e-01 3.698542e-01 4.204406e-01 3.074722e-01 3.119678e-01 4.010110e-01 3.544600e-01 3.827109e-04
<GCONST> 8.307960e+01
<STATE> 4
<NUMMIXES> 20
<MIXTURE> 1 6.113257e-02
<MEAN> 39
 -2.558224e+00 1.068093e+01 -5.761869e+00 -2.763214e+00 -8.717668e+00 -8.574808e+00 -5.665567e+00 -4.984189e+00 -6.285674e+00 -3.537110e+00 -6.735691e+00 7.986913e-01 8.971125e-01 3.879755e-01 3.917649e-01 5.534474e-01 7.584552e-01 7.691058e-01 9.267231e-01 6.917859e-01 5.964521e-01 5.672815e-01 5.402176e-01 6.922773e-01 5.135734e-01 6.610266e-03 1.421386e-01 2.057403e-01 2.588207e-01 1.628051e-01 3.490736e-01 2.522829e-01 4.377506e-01 4.594193e-01 3.726431e-01 3.605517e-01 3.487707e-01 1.853662e-01 -2.858958e-03
<VARIANCE> 39
 1.069659e+01 2.785347e+01 1.090320e+01 1.695573e+01 9.894123e+00 1.632367e+01 2.111238e+01 1.982133e+01 2.289093e+01 2.077187e+01 2.629856e+01 3.785805e+01 6.625816e-03 1.812561e-01 3.095122e-01 3.131698e-01 5.624683e-01 4.592490e-01 6.458392e-01 7.688423e-01 6.378681e-01 4.755437e-01 7.014659e-01 8.196610e-01 9.209431e-01 5.592151e-05 2.849424e-02 4.372822e-02 6.248273e-02 1.182667e-01 9.677202e-02 1.306996e-01 1.094667e-01 1.215260e-01 1.573841e-01 1.685430e-01 2.280212e-01 1.730047e-01 1.051217e-05
<GCONST> 4.543940e+01
<MIXTURE> 2 5.254489e-02
<MEAN> 39
 -1.038809e+00 1.389168e+01 -1.442019e+00 -1.562925e+00 -6.138182e+00 -5.257650e+00 -6.090627e+00 -2.489112e+00 1.267300e+00 -1.201030e+00 3.513725e+00 2.269146e+00 8.778346e-01 1.657227e-01 6.421202e-01 2.490411e-01 5.150357e-01 2.718853e-01 1.360046e-01 1.012523e-02 2.198768e-01 5.882515e-01 2.900549e-01 3.483980e-01 1.832080e-01 7.472720e-03 5.214920e-02 -1.135696e-01 -1.682719e-02 -1.165007e-01 4.007917e-02 -3.883950e-02 8.463926e-02 1.049614e-01 2.075328e-02 3.065360e-02 -1.770520e-01 -1.564680e-01 -2.351162e-03
<VARIANCE> 39
 1.826472e+01 2.975149e+01 4.952554e+01 1.660529e+01 2.714130e+01 3.422692e+01 5.695124e+01 3.185835e+01 4.337346e+01 7.849310e+01 6.497346e+01 9.407947e+01 5.060874e-03 2.880439e-01 4.576336e-01 7.589866e-01 8.855185e-01 1.049795e+00 1.355231e+00 1.533584e+00 1.236180e+00 9.628525e-01 1.707839e+00 1.318675e+00 1.517138e+00 7.668350e-05 4.471847e-02 7.844038e-02 1.492900e-01 1.445551e-01 2.191917e-01 2.226110e-01 2.905972e-01 2.195983e-01 2.933489e-01 2.557506e-01 3.004947e-01 3.081382e-01 1.185834e-05
<GCONST> 6.930049e+01
<MIXTURE> 3 5.257786e-02
<MEAN> 39
 -9.220374e-01 1.408866e+01 -1.139665e+00 -1.465219e+00 -6.171511e+00 -5.299905e+00 -6.536859e+00 -2.545327e+00 9.524999e-01 -1.602015e+00 3.110585e+00 1.560473e+00 8.749459e-01 1.460050e-01 6.435508e-01 2.146455e-01 4.717831e-01 2.541778e-01 1.193867e-01 1.249164e-03 1.893676e-01 5.788335e-01 2.694454e-01 3.276730e-01 1.751173e-01 7.159666e-03 4.651763e-02 -1.248801e-01 -2.268373e-02 -1.285202e-01 4.042899e-02 -3.782215e-02 8.566511e-02 9.965309e-02 2.670342e-02 3.758940e-02 -1.606981e-01 -1.310776e-01 -2.220255e-03
<VARIANCE> 39
 1.785119e+01 2.938978e+01 4.980565e+01 1.663371e+01 2.685016e+01 3.461959e+01 5.655277e+01 3.175224e+01 4.059123e+01 7.332491e+01 6.337476e+01 8.854325e+01 5.026759e-03 2.777792e-01 4.592890e-01 7.489720e-01 9.037110e-01 1.049525e+00 1.375855e+00 1.584674e+00 1.245244e+00 9.791663e-01 1.694497e+00 1.283185e+00 1.436655e+00 7.647495e-05 4.369996e-02 7.780039e-02 1.512042e-01 1.448750e-01 2.182469e-01 2.273057e-01 2.999610e-01 2.245716e-01 2.950112e-01 2.592934e-01 2.974982e-01 2.985941e-01 1.172817e-05
<GCONST> 6.901126e+01
<MIXTURE> 4 3.452767e-02
<MEAN> 39
 -1.374120e+00 1.036817e+01 -3.274180e+00 1.815847e-01 -3.506280e+00 -5.308560e+00 -3.648097e+00 -1.145533e+00 -4.736939e+00 3.286362e-01 -3.128037e+00 5.966184e+00 9.252191e-01 1.534757e-01 2.482446e-01 2.349776e-01 3.114462e-01 2.884832e-01 2.251366e-01 3.627193e-01 2.477890e-01 2.815989e-01 1.130832e-01 9.811195e-02 1.226103e-01 1.192847e-03 -3.715713e-02 -3.220778e-02 -3.071431e-02 -6.514128e-02 -7.609005e-02 -8.648995e-02 -1.389075e-02 -2.753514e-02 2.765483e-02 -3.044953e-02 -2.808459e-02 -7.600012e-02 -1.375914e-03
<VARIANCE> 39
 1.254749e+01 2.107985e+01 8.316942e+00 1.265790e+01 9.187508e+00 2.249470e+01 1.669318e+01 2.493484e+01 2.399035e+01 2.023550e+01 3.958230e+01 3.715901e+01 3.162838e-03 7.415221e-02 9.467196e-02 1.814493e-01 1.924057e-01 3.497161e-01 2.954812e-01 1.665117e-01 2.967469e-01 2.470278e-01 2.797771e-01 2.578737e-01 3.387199e-01 3.754082e-05 1.088820e-02 1.921690e-02 2.755810e-02 4.096704e-02 4.373723e-02 4.174456e-02 4.416626e-02 4.803720e-02 5.967369e-02 4.508995e-02 4.328230e-02 5.421452e-02 3.730629e-06
<GCONST> 1.991368e+01
<MIXTURE> 5 8.937331e-02
<MEAN> 39
 -7.994526e-01 1.373399e+01 -2.164214e+00 -1.388317e+00 -5.004205e+00 -5.556614e+00 -5.910639e+00 7.285861e-01 -5.200590e+00 -5.976721e-01 -2.230217e+00 8.945545e-01 8.737026e-01 7.888112e-02 2.196165e-01 2.152589e-01 4.069744e-01 1.613934e-01 6.370725e-03 1.118536e-01 1.786921e-01 1.673717e-01 4.300947e-02 -7.644556e-02 1.971578e-01 1.027535e-02 5.662373e-02 -7.685740e-02 -1.112276e-02 -5.493002e-02 2.360483e-02 -2.038849e-03 4.483180e-02 3.664403e-02 1.645144e-01 6.420839e-02 1.121154e-01 -1.042049e-01 -3.737515e-03
<VARIANCE> 39
 7.178565e+00 3.492733e+01 9.355360e+00 1.185738e+01 1.722237e+01 2.150952e+01 2.460520e+01 3.133294e+01 2.056453e+01 2.645322e+01 3.452422e+01 2.503289e+01 5.433735e-03 1.670233e-01 2.940625e-01 3.903164e-01 4.643691e-01 5.749280e-01 5.990497e-01 8.709195e-01 8.177620e-01 8.499314e-01 7.686019e-01 9.950568e-01 7.682995e-01 6.432254e-05 3.544139e-02 5.059902e-02 6.965359e-02 7.522936e-02 1.041567e-01 8.773904e-02 1.306670e-01 1.603270e-01 1.254973e-01 1.277367e-01 1.522641e-01 1.357409e-01 1.167463e-05
<GCONST> 4.633928e+01
<MIXTURE> 6 5.825642e-02
<MEAN> 39
 -2.469017e+00 1.549889e+01 -2.940788e-01 -2.473026e+00 -3.912643e+00 -5.369133e+00 -7.246794e+00 -4.170291e-02 -1.158133e+00 -3.162321e+00 3.630808e+00 -1.459589e+00 8.687891e-01 2.489550e-03 2.488476e-02 -4.164916e-02 -9.758351e-02 6.972983e-02 -4.437757e-02 5.975456e-02 -5.771854e-02 2.778709e-02 -4.198495e-03 -8.974666e-03 6.754437e-03 7.087318e-04 1.330698e-02 -2.985821e-02 7.649384e-03 -3.254667e-02 7.923339e-03 -2.028437e-02 2.542984e-03 5.613625e-03 1.008549e-02 1.801372e-02 -1.302647e-02 1.732149e-02 -1.008396e-03
<VARIANCE> 39
 7.798035e+00 3.076808e+01 9.617357e+00 7.349582e+00 1.013741e+01 1.606436e+01 2.419048e+01 1.479596e+01 1.849431e+01 2.861513e+01 2.731868e+01 2.345403e+01 7.509315e-03 5.024017e-02 7.691780e-02 8.934444e-02 1.291148e-01 1.368611e-01 1.607798e-01 1.607125e-01 1.886764e-01 1.992157e-01 2.119883e-01 1.509065e-01 1.701501e-01 3.754082e-05 7.560092e-03 1.591324e-02 1.519779e-02 1.918215e-02 2.570220e-02 2.590260e-02 2.707903e-02 3.218279e-02 3.715677e-02 3.362733e-02 2.501782e-02 3.245641e-02 3.730629e-06
<GCONST> 8.058096e+00
<MIXTURE> 7 5.858282e-02
<MEAN> 39
 -2.488871e+00 1.570655e+01 -2.141095e-01 -2.471670e+00 -4.037004e+00 -5.249209e+00 -7.515712e+00 9.554463e-04 -1.160203e+00 -3.437851e+00 3.728165e+00 -1.818589e+00 8.669611e-01 -2.500863e-04 2.963360e-02 -3.986682e-02 -9.494445e-02 7.186513e-02 -4.845216e-02 5.930909e-02 -6.011693e-02 2.770334e-02 -2.983451e-03 -1.089132e-02 7.660434e-03 8.449702e-04 1.303384e-02 -3.089726e-02 7.759424e-03 -3.427956e-02 8.303387e-03 -2.063213e-02 3.819099e-03 3.921356e-03 9.823610e-03 1.929228e-02 -1.286575e-02 2.090022e-02 -1.036192e-03
<VARIANCE> 39
 7.959082e+00 3.061570e+01 9.653484e+00 7.395683e+00 1.022595e+01 1.595027e+01 2.321654e+01 1.487874e+01 1.794226e+01 2.761409e+01 2.594019e+01 2.099462e+01 7.546012e-03 5.212716e-02 7.784095e-02 9.184747e-02 1.317664e-01 1.403601e-01 1.641337e-01 1.613898e-01 1.953830e-01 2.083138e-01 2.147184e-01 1.539414e-01 1.720376e-01 3.754082e-05 7.989955e-03 1.615606e-02 1.569944e-02 1.960747e-02 2.660395e-02 2.664889e-02 2.747489e-02 3.329251e-02 3.897074e-02 3.430349e-02 2.560910e-02 3.282444e-02 3.730629e-06
<GCONST> 8.434582e+00
<MIXTURE> 8 2.122663e-02
<MEAN> 39
 -2.248123e+00 1.111014e+01 -2.504311e+00 -4.705774e-03 -4.450900e+00 -5.493128e+00 -2.825682e+00 -1.040470e+00 -2.329621e+00 1.269480e-03 -8.669684e-01 7.790170e+00 9.209591e-01 -1.247399e-01 -3.530858e-01 -3.784614e-01 -1.925597e-01 -3.096172e-01 -3.919913e-01 -4.284879e-01 -3.508326e-01 -2.480918e-01 -1.823512e-01 -9.667121e-02 -2.774247e-01 4.368984e-03 -2.803719e-02 -7.398328e-02 -7.855390e-02 -1.190218e-01 -8.497737e-02 -4.801874e-02 -3.895462e-02 -8.896644e-02 -7.034673e-02 8.207250e-04 -2.828199e-02 -1.652049e-01 -2.208823e-03
<VARIANCE> 39
 1.416488e+01 1.883237e+01 1.029627e+01 1.342328e+01 1.328832e+01 2.814750e+01 1.746992e+01 2.126077e+01 2.762599e+01 3.439615e+01 5.513913e+01 4.166243e+01 4.074608e-03 8.828953e-02 1.406685e-01 1.621691e-01 2.998588e-01 3.274137e-01 3.170161e-01 2.453011e-01 3.617553e-01 2.818334e-01 2.876721e-01 5.361165e-01 6.676794e-01 3.964897e-05 1.838339e-02 2.238955e-02 3.455424e-02 3.728590e-02 6.223736e-02 6.089039e-02 6.419752e-02 7.495587e-02 7.552880e-02 7.197107e-02 1.055521e-01 7.988604e-02 3.801490e-06
<GCONST> 2.952006e+01
<MIXTURE> 9 8.956704e-02
<MEAN> 39
 -8.060576e-01 1.381873e+01 -2.095432e+00 -1.430486e+00 -5.056750e+00 -5.536378e+00 -6.029939e+00 8.457937e-01 -5.244855e+00 -6.012670e-01 -2.147485e+00 7.676554e-01 8.731285e-01 7.306266e-02 2.191360e-01 2.117338e-01 3.956386e-01 1.539555e-01 1.021816e-03 1.162223e-01 1.776738e-01 1.683725e-01 3.776591e-02 -8.425742e-02 1.910756e-01 1.013819e-02 5.546442e-02 -7.834743e-02 -1.083404e-02 -5.217551e-02 2.799479e-02 -2.854653e-03 4.152058e-02 3.163582e-02 1.669562e-01 6.460774e-02 1.146595e-01 -1.021935e-01 -3.670943e-03
<VARIANCE> 39
 7.080070e+00 3.474780e+01 9.446995e+00 1.170521e+01 1.751712e+01 2.182085e+01 2.478540e+01 3.127002e+01 2.066346e+01 2.695561e+01 3.488032e+01 2.483728e+01 5.346397e-03 1.646662e-01 2.937392e-01 3.950226e-01 4.650250e-01 5.792942e-01 5.976741e-01 8.757048e-01 8.188164e-01 8.638258e-01 7.689377e-01 9.935138e-01 7.682126e-01 6.343834e-05 3.485398e-02 5.081126e-02 6.976783e-02 7.507563e-02 1.051657e-01 8.859767e-02 1.316334e-01 1.618294e-01 1.260587e-01 1.287226e-01 1.529643e-01 1.363358e-01 1.151251e-05
<GCONST> 4.640514e+01
<MIXTURE> 10 5.825024e-02
<MEAN> 39
 -2.455770e+00 1.547876e+01 -3.128583e-01 -2.475050e+00 -3.890365e+00 -5.388987e+00 -7.211146e+00 -4.574654e-02 -1.164905e+00 -3.114412e+00 3.611216e+00 -1.411729e+00 8.687714e-01 2.773289e-03 2.434660e-02 -4.191232e-02 -9.822710e-02 6.941164e-02 -4.380139e-02 6.007362e-02 -5.767219e-02 2.798024e-02 -4.853287e-03 -8.617856e-03 6.659910e-03 6.954875e-04 1.329736e-02 -2.975123e-02 7.651962e-03 -3.239381e-02 7.749493e-03 -2.035476e-02 2.355325e-03 5.861074e-03 1.014463e-02 1.776288e-02 -1.304831e-02 1.675802e-02 -1.003779e-03
<VARIANCE> 39
 7.725723e+00 3.076086e+01 9.596581e+00 7.334226e+00 1.012001e+01 1.609444e+01 2.434945e+01 1.476649e+01 1.858733e+01 2.866993e+01 2.752526e+01 2.375342e+01 7.508431e-03 4.991556e-02 7.673538e-02 8.902425e-02 1.288905e-01 1.362298e-01 1.604735e-01 1.607376e-01 1.879545e-01 1.979491e-01 2.116534e-01 1.506528e-01 1.697429e-01 3.754082e-05 7.487240e-03 1.584650e-02 1.512057e-02 1.914470e-02 2.556015e-02 2.582548e-02 2.704276e-02 3.204542e-02 3.691226e-02 3.353168e-02 2.497164e-02 3.235989e-02 3.730629e-06
<GCONST> 7.990253e+00
<MIXTURE> 11 5.825041e-02
<MEAN> 39
 -2.456772e+00 1.546151e+01 -3.171737e-01 -2.474979e+00 -3.879376e+00 -5.399863e+00 -7.190141e+00 -5.122145e-02 -1.163114e+00 -3.090698e+00 3.610039e+00 -1.377327e+00 8.690715e-01 3.030492e-03 2.386739e-02 -4.205532e-02 -9.848356e-02 6.917971e-02 -4.352839e-02 6.004573e-02 -5.726818e-02 2.790081e-02 -4.935588e-03 -8.501294e-03 6.600385e-03 6.828983e-04 1.335921e-02 -2.965684e-02 7.667934e-03 -3.218731e-02 7.711894e-03 -2.024059e-02 2.292290e-03 6.077159e-03 1.019245e-02 1.764929e-02 -1.302500e-02 1.648689e-02 -1.001688e-03
<VARIANCE> 39
 7.715148e+00 3.078097e+01 9.585819e+00 7.327452e+00 1.010883e+01 1.608513e+01 2.441171e+01 1.475351e+01 1.864017e+01 2.876044e+01 2.762461e+01 2.399931e+01 7.484729e-03 4.976289e-02 7.670172e-02 8.879109e-02 1.285438e-01 1.359375e-01 1.599760e-01 1.606302e-01 1.872759e-01 1.970811e-01 2.113125e-01 1.502543e-01 1.695211e-01 3.754082e-05 7.449608e-03 1.583527e-02 1.507499e-02 1.909884e-02 2.547763e-02 2.572381e-02 2.700540e-02 3.191465e-02 3.674544e-02 3.346039e-02 2.489539e-02 3.230845e-02 3.730629e-06
<GCONST> 7.940752e+00
<MIXTURE> 12 2.121118e-02
<MEAN> 39
 -2.346099e+00 1.106677e+01 -2.548649e+00 -2.053557e-01 -4.613957e+00 -5.235109e+00 -2.683221e+00 -9.887893e-01 -1.883886e+00 2.946588e-01 -2.510425e-01 8.092965e+00 9.222152e-01 -1.147219e-01 -3.457948e-01 -3.655568e-01 -1.792538e-01 -3.023635e-01 -3.966299e-01 -4.163474e-01 -3.324261e-01 -2.351723e-01 -1.716440e-01 -7.376803e-02 -2.393862e-01 4.538157e-03 -2.567798e-02 -7.129528e-02 -7.319052e-02 -1.139643e-01 -8.126804e-02 -4.872439e-02 -3.767107e-02 -8.500551e-02 -7.193064e-02 -5.425476e-03 -4.585115e-02 -1.720048e-01 -2.290916e-03
<VARIANCE> 39
 1.378059e+01 1.953154e+01 1.094354e+01 1.363242e+01 1.296271e+01 2.724128e+01 1.755881e+01 2.023754e+01 3.140562e+01 3.888596e+01 5.678653e+01 4.289485e+01 4.134168e-03 9.400593e-02 1.454521e-01 1.615625e-01 2.856552e-01 3.284557e-01 3.187690e-01 2.436957e-01 3.566744e-01 2.817545e-01 2.938668e-01 5.623457e-01 6.837767e-01 4.009191e-05 1.957300e-02 2.256034e-02 3.645436e-02 3.768432e-02 6.202804e-02 6.314004e-02 6.357733e-02 7.423139e-02 7.994652e-02 7.795224e-02 1.103131e-01 8.154123e-02 3.822805e-06
<GCONST> 3.031814e+01
<MIXTURE> 13 5.854775e-02
<MEAN> 39
 -2.495571e+00 1.568812e+01 -2.130129e-01 -2.469852e+00 -4.033235e+00 -5.255264e+00 -7.498825e+00 -2.132278e-03 -1.155463e+00 -3.427345e+00 3.725302e+00 -1.795008e+00 8.672763e-01 -4.994845e-05 2.925739e-02 -4.000532e-02 -9.489214e-02 7.177579e-02 -4.821045e-02 5.923414e-02 -5.983223e-02 2.754833e-02 -2.824556e-03 -1.080098e-02 7.673479e-03 8.330633e-04 1.308428e-02 -3.080818e-02 7.718027e-03 -3.411173e-02 8.365661e-03 -2.050195e-02 3.746870e-03 3.987981e-03 9.814337e-03 1.924446e-02 -1.283429e-02 2.072252e-02 -1.034966e-03
<VARIANCE> 39
 7.986978e+00 3.063948e+01 9.661881e+00 7.401185e+00 1.022518e+01 1.594698e+01 2.325663e+01 1.489177e+01 1.796709e+01 2.773361e+01 2.601480e+01 2.116812e+01 7.537354e-03 5.205909e-02 7.780973e-02 9.165753e-02 1.314278e-01 1.402232e-01 1.637537e-01 1.612088e-01 1.947724e-01 2.077395e-01 2.144706e-01 1.536095e-01 1.720463e-01 3.754082e-05 7.972991e-03 1.616163e-02 1.567413e-02 1.956027e-02 2.655891e-02 2.657965e-02 2.743817e-02 3.320199e-02 3.885875e-02 3.425868e-02 2.554346e-02 3.283726e-02 3.730629e-06
<GCONST> 8.417988e+00
<MIXTURE> 14 2.121118e-02
<MEAN> 39
 -2.346099e+00 1.106677e+01 -2.548649e+00 -2.053557e-01 -4.613957e+00 -5.235109e+00 -2.683221e+00 -9.887893e-01 -1.883886e+00 2.946588e-01 -2.510425e-01 8.092965e+00 9.222152e-01 -1.147219e-01 -3.457948e-01 -3.655568e-01 -1.792538e-01 -3.023635e-01 -3.966299e-01 -4.163474e-01 -3.324261e-01 -2.351723e-01 -1.716440e-01 -7.376803e-02 -2.393862e-01 4.538157e-03 -2.567798e-02 -7.129528e-02 -7.319052e-02 -1.139643e-01 -8.126804e-02 -4.872439e-02 -3.767107e-02 -8.500551e-02 -7.193064e-02 -5.425476e-03 -4.585115e-02 -1.720048e-01 -2.290916e-03
<VARIANCE> 39
 1.378059e+01 1.953154e+01 1.094354e+01 1.363242e+01 1.296271e+01 2.724128e+01 1.755881e+01 2.023754e+01 3.140562e+01 3.888596e+01 5.678653e+01 4.289485e+01 4.134168e-03 9.400593e-02 1.454521e-01 1.615625e-01 2.856552e-01 3.284557e-01 3.187690e-01 2.436957e-01 3.566744e-01 2.817545e-01 2.938668e-01 5.623457e-01 6.837767e-01 4.009191e-05 1.957300e-02 2.256034e-02 3.645436e-02 3.768432e-02 6.202804e-02 6.314004e-02 6.357733e-02 7.423139e-02 7.994652e-02 7.795224e-02 1.103131e-01 8.154123e-02 3.822805e-06
<GCONST> 3.031814e+01
<MIXTURE> 15 2.117858e-02
<MEAN> 39
 -2.279928e+00 1.110265e+01 -2.519143e+00 -7.707759e-02 -4.516682e+00 -5.392540e+00 -2.768380e+00 -1.026098e+00 -2.153545e+00 1.112453e-01 -6.149797e-01 7.911919e+00 9.213345e-01 -1.203365e-01 -3.485731e-01 -3.719802e-01 -1.855512e-01 -3.053872e-01 -3.916761e-01 -4.221439e-01 -3.410955e-01 -2.427809e-01 -1.767519e-01 -8.642528e-02 -2.601663e-01 4.441987e-03 -2.735975e-02 -7.340635e-02 -7.684250e-02 -1.175906e-01 -8.361113e-02 -4.862680e-02 -3.885309e-02 -8.783197e-02 -7.131536e-02 -1.915575e-03 -3.584069e-02 -1.686094e-01 -2.243833e-03
<VARIANCE> 39
 1.398569e+01 1.910962e+01 1.057566e+01 1.353421e+01 1.320542e+01 2.787366e+01 1.753833e+01 2.093944e+01 2.914423e+01 3.615047e+01 5.587506e+01 4.216281e+01 4.106430e-03 9.057268e-02 1.426391e-01 1.615562e-01 2.939231e-01 3.277636e-01 3.182252e-01 2.442054e-01 3.588630e-01 2.821465e-01 2.905704e-01 5.461163e-01 6.745678e-01 3.980651e-05 1.886035e-02 2.246860e-02 3.538189e-02 3.747365e-02 6.219047e-02 6.191218e-02 6.400041e-02 7.483510e-02 7.749993e-02 7.444983e-02 1.077367e-01 8.072285e-02 3.804554e-06
<GCONST> 2.987807e+01
<MIXTURE> 16 7.220957e-02
<MEAN> 39
 -1.868503e+00 2.567798e+00 -1.204205e+00 -5.717645e-01 -1.112901e+00 -1.038242e+00 -6.596791e-01 -4.885030e-01 -2.233137e-01 -2.139646e+00 -5.923364e-01 6.291754e-01 9.792890e-01 -4.608252e-03 -5.925314e-02 -8.345245e-03 1.376578e-02 -1.404432e-02 -2.397401e-02 -4.320802e-02 -2.566020e-02 -5.336879e-02 -3.114614e-02 2.099995e-02 -1.351502e-01 -4.251708e-04 -2.144964e-03 -2.349986e-02 5.472736e-03 -3.941340e-02 -3.900718e-02 -3.077429e-02 -1.204923e-02 1.006545e-02 -2.234697e-02 1.025197e-03 -2.237021e-02 -4.335032e-02 -9.305396e-04
<VARIANCE> 39
 2.213893e+00 2.558344e+00 2.422280e+00 6.323066e+00 4.355454e+00 5.899657e+00 7.316825e+00 2.021704e+00 4.648376e+00 3.392888e+00 9.269421e+00 4.082914e+00 8.178990e-04 6.000845e-02 8.385422e-02 1.522280e-01 1.585295e-01 2.224319e-01 2.715949e-01 2.897142e-01 2.181333e-01 2.129537e-01 2.129130e-01 1.378202e-01 1.944178e-01 3.754082e-05 7.252999e-03 9.459378e-03 1.978307e-02 1.525636e-02 2.688145e-02 3.395972e-02 5.115010e-02 2.547953e-02 2.819784e-02 3.208192e-02 2.789810e-02 3.360867e-02 3.730629e-06
<GCONST> -7.937387e+00
<MIXTURE> 17 3.817349e-02
<MEAN> 39
 -1.937097e+00 1.254724e+01 -9.288832e-01 -2.942902e+00 -6.531269e+00 -5.465091e+00 -6.143295e+00 -6.734251e-01 -5.900779e-01 -4.267496e+00 2.462507e+00 -3.135848e+00 8.531548e-01 -5.136851e-01 2.188042e-01 8.758768e-02 3.450832e-01 1.044090e-01 7.534189e-02 2.191756e-01 -1.744307e-01 7.307822e-02 -3.700552e-02 -2.540770e-02 2.630480e-01 2.282405e-02 1.833925e-01 -2.123772e-01 1.118428e-02 1.626692e-01 3.448459e-01 2.698919e-01 1.196039e-01 4.654258e-02 1.106680e-01 2.924863e-01 -9.052292e-02 1.571512e-01 -1.084516e-02
<VARIANCE> 39
 1.066062e+01 5.791106e+01 2.500872e+01 2.632390e+01 2.433835e+01 3.396564e+01 3.648075e+01 4.627554e+01 4.582078e+01 4.108998e+01 3.321016e+01 3.826570e+01 1.324153e-02 6.389345e-01 1.175250e+00 1.426915e+00 1.151338e+00 1.925563e+00 1.838816e+00 1.631241e+00 1.997709e+00 2.058484e+00 2.260230e+00 2.809361e+00 3.608112e+00 2.920659e-04 1.308608e-01 2.012149e-01 2.286035e-01 3.060738e-01 2.172725e-01 2.353298e-01 2.626270e-01 4.463058e-01 3.949182e-01 2.331789e-01 2.523524e-01 2.741951e-01 1.719306e-04
<GCONST> 8.233727e+01
<MIXTURE> 18 3.455797e-02
<MEAN> 39
 -1.378658e+00 1.036604e+01 -3.274644e+00 1.781348e-01 -3.504780e+00 -5.302444e+00 -3.651658e+00 -1.136604e+00 -4.741835e+00 3.353836e-01 -3.122042e+00 5.978038e+00 9.252852e-01 1.534722e-01 2.481580e-01 2.354160e-01 3.108040e-01 2.891087e-01 2.249402e-01 3.630493e-01 2.480741e-01 2.814232e-01 1.131836e-01 9.809081e-02 1.227163e-01 1.184384e-03 -3.699597e-02 -3.208932e-02 -3.033600e-02 -6.500420e-02 -7.595019e-02 -8.642368e-02 -1.356530e-02 -2.748038e-02 2.813626e-02 -3.024845e-02 -2.809586e-02 -7.588133e-02 -1.373944e-03
<VARIANCE> 39
 1.259923e+01 2.106612e+01 8.317563e+00 1.265858e+01 9.156016e+00 2.243268e+01 1.668836e+01 2.488636e+01 2.401373e+01 2.021208e+01 3.959257e+01 3.730377e+01 3.158390e-03 7.402541e-02 9.465379e-02 1.814112e-01 1.924415e-01 3.492123e-01 2.955486e-01 1.664822e-01 2.967882e-01 2.465258e-01 2.795016e-01 2.578088e-01 3.382309e-01 3.754082e-05 1.086142e-02 1.919455e-02 2.756041e-02 4.093167e-02 4.363383e-02 4.170221e-02 4.420495e-02 4.797915e-02 5.950505e-02 4.503670e-02 4.324713e-02 5.422860e-02 3.730629e-06
<GCONST> 1.989081e+01
<MIXTURE> 19 3.459986e-02
<MEAN> 39
 -1.331856e+00 1.040334e+01 -3.287305e+00 2.135315e-01 -3.516983e+00 -5.336037e+00 -3.676998e+00 -1.160128e+00 -4.789610e+00 3.009288e-01 -3.226858e+00 5.902368e+00 9.246635e-01 1.520411e-01 2.467852e-01 2.310799e-01 3.104871e-01 2.834949e-01 2.221000e-01 3.605644e-01 2.465263e-01 2.823095e-01 1.128509e-01 9.513514e-02 1.205190e-01 1.200703e-03 -3.764531e-02 -3.230232e-02 -3.113860e-02 -6.576110e-02 -7.703595e-02 -8.664162e-02 -1.428597e-02 -2.734928e-02 2.781873e-02 -3.028454e-02 -2.791760e-02 -7.616310e-02 -1.378000e-03
<VARIANCE> 39
 1.240621e+01 2.099148e+01 8.296958e+00 1.269631e+01 9.242005e+00 2.258025e+01 1.677791e+01 2.538890e+01 2.372915e+01 2.008462e+01 3.893266e+01 3.671523e+01 3.175645e-03 7.378274e-02 9.450454e-02 1.803579e-01 1.923490e-01 3.482811e-01 2.950778e-01 1.662233e-01 2.979567e-01 2.471705e-01 2.811946e-01 2.574325e-01 3.389986e-01 3.754082e-05 1.088626e-02 1.919181e-02 2.756814e-02 4.111778e-02 4.374792e-02 4.182031e-02 4.412320e-02 4.813910e-02 5.995189e-02 4.525550e-02 4.343789e-02 5.446775e-02 3.730629e-06
<GCONST> 1.989947e+01
<MIXTURE> 20 6.401741e-02
<MEAN> 39
 -2.118602e+00 1.104872e+01 -6.404954e+00 -3.057285e+00 -8.025973e+00 -9.705167e+00 -6.018277e+00 -2.542453e+00 -7.762842e+00 -3.208177e+00 -6.444250e+00 2.632680e+00 8.626774e-01 -5.802216e-02 -1.164775e-01 -2.087148e-01 -1.210157e-01 -1.087654e-01 -1.735789e-01 -1.320021e-01 -1.408748e-01 -3.962803e-02 -7.361774e-02 -5.934687e-02 -9.785456e-02 1.897426e-03 4.481824e-02 7.127545e-02 1.105893e-01 7.571969e-02 1.459903e-01 1.583920e-01 1.751185e-01 1.297609e-01 1.556945e-01 8.519647e-02 9.814325e-02 3.527689e-02 -1.358848e-03
<VARIANCE> 39
 6.346740e+00 1.510134e+01 8.047418e+00 1.202777e+01 1.459961e+01 1.595984e+01 2.254280e+01 2.176812e+01 2.003506e+01 1.479641e+01 1.817838e+01 2.475142e+01 6.681181e-03 4.261013e-02 8.610999e-02 1.270871e-01 1.973299e-01 2.257804e-01 2.218595e-01 2.665875e-01 2.390426e-01 3.189312e-01 1.562053e-01 2.130403e-01 3.288948e-01 3.754082e-05 1.218428e-02 1.590064e-02 2.800655e-02 2.663337e-02 5.155595e-02 5.074167e-02 4.585962e-02 4.452176e-02 6.358700e-02 4.058168e-02 5.311665e-02 6.211807e-02 3.730629e-06
<GCONST> 1.630094e+01
<STATE> 5
<NUMMIXES> 20
<MIXTURE> 1 5.374426e-03
<MEAN> 39
 -7.738766e+00 6.865709e+00 -7.276996e+00 -4.870904e+00 -1.214863e+01 -1.127144e+01 -5.602752e+00 -4.981477e+00 -6.330932e-01 -2.327396e+00 4.499102e+00 1.675655e+01 8.815691e-01 4.965602e-01 1.146944e+00 9.417542e-01 1.123330e+00 1.153589e+00 1.304714e+00 1.120329e+00 1.086098e+00 7.217378e-01 1.204758e-01 2.223789e-01 -2.305216e-03 -7.564160e-05 2.680570e-01 2.596079e-01 2.932698e-01 4.834837e-01 5.624118e-01 5.190918e-01 3.279829e-01 2.788267e-01 2.324421e-01 2.306716e-01 1.502640e-01 -9.599798e-02 -9.158082e-04
<VARIANCE> 39
 8.657489e+00 9.790017e+00 4.266057e+00 5.073889e+00 1.499942e+01 6.450877e+00 1.641140e+01 1.116232e+01 4.918824e+01 1.359127e+01 1.218530e+02 1.264417e+02 6.638774e-03 5.338688e-02 2.750416e-01 1.025627e-01 3.111917e-01 1.911654e-01 2.801192e-01 1.389516e-01 3.561912e-01 3.048517e-01 1.235906e+00 2.455226e-01 1.723716e-01 3.754082e-05 1.536057e-02 4.844181e-02 3.845529e-02 7.793050e-02 1.393588e-01 8.093663e-02 7.703701e-02 1.669323e-01 1.338917e-01 1.011491e-01 9.619393e-02 1.370225e-01 3.730629e-06
<GCONST> 2.919823e+01
<MIXTURE> 2 3.070597e-02
<MEAN> 39
 4.525001e-01 1.016855e+01 -8.894719e+00 -2.943996e+00 -1.194253e+01 -1.096009e+01 -4.062754e+00 -4.079409e+00 -4.415664e+00 -6.051999e+00 -2.940810e+00 6.235443e+00 8.797153e-01 3.828648e-01 4.277291e-01 4.550029e-01 6.044521e-01 5.852579e-01 8.556184e-01 6.593848e-01 5.373987e-01 6.881462e-01 2.728043e-01 2.797220e-01 2.615067e-01 -2.248307e-04 8.783427e-02 1.112785e-01 2.212364e-01 1.743016e-01 3.490603e-01 3.921624e-01 2.131813e-01 2.632530e-02 1.825632e-01 4.005195e-01 7.694767e-02 -1.153863e-02 -4.719245e-04
<VARIANCE> 39
 1.621598e+01 1.285219e+01 3.066711e+01 1.619461e+01 1.784515e+01 2.268699e+01 1.729766e+01 1.937591e+01 2.473561e+01 5.325504e+01 8.485750e+01 1.024123e+02 8.398653e-03 2.623734e-01 6.371867e-01 7.537378e-01 1.294402e+00 1.038020e+00 1.474575e+00 9.110997e-01 1.320570e+00 8.054061e-01 1.806206e+00 1.309139e+00 1.731503e+00 3.754082e-05 2.603617e-02 7.532299e-02 9.253221e-02 1.374283e-01 1.504633e-01 1.447310e-01 1.532291e-01 2.194431e-01 1.436220e-01 2.597751e-01 2.977064e-01 1.947917e-01 3.730629e-06
<GCONST> 5.986333e+01
<MIXTURE> 3 1.234393e-02
<MEAN> 39
 -2.152115e+00 1.020459e+01 -2.673110e+00 -1.864024e+00 -6.069048e+00 -4.398155e+00 -1.623407e+00 8.142288e-01 1.070809e+00 3.533216e-01 3.080200e+00 1.419987e+00 8.862323e-01 4.363621e-02 1.747074e-01 3.752388e-01 7.714040e-01 3.845528e-01 7.135485e-01 7.646187e-01 9.199111e-02 4.788028e-01 6.190898e-01 4.002281e-01 1.742983e-01 1.032522e-02 1.361180e-01 -1.081536e-01 4.427726e-02 -7.010953e-02 2.047759e-01 8.219735e-02 -8.292415e-02 -4.019669e-02 3.867496e-02 1.958378e-01 -9.500230e-02 -1.722125e-01 -4.262562e-03
<VARIANCE> 39
 5.998780e+00 4.029559e+01 3.011839e+01 2.487543e+01 3.401245e+01 2.630273e+01 3.295436e+01 4.135463e+01 7.782201e+01 9.207578e+01 6.073222e+01 6.349027e+01 1.285761e-02 9.549499e-01 1.259417e+00 1.853951e+00 1.410583e+00 3.094676e+00 1.724669e+00 1.729326e+00 1.841377e+00 2.417999e+00 2.694163e+00 2.898993e+00 3.493231e+00 1.104891e-04 7.968332e-02 1.360174e-01 1.918376e-01 2.878965e-01 2.660959e-01 1.747543e-01 2.317238e-01 2.898574e-01 2.779546e-01 1.876309e-01 3.194399e-01 3.271837e-01 6.292193e-05
<GCONST> 8.156038e+01
<MIXTURE> 4 5.098037e-02
<MEAN> 39
 3.705006e-01 1.488011e+01 -5.835409e+00 -2.861840e-01 -5.791002e+00 -5.312075e+00 -6.709545e-01 -1.973940e+00 8.373669e-01 9.619979e-01 3.940121e-01 6.998470e+00 8.841736e-01 2.970932e-01 3.547978e-01 4.247854e-01 5.540732e-01 5.663095e-01 5.337225e-01 6.013987e-01 3.902727e-01 4.214226e-01 5.200759e-01 3.884826e-01 2.311084e-01 6.209057e-04 -8.071288e-02 -1.468515e-01 -1.071176e-01 -2.032859e-01 -1.317658e-01 -1.978626e-01 -1.021598e-01 -1.285619e-01 -1.420479e-01 -7.224682e-02 -1.215579e-01 -1.424304e-01 -1.180014e-03
<VARIANCE> 39
 1.757568e+01 2.912062e+01 2.067481e+01 1.277189e+01 1.437769e+01 1.507859e+01 1.379737e+01 2.391621e+01 3.815170e+01 5.004346e+01 7.076402e+01 7.051191e+01 6.357817e-03 1.731126e-01 2.432853e-01 3.714608e-01 5.313930e-01 7.577027e-01 7.216756e-01 6.830878e-01 8.234662e-01 6.863000e-01 7.354362e-01 6.398271e-01 1.091743e+00 3.754082e-05 2.267925e-02 4.427371e-02 6.258783e-02 8.097357e-02 1.003741e-01 1.114549e-01 1.225265e-01 1.231595e-01 1.008644e-01 1.553062e-01 1.315298e-01 1.192505e-01 3.730629e-06
<GCONST> 4.679386e+01
<MIXTURE> 5 6.356890e-02
<MEAN> 39
 -2.728338e-01 1.294814e+01 -6.401187e+00 -2.224939e+00 -8.564725e+00 -8.395693e+00 -4.558019e+00 -3.673515e+00 -3.942295e+00 -4.090166e+00 -6.962097e+00 -4.355134e-01 8.755121e-01 1.535028e-01 2.544299e-01 1.841189e-01 2.758456e-01 3.575777e-01 4.222629e-01 3.986333e-01 3.523697e-01 5.011793e-01 3.419048e-01 3.322700e-01 1.441250e-01 -1.166970e-03 1.118969e-01 1.396780e-01 2.523111e-01 1.983342e-01 3.241650e-01 2.842437e-01 3.576231e-01 2.996542e-01 2.818606e-01 2.775772e-01 2.448481e-01 1.976099e-01 -9.567492e-04
<VARIANCE> 39
 1.629705e+01 2.188175e+01 1.355493e+01 1.386718e+01 1.381827e+01 2.317079e+01 1.701080e+01 2.687933e+01 1.810566e+01 2.834959e+01 1.784354e+01 3.162461e+01 6.464510e-03 9.183424e-02 1.774317e-01 2.531465e-01 3.766882e-01 4.387004e-01 4.970063e-01 5.334321e-01 4.478580e-01 5.502282e-01 5.226677e-01 4.633410e-01 4.524554e-01 3.754082e-05 1.518222e-02 3.678795e-02 4.225502e-02 6.413314e-02 6.133878e-02 8.579748e-02 8.966254e-02 7.917752e-02 1.103441e-01 9.381421e-02 8.491946e-02 1.073416e-01 3.730629e-06
<GCONST> 3.443544e+01
<MIXTURE> 6 6.513748e-02
<MEAN> 39
 -8.698696e-01 1.599359e+01 -2.383535e-01 -7.718458e-01 -6.110966e+00 -4.127013e+00 -1.004997e+01 4.686541e-01 -1.011117e+00 -3.666759e+00 2.703292e+00 -3.562135e+00 8.650473e-01 3.736195e-02 4.206032e-02 2.441515e-02 -3.936508e-02 1.200266e-01 -2.558080e-02 6.377674e-02 3.758252e-02 1.367538e-01 2.512490e-02 1.746832e-02 -6.260321e-02 -9.497394e-04 -1.484113e-03 -6.414988e-02 5.741507e-03 -5.742463e-02 1.489911e-02 -7.263072e-02 4.496709e-02 -2.845335e-02 1.992149e-03 1.676633e-02 2.531318e-03 1.975664e-02 -1.013799e-03
<VARIANCE> 39
 1.032351e+01 2.541456e+01 1.495913e+01 1.842134e+01 2.237551e+01 2.232595e+01 3.076978e+01 2.822673e+01 2.312228e+01 3.455133e+01 3.626611e+01 2.080592e+01 4.096959e-03 8.875946e-02 1.491785e-01 2.622134e-01 2.963958e-01 3.158619e-01 4.597977e-01 5.116336e-01 5.507273e-01 5.392584e-01 4.894911e-01 4.361675e-01 4.561181e-01 3.754082e-05 1.431220e-02 2.625789e-02 4.548680e-02 5.534161e-02 6.397841e-02 8.323687e-02 8.762874e-02 9.237476e-02 1.209553e-01 9.116352e-02 8.457541e-02 7.939313e-02 3.730629e-06
<GCONST> 3.451360e+01
<MIXTURE> 7 6.514097e-02
<MEAN> 39
 -8.649596e-01 1.598904e+01 -2.464787e-01 -7.694669e-01 -6.105401e+00 -4.132544e+00 -1.003613e+01 4.702465e-01 -1.017807e+00 -3.656558e+00 2.689187e+00 -3.554208e+00 8.650471e-01 3.760645e-02 4.206029e-02 2.434513e-02 -3.922828e-02 1.199980e-01 -2.522968e-02 6.369266e-02 3.685639e-02 1.370666e-01 2.490691e-02 1.758232e-02 -6.234741e-02 -9.553857e-04 -1.527912e-03 -6.414182e-02 5.784917e-03 -5.740714e-02 1.490551e-02 -7.267765e-02 4.477090e-02 -2.845147e-02 2.039680e-03 1.669687e-02 2.663827e-03 1.949790e-02 -1.013030e-03
<VARIANCE> 39
 1.031911e+01 2.540513e+01 1.496024e+01 1.842616e+01 2.234129e+01 2.230762e+01 3.076349e+01 2.822009e+01 2.310240e+01 3.457116e+01 3.635352e+01 2.082093e+01 4.096291e-03 8.875658e-02 1.491570e-01 2.620219e-01 2.962599e-01 3.158031e-01 4.592566e-01 5.109215e-01 5.503926e-01 5.383087e-01 4.891710e-01 4.356776e-01 4.560415e-01 3.754082e-05 1.430542e-02 2.623935e-02 4.546474e-02 5.529887e-02 6.393424e-02 8.311264e-02 8.754753e-02 9.220754e-02 1.206779e-01 9.111810e-02 8.451199e-02 7.944021e-02 3.730629e-06
<GCONST> 3.449428e+01
<MIXTURE> 8 3.134170e-02
<MEAN> 39
 -3.728494e-01 1.252305e+01 -5.699918e+00 -1.326231e+00 -8.027306e+00 -8.224452e+00 -3.798012e+00 -3.596279e+00 -3.362821e+00 -3.515095e+00 -5.289450e+00 1.570436e+00 8.809485e-01 -2.597531e-01 -4.256977e-01 -6.870967e-01 -6.283697e-01 -6.879522e-01 -7.633686e-01 -6.334963e-01 -6.727026e-01 -5.338545e-01 -6.265358e-01 -4.504789e-01 -5.201441e-01 2.628774e-04 3.076758e-02 9.734935e-02 1.165659e-01 5.874579e-02 1.464684e-01 1.697013e-01 1.640620e-01 1.952573e-01 1.629402e-01 7.974664e-02 9.023108e-02 6.432409e-02 -1.243712e-03
<VARIANCE> 39
 1.713531e+01 2.957857e+01 1.414903e+01 1.267524e+01 1.735946e+01 2.372653e+01 2.131293e+01 2.469264e+01 1.618165e+01 2.591202e+01 3.252573e+01 4.551786e+01 6.101580e-03 9.461691e-02 1.856047e-01 2.905566e-01 3.959875e-01 4.596123e-01 4.625276e-01 6.734434e-01 5.005794e-01 6.005992e-01 5.029079e-01 7.036771e-01 6.095998e-01 3.754082e-05 1.424009e-02 3.934662e-02 4.754864e-02 6.797846e-02 7.835701e-02 8.989882e-02 1.111882e-01 1.108797e-01 9.202938e-02 1.041637e-01 8.692580e-02 8.208466e-02 3.730629e-06
<GCONST> 3.788491e+01
<MIXTURE> 9 6.411468e-02
<MEAN> 39
 -7.317814e-01 1.248285e+01 -6.358549e+00 -2.659231e+00 -9.079092e+00 -8.798141e+00 -5.028278e+00 -3.760719e+00 -4.791101e+00 -4.509803e+00 -7.241104e+00 -8.241732e-01 8.800758e-01 8.919249e-02 1.647502e-01 8.618310e-02 1.501555e-01 1.914076e-01 2.565165e-01 2.517412e-01 2.404820e-01 3.263123e-01 1.832257e-01 1.793180e-01 1.267700e-02 -8.405272e-04 1.344111e-01 1.737330e-01 3.113908e-01 2.607137e-01 3.767565e-01 3.626200e-01 4.100769e-01 3.699982e-01 3.716472e-01 3.240014e-01 2.907405e-01 2.442837e-01 -9.827781e-04
<VARIANCE> 39
 1.599098e+01 2.282556e+01 1.323525e+01 1.529813e+01 1.363283e+01 2.393429e+01 1.825331e+01 2.605258e+01 1.924222e+01 2.855981e+01 1.780135e+01 3.588992e+01 5.678527e-03 9.617949e-02 1.650876e-01 2.550673e-01 3.725484e-01 4.360760e-01 5.207586e-01 5.284302e-01 4.454722e-01 5.377381e-01 5.468524e-01 5.101997e-01 5.005708e-01 3.754082e-05 1.679385e-02 4.034778e-02 4.875010e-02 7.177097e-02 6.719987e-02 9.263579e-02 9.101181e-02 8.142612e-02 1.223307e-01 9.670234e-02 9.256840e-02 1.064966e-01 3.730629e-06
<GCONST> 3.574166e+01
<MIXTURE> 10 6.514097e-02
<MEAN> 39
 -8.649596e-01 1.598904e+01 -2.464787e-01 -7.694669e-01 -6.105401e+00 -4.132544e+00 -1.003613e+01 4.702465e-01 -1.017807e+00 -3.656558e+00 2.689187e+00 -3.554208e+00 8.650471e-01 3.760645e-02 4.206029e-02 2.434513e-02 -3.922828e-02 1.199980e-01 -2.522968e-02 6.369266e-02 3.685639e-02 1.370666e-01 2.490691e-02 1.758232e-02 -6.234741e-02 -9.553857e-04 -1.527912e-03 -6.414182e-02 5.784917e-03 -5.740714e-02 1.490551e-02 -7.267765e-02 4.477090e-02 -2.845147e-02 2.039680e-03 1.669687e-02 2.663827e-03 1.949790e-02 -1.013030e-03
<VARIANCE> 39
 1.031911e+01 2.540513e+01 1.496024e+01 1.842616e+01 2.234129e+01 2.230762e+01 3.076349e+01 2.822009e+01 2.310240e+01 3.457116e+01 3.635352e+01 2.082093e+01 4.096291e-03 8.875658e-02 1.491570e-01 2.620219e-01 2.962599e-01 3.158031e-01 4.592566e-01 5.109215e-01 5.503926e-01 5.383087e-01 4.891710e-01 4.356776e-01 4.560415e-01 3.754082e-05 1.430542e-02 2.623935e-02 4.546474e-02 5.529887e-02 6.393424e-02 8.311264e-02 8.754753e-02 9.220754e-02 1.206779e-01 9.111810e-02 8.451199e-02 7.944021e-02 3.730629e-06
<GCONST> 3.449428e+01
<MIXTURE> 11 6.514464e-02
<MEAN> 39
 -8.647664e-01 1.598856e+01 -2.463378e-01 -7.686055e-01 -6.106144e+00 -4.130900e+00 -1.003747e+01 4.718380e-01 -1.018144e+00 -3.657370e+00 2.690017e+00 -3.554664e+00 8.650541e-01 3.759870e-02 4.202935e-02 2.438910e-02 -3.915944e-02 1.200093e-01 -2.529472e-02 6.363613e-02 3.686904e-02 1.371017e-01 2.492045e-02 1.761173e-02 -6.238182e-02 -9.551276e-04 -1.530129e-03 -6.413104e-02 5.793112e-03 -5.741513e-02 1.493986e-02 -7.269548e-02 4.478653e-02 -2.851033e-02 2.061081e-03 1.672363e-02 2.678962e-03 1.950570e-02 -1.013048e-03
<VARIANCE> 39
 1.031906e+01 2.540182e+01 1.495283e+01 1.842721e+01 2.234396e+01 2.230761e+01 3.076114e+01 2.821371e+01 2.310468e+01 3.456398e+01 3.634513e+01 2.081996e+01 4.095817e-03 8.875374e-02 1.491525e-01 2.620513e-01 2.962313e-01 3.157988e-01 4.592830e-01 5.109537e-01 5.504826e-01 5.384556e-01 4.892106e-01 4.356629e-01 4.560348e-01 3.754082e-05 1.430534e-02 2.623789e-02 4.546488e-02 5.529623e-02 6.393772e-02 8.311823e-02 8.755516e-02 9.221286e-02 1.207116e-01 9.112430e-02 8.451529e-02 7.943820e-02 3.730629e-06
<GCONST> 3.449403e+01
<MIXTURE> 12 3.134474e-02
<MEAN> 39
 -3.681813e-01 1.252522e+01 -5.693669e+00 -1.295434e+00 -8.012298e+00 -8.224492e+00 -3.757271e+00 -3.580299e+00 -3.345905e+00 -3.479453e+00 -5.229544e+00 1.648497e+00 8.811858e-01 -2.590199e-01 -4.284090e-01 -6.869357e-01 -6.251577e-01 -6.862172e-01 -7.649803e-01 -6.315070e-01 -6.701258e-01 -5.313618e-01 -6.222418e-01 -4.456452e-01 -5.153466e-01 2.598996e-04 2.940108e-02 9.582850e-02 1.143135e-01 5.462042e-02 1.436297e-01 1.661861e-01 1.600349e-01 1.921132e-01 1.599525e-01 7.616939e-02 8.685748e-02 6.158375e-02 -1.246155e-03
<VARIANCE> 39
 1.724626e+01 2.961033e+01 1.400464e+01 1.258982e+01 1.740380e+01 2.354914e+01 2.108937e+01 2.446047e+01 1.613648e+01 2.587431e+01 3.294731e+01 4.623872e+01 6.071439e-03 9.417018e-02 1.853409e-01 2.910623e-01 3.966313e-01 4.601660e-01 4.636760e-01 6.776866e-01 5.023305e-01 6.036525e-01 5.026571e-01 7.025357e-01 6.138925e-01 3.754082e-05 1.424651e-02 3.915990e-02 4.731753e-02 6.737531e-02 7.842526e-02 8.934359e-02 1.103625e-01 1.100168e-01 9.160176e-02 1.032449e-01 8.597956e-02 8.277589e-02 3.730629e-06
<GCONST> 3.783570e+01
<MIXTURE> 13 6.511045e-02
<MEAN> 39
 -8.708019e-01 1.599746e+01 -2.329692e-01 -7.688659e-01 -6.119897e+00 -4.121410e+00 -1.006162e+01 4.761401e-01 -1.009757e+00 -3.666270e+00 2.705850e+00 -3.567675e+00 8.650377e-01 3.728573e-02 4.227034e-02 2.454181e-02 -3.926185e-02 1.199614e-01 -2.583398e-02 6.393570e-02 3.812232e-02 1.368571e-01 2.526345e-02 1.782282e-02 -6.303654e-02 -9.455506e-04 -1.465700e-03 -6.413840e-02 5.585630e-03 -5.749194e-02 1.504308e-02 -7.259373e-02 4.512105e-02 -2.869017e-02 1.886028e-03 1.667345e-02 2.576325e-03 1.993486e-02 -1.013771e-03
<VARIANCE> 39
 1.032694e+01 2.541018e+01 1.495731e+01 1.842175e+01 2.241102e+01 2.235823e+01 3.080711e+01 2.823791e+01 2.314433e+01 3.452650e+01 3.624057e+01 2.081008e+01 4.095629e-03 8.871467e-02 1.491951e-01 2.625339e-01 2.966822e-01 3.161395e-01 4.608611e-01 5.127582e-01 5.516595e-01 5.408939e-01 4.902452e-01 4.368376e-01 4.567648e-01 3.754082e-05 1.430035e-02 2.626633e-02 4.552881e-02 5.539626e-02 6.407249e-02 8.339355e-02 8.782849e-02 9.261233e-02 1.214481e-01 9.128185e-02 8.471817e-02 7.939794e-02 3.730629e-06
<GCONST> 3.455077e+01
<MIXTURE> 14 3.134474e-02
<MEAN> 39
 -3.681813e-01 1.252522e+01 -5.693669e+00 -1.295434e+00 -8.012298e+00 -8.224492e+00 -3.757271e+00 -3.580299e+00 -3.345905e+00 -3.479453e+00 -5.229544e+00 1.648497e+00 8.811858e-01 -2.590199e-01 -4.284090e-01 -6.869357e-01 -6.251577e-01 -6.862172e-01 -7.649803e-01 -6.315070e-01 -6.701258e-01 -5.313618e-01 -6.222418e-01 -4.456452e-01 -5.153466e-01 2.598996e-04 2.940108e-02 9.582850e-02 1.143135e-01 5.462042e-02 1.436297e-01 1.661861e-01 1.600349e-01 1.921132e-01 1.599525e-01 7.616939e-02 8.685748e-02 6.158375e-02 -1.246155e-03
<VARIANCE> 39
 1.724626e+01 2.961033e+01 1.400464e+01 1.258982e+01 1.740380e+01 2.354914e+01 2.108937e+01 2.446047e+01 1.613648e+01 2.587431e+01 3.294731e+01 4.623872e+01 6.071439e-03 9.417018e-02 1.853409e-01 2.910623e-01 3.966313e-01 4.601660e-01 4.636760e-01 6.776866e-01 5.023305e-01 6.036525e-01 5.026571e-01 7.025357e-01 6.138925e-01 3.754082e-05 1.424651e-02 3.915990e-02 4.731753e-02 6.737531e-02 7.842526e-02 8.934359e-02 1.103625e-01 1.100168e-01 9.160176e-02 1.032449e-01 8.597956e-02 8.277589e-02 3.730629e-06
<GCONST> 3.783570e+01
<MIXTURE> 15 3.134170e-02
<MEAN> 39
 -3.728494e-01 1.252305e+01 -5.699918e+00 -1.326231e+00 -8.027306e+00 -8.224452e+00 -3.798012e+00 -3.596279e+00 -3.362821e+00 -3.515095e+00 -5.289450e+00 1.570436e+00 8.809485e-01 -2.597531e-01 -4.256977e-01 -6.870967e-01 -6.283697e-01 -6.879522e-01 -7.633686e-01 -6.334963e-01 -6.727026e-01 -5.338545e-01 -6.265358e-01 -4.504789e-01 -5.201441e-01 2.628774e-04 3.076758e-02 9.734935e-02 1.165659e-01 5.874579e-02 1.464684e-01 1.697013e-01 1.640620e-01 1.952573e-01 1.629402e-01 7.974664e-02 9.023108e-02 6.432409e-02 -1.243712e-03
<VARIANCE> 39
 1.713531e+01 2.957857e+01 1.414903e+01 1.267524e+01 1.735946e+01 2.372653e+01 2.131293e+01 2.469264e+01 1.618165e+01 2.591202e+01 3.252573e+01 4.551786e+01 6.101580e-03 9.461691e-02 1.856047e-01 2.905566e-01 3.959875e-01 4.596123e-01 4.625276e-01 6.734434e-01 5.005794e-01 6.005992e-01 5.029079e-01 7.036771e-01 6.095998e-01 3.754082e-05 1.424009e-02 3.934662e-02 4.754864e-02 6.797846e-02 7.835701e-02 8.989882e-02 1.111882e-01 1.108797e-01 9.202938e-02 1.041637e-01 8.692580e-02 8.208466e-02 3.730629e-06
<GCONST> 3.788491e+01
<MIXTURE> 16 1.105969e-01
<MEAN> 39
 4.062891e-01 1.396994e+01 -3.757171e+00 4.686716e-01 -5.053051e+00 -4.993111e+00 -1.146464e+00 -4.830979e-01 -1.702579e+00 -7.602289e-01 -4.243175e+00 2.423325e+00 8.667627e-01 -1.275412e-01 -2.747092e-01 -3.789774e-01 -3.846709e-01 -3.701642e-01 -5.160740e-01 -2.629128e-01 -4.789769e-01 -3.187123e-01 -3.129352e-01 -3.974674e-01 -4.348086e-01 3.716299e-04 -1.408868e-01 -1.995264e-01 -2.588417e-01 -3.369763e-01 -3.157521e-01 -3.589511e-01 -3.166069e-01 -3.009105e-01 -2.275671e-01 -2.900403e-01 -2.296835e-01 -2.724029e-01 -9.983311e-04
<VARIANCE> 39
 1.357979e+01 2.436519e+01 1.033927e+01 1.321174e+01 1.205048e+01 2.014192e+01 1.518254e+01 2.208888e+01 2.118514e+01 2.076646e+01 2.114825e+01 2.894427e+01 8.010358e-03 8.245801e-02 1.943910e-01 2.689694e-01 3.232223e-01 3.917349e-01 3.829382e-01 4.586407e-01 4.556659e-01 5.214996e-01 6.520190e-01 4.162582e-01 4.075830e-01 3.754082e-05 1.505520e-02 4.296896e-02 4.633202e-02 5.312099e-02 5.685746e-02 7.747041e-02 9.347296e-02 8.741280e-02 8.829396e-02 6.521603e-02 6.916224e-02 8.082028e-02 3.730629e-06
<GCONST> 3.187288e+01
<MIXTURE> 17 1.234393e-02
<MEAN> 39
 -2.152115e+00 1.020459e+01 -2.673110e+00 -1.864024e+00 -6.069048e+00 -4.398155e+00 -1.623407e+00 8.142288e-01 1.070809e+00 3.533216e-01 3.080200e+00 1.419987e+00 8.862323e-01 4.363621e-02 1.747074e-01 3.752388e-01 7.714040e-01 3.845528e-01 7.135485e-01 7.646187e-01 9.199111e-02 4.788028e-01 6.190898e-01 4.002281e-01 1.742983e-01 1.032522e-02 1.361180e-01 -1.081536e-01 4.427726e-02 -7.010953e-02 2.047759e-01 8.219735e-02 -8.292415e-02 -4.019669e-02 3.867496e-02 1.958378e-01 -9.500230e-02 -1.722125e-01 -4.262562e-03
<VARIANCE> 39
 5.998780e+00 4.029559e+01 3.011839e+01 2.487543e+01 3.401245e+01 2.630273e+01 3.295436e+01 4.135463e+01 7.782201e+01 9.207578e+01 6.073222e+01 6.349027e+01 1.285761e-02 9.549499e-01 1.259417e+00 1.853951e+00 1.410583e+00 3.094676e+00 1.724669e+00 1.729326e+00 1.841377e+00 2.417999e+00 2.694163e+00 2.898993e+00 3.493231e+00 1.104891e-04 7.968332e-02 1.360174e-01 1.918376e-01 2.878965e-01 2.660959e-01 1.747543e-01 2.317238e-01 2.898574e-01 2.779546e-01 1.876309e-01 3.194399e-01 3.271837e-01 6.292193e-05
<GCONST> 8.156038e+01
<MIXTURE> 18 6.059833e-02
<MEAN> 39
 8.089497e-01 1.438550e+01 -4.359450e+00 6.836656e-01 -5.951943e+00 -5.153166e+00 -1.432890e+00 -1.525722e+00 -1.461290e+00 -1.476701e+00 -3.934016e+00 3.296109e+00 8.803933e-01 3.211972e-01 4.391687e-01 4.714195e-01 6.057627e-01 7.041585e-01 5.796239e-01 8.118154e-01 5.435744e-01 6.342029e-01 6.403167e-01 5.747129e-01 4.244724e-01 5.949364e-04 -1.067068e-01 -1.774909e-01 -1.732124e-01 -2.711127e-01 -1.907053e-01 -2.853100e-01 -1.564098e-01 -2.426895e-01 -2.071006e-01 -1.293708e-01 -1.404137e-01 -2.101349e-01 -1.017714e-03
<VARIANCE> 39
 1.493044e+01 2.373598e+01 1.238548e+01 1.274687e+01 1.304745e+01 2.031908e+01 1.459504e+01 2.528312e+01 1.861473e+01 2.387487e+01 2.862688e+01 3.694650e+01 6.925110e-03 1.482137e-01 2.304742e-01 3.116862e-01 4.027597e-01 5.427930e-01 7.171227e-01 6.242930e-01 7.292779e-01 6.476758e-01 6.979158e-01 5.858696e-01 7.940429e-01 3.754082e-05 2.216589e-02 4.707509e-02 6.731921e-02 8.308546e-02 1.004236e-01 1.262296e-01 1.384659e-01 1.296946e-01 1.184685e-01 1.537568e-01 1.265991e-01 1.216910e-01 3.730629e-06
<GCONST> 4.214019e+01
<MIXTURE> 19 6.493793e-02
<MEAN> 39
 7.759163e-01 1.437663e+01 -4.260240e+00 7.550755e-01 -5.981570e+00 -5.149283e+00 -1.485971e+00 -1.413093e+00 -1.537597e+00 -1.516726e+00 -4.168244e+00 3.061959e+00 8.795896e-01 3.252508e-01 4.491385e-01 4.811551e-01 6.115440e-01 7.176607e-01 5.909091e-01 8.282323e-01 5.584977e-01 6.552137e-01 6.482733e-01 5.859637e-01 4.305277e-01 5.860862e-04 -1.096918e-01 -1.830601e-01 -1.836376e-01 -2.814966e-01 -2.002988e-01 -2.949124e-01 -1.635328e-01 -2.594110e-01 -2.158286e-01 -1.381625e-01 -1.430593e-01 -2.166436e-01 -1.010496e-03
<VARIANCE> 39
 1.464755e+01 2.348285e+01 1.183901e+01 1.284958e+01 1.270050e+01 2.074547e+01 1.468966e+01 2.527121e+01 1.806518e+01 2.283274e+01 2.614273e+01 3.426286e+01 7.004205e-03 1.454126e-01 2.275604e-01 3.044853e-01 3.902801e-01 5.222347e-01 7.039673e-01 6.097894e-01 7.047160e-01 6.297645e-01 6.875972e-01 5.746723e-01 7.645562e-01 3.754082e-05 2.172783e-02 4.699637e-02 6.779087e-02 8.257184e-02 9.950653e-02 1.270385e-01 1.381896e-01 1.280686e-01 1.193171e-01 1.531531e-01 1.237945e-01 1.205667e-01 3.730629e-06
<GCONST> 4.147529e+01
<MIXTURE> 20 7.338549e-02
<MEAN> 39
 1.045929e+00 1.492703e+01 -1.756854e+00 5.001202e-01 -6.025988e+00 -6.563938e+00 -5.075909e+00 4.515574e-01 -5.356848e-01 -1.189371e+00 -8.914999e-01 1.107815e+00 8.809817e-01 1.416671e-02 1.105457e-02 -1.075873e-01 -1.160027e-02 -1.091110e-01 -9.861376e-02 -2.562258e-01 -2.136104e-01 -2.754834e-02 3.536336e-01 -7.837395e-02 -2.456661e-01 8.060275e-03 -6.359688e-02 -2.415348e-01 -1.952329e-01 -3.484634e-01 -7.800049e-02 -4.012172e-03 -6.094803e-02 -1.780211e-01 -1.703960e-01 -2.360841e-01 -4.117523e-02 -7.636581e-02 -3.485966e-03
<VARIANCE> 39
 1.491866e+01 3.011854e+01 1.764279e+01 2.145704e+01 2.268770e+01 2.730348e+01 3.528519e+01 2.267467e+01 2.357845e+01 3.170252e+01 4.848307e+01 5.549001e+01 5.138475e-03 1.418458e-01 4.790840e-01 5.413643e-01 6.069084e-01 7.836962e-01 1.474404e+00 1.135151e+00 1.227034e+00 9.647608e-01 1.260874e+00 1.287724e+00 1.311199e+00 8.830817e-05 5.169756e-02 8.362099e-02 1.429863e-01 1.358405e-01 2.127307e-01 3.463767e-01 2.948574e-01 2.318861e-01 2.634326e-01 2.758443e-01 2.808428e-01 3.154198e-01 1.950851e-05
<GCONST> 6.357091e+01
<STATE> 6
<NUMMIXES> 20
<MIXTURE> 1 9.471125e-03
<MEAN> 39
 -3.989870e+00 5.242218e+00 -3.949324e+00 -4.892963e+00 -8.415442e+00 -5.149652e+00 5.186496e+00 1.567997e+00 1.821112e+01 1.609665e+01 7.739515e+00 9.605192e+00 9.431169e-01 2.031793e-01 2.663250e-01 4.072302e-01 4.406235e-01 4.088337e-01 2.991475e-01 2.940378e-01 4.620736e-01 8.970252e-02 -2.453531e-01 1.654734e-01 -7.690694e-01 1.235170e-03 9.616316e-02 2.099547e-01 8.956528e-02 5.232367e-02 2.261593e-01 2.208849e-02 1.145375e-01 1.823031e-01 -1.240074e-01 1.160253e-02 1.679278e-01 -1.046885e-01 3.242256e-04
<VARIANCE> 39
 1.155703e+00 1.624856e+01 5.560658e+00 1.244960e+01 5.274364e+00 1.120706e+01 2.838197e+00 3.855880e+00 2.092027e+01 1.041299e+01 1.044445e+01 1.286071e+01 3.038272e-02 8.261386e-01 1.853485e-01 2.737978e-01 6.075420e-01 4.111672e-01 3.826304e-01 2.407498e-01 9.884571e-01 9.269934e-02 2.953350e-01 7.186960e-02 6.181412e-01 3.754082e-05 1.103847e-01 6.412291e-02 9.951477e-02 3.973193e-02 1.542695e-02 2.231549e-02 1.355871e-02 8.593130e-02 2.996692e-02 5.087962e-02 4.322497e-02 5.840909e-02 2.043096e-05
<GCONST> 1.977344e+01
<MIXTURE> 2 3.618292e-02
<MEAN> 39
 -2.037727e+00 -7.981535e-01 -3.942704e+00 -3.393498e+00 -4.054980e+00 -4.079343e+00 -4.262237e+00 -4.742847e+00 -3.825098e+00 -3.850631e+00 -3.276311e+00 -1.407066e+00 9.681387e-01 1.498474e-01 6.054619e-02 1.169421e-02 6.106916e-02 1.297712e-01 -1.017387e-01 1.552622e-01 1.109381e-01 -5.897241e-02 -3.218224e-02 -2.270669e-03 2.336099e-02 -3.373557e-03 1.474617e-01 3.022822e-01 3.793739e-01 3.411817e-01 4.196450e-01 3.424348e-01 3.951156e-01 4.645881e-01 3.624680e-01 3.784034e-01 2.762599e-01 2.288480e-01 -9.350323e-04
<VARIANCE> 39
 6.028615e+00 3.108351e+00 6.629516e+00 7.718919e+00 1.269508e+01 7.502148e+00 8.174718e+00 8.780315e+00 1.392715e+01 1.169071e+01 1.895316e+01 1.513091e+01 9.746036e-04 1.670825e-01 3.632502e-01 5.703599e-01 5.128248e-01 1.125835e+00 7.200580e-01 7.121388e-01 9.731894e-01 7.134269e-01 6.677782e-01 9.937310e-01 6.509999e-01 3.754082e-05 2.790690e-02 5.673707e-02 8.468288e-02 7.307628e-02 1.604815e-01 7.326647e-02 1.055709e-01 1.418578e-01 1.354133e-01 9.256512e-02 1.445379e-01 1.125944e-01 3.730629e-06
<GCONST> 3.404176e+01
<MIXTURE> 3 3.500924e-02
<MEAN> 39
 -2.116917e+00 -7.043935e-01 -3.789750e+00 -3.094041e+00 -3.607720e+00 -3.706268e+00 -3.997180e+00 -4.596262e+00 -3.371784e+00 -3.590450e+00 -3.046129e+00 -1.750806e+00 9.694164e-01 1.002951e-01 -5.984173e-02 -8.608638e-02 -5.399492e-02 -3.651089e-02 -1.662770e-01 -1.546590e-02 -8.075386e-02 -1.534791e-01 -1.575909e-01 -5.477819e-02 -1.145022e-01 -2.471363e-03 1.487342e-01 2.880960e-01 3.559441e-01 3.039696e-01 3.733578e-01 3.290587e-01 3.749911e-01 4.628166e-01 3.132917e-01 3.350517e-01 2.500921e-01 2.291760e-01 -7.631636e-04
<VARIANCE> 39
 3.904039e+00 2.290919e+00 6.574739e+00 7.662253e+00 1.066488e+01 6.271025e+00 7.874787e+00 7.659177e+00 1.059335e+01 9.873652e+00 1.650139e+01 1.322849e+01 9.029483e-04 1.370262e-01 2.770183e-01 4.315521e-01 4.178280e-01 7.923353e-01 5.940378e-01 5.804943e-01 8.043931e-01 6.250069e-01 5.672615e-01 9.210001e-01 4.826559e-01 3.754082e-05 1.752348e-02 4.509442e-02 7.063020e-02 6.680820e-02 1.225681e-01 7.021408e-02 9.325763e-02 1.151743e-01 1.067692e-01 8.281711e-02 1.449594e-01 9.839941e-02 3.730629e-06
<GCONST> 2.731348e+01
<MIXTURE> 4 3.821813e-02
<MEAN> 39
 3.040506e-01 4.313174e+00 -2.454491e-01 5.623924e-01 -9.516364e-01 -1.611278e+00 6.621640e-01 1.240280e-01 -8.110155e-01 -3.271394e-01 -1.418277e+00 5.440186e-01 9.425444e-01 4.233185e-01 1.268408e-01 4.504859e-01 5.370304e-01 3.921543e-01 4.136116e-01 3.309958e-01 7.353234e-02 4.919809e-01 6.610244e-01 3.672931e-01 1.951143e-01 -5.451163e-03 -7.435089e-02 -1.404324e-01 -2.407307e-01 -2.101570e-01 -2.069823e-01 -1.767997e-01 -3.470105e-01 -2.859168e-01 -1.521496e-01 -1.114914e-01 -4.975105e-02 -1.490547e-01 -1.163838e-03
<VARIANCE> 39
 7.478937e+00 1.694111e+01 8.097226e+00 8.424016e+00 1.438342e+01 1.192514e+01 9.695447e+00 1.337268e+01 1.520048e+01 1.772837e+01 1.758093e+01 1.149536e+01 1.847861e-03 2.073149e-01 5.159597e-01 5.562956e-01 6.603934e-01 8.560815e-01 8.760957e-01 1.148968e+00 1.187024e+00 1.091622e+00 7.573142e-01 9.504204e-01 6.345466e-01 4.224098e-05 3.842985e-02 9.166053e-02 1.128923e-01 9.480865e-02 1.888023e-01 1.633159e-01 1.495048e-01 1.972070e-01 2.056468e-01 1.555203e-01 1.858660e-01 1.288392e-01 3.730629e-06
<GCONST> 4.451839e+01
<MIXTURE> 5 9.281337e-02
<MEAN> 39
 -1.080565e+00 1.347227e+00 -1.008764e+00 -1.009820e+00 -8.061721e-01 -1.186519e+00 -1.124221e+00 -1.146527e+00 -1.159180e+00 -1.229961e+00 -6.158004e-01 -7.416196e-01 9.652449e-01 2.039105e-01 2.143625e-01 2.583141e-01 2.454380e-01 3.001469e-01 2.072767e-01 3.017061e-01 3.159465e-01 3.560987e-01 2.190391e-01 1.163657e-01 1.778263e-01 -2.544006e-03 1.976607e-02 8.849207e-03 -6.909080e-03 -1.684359e-02 -6.500945e-02 -7.059541e-03 -3.801565e-04 1.315173e-02 6.428634e-03 2.481781e-02 -1.523912e-02 4.070248e-02 -7.602135e-04
<VARIANCE> 39
 3.018771e+00 3.513308e+00 6.340287e+00 6.669837e+00 7.211158e+00 7.291094e+00 1.236710e+01 8.799453e+00 7.076636e+00 9.349048e+00 1.754321e+01 1.107640e+01 8.178990e-04 1.167004e-01 1.865389e-01 3.159441e-01 4.752838e-01 5.487936e-01 5.355282e-01 7.539824e-01 5.805753e-01 5.051053e-01 4.989671e-01 5.619282e-01 5.151335e-01 3.754082e-05 1.954922e-02 2.764844e-02 4.813211e-02 6.252574e-02 8.022468e-02 7.953568e-02 9.075253e-02 8.288091e-02 7.164204e-02 7.088304e-02 9.326360e-02 7.418304e-02 3.730629e-06
<GCONST> 2.217728e+01
<MIXTURE> 6 6.357563e-02
<MEAN> 39
 -8.967524e-01 1.485768e+01 -1.267663e+00 -2.001619e+00 -5.144984e+00 -4.892889e+00 -7.766734e+00 -3.143355e-01 -1.934171e+00 -3.232661e+00 1.545619e+00 -2.828703e+00 8.764075e-01 5.647445e-02 -1.177025e-01 5.180437e-02 -9.519733e-02 2.272599e-01 -1.556886e-01 1.418943e-01 -8.952440e-02 3.683299e-01 9.848741e-02 1.015892e-01 -9.264256e-02 -1.949910e-03 2.969819e-03 -9.360876e-02 4.654601e-02 -1.031509e-01 1.364976e-01 -7.702307e-02 3.869900e-02 -1.152979e-02 8.048051e-02 3.777378e-02 -2.128507e-02 4.104718e-02 -2.072429e-03
<VARIANCE> 39
 1.111188e+01 3.304238e+01 1.981310e+01 1.855571e+01 1.907451e+01 2.900331e+01 3.031601e+01 2.231371e+01 2.674759e+01 3.373843e+01 4.164165e+01 2.661554e+01 4.935786e-03 2.074472e-01 3.267874e-01 4.574881e-01 7.347339e-01 6.597870e-01 7.208588e-01 8.381138e-01 7.589396e-01 8.530923e-01 8.687825e-01 8.369532e-01 7.215739e-01 5.316538e-05 4.379335e-02 6.835238e-02 8.946729e-02 1.264114e-01 1.190804e-01 1.497277e-01 1.512044e-01 1.437843e-01 1.539354e-01 1.502433e-01 1.395130e-01 1.300490e-01 6.766996e-06
<GCONST> 5.137556e+01
<MIXTURE> 7 6.353640e-02
<MEAN> 39
 -8.815060e-01 1.482237e+01 -1.286082e+00 -1.988495e+00 -5.149436e+00 -4.884007e+00 -7.753876e+00 -3.164887e-01 -1.959739e+00 -3.214203e+00 1.505301e+00 -2.819410e+00 8.764322e-01 5.677499e-02 -1.165905e-01 5.113534e-02 -9.342802e-02 2.270444e-01 -1.535243e-01 1.417413e-01 -9.096751e-02 3.701660e-01 9.826040e-02 1.036606e-01 -9.504438e-02 -1.942713e-03 2.655308e-03 -9.262199e-02 4.645410e-02 -1.027045e-01 1.371112e-01 -7.759921e-02 3.915360e-02 -1.174508e-02 8.115594e-02 3.695805e-02 -2.006751e-02 4.124640e-02 -2.065301e-03
<VARIANCE> 39
 1.111262e+01 3.310980e+01 1.986055e+01 1.851960e+01 1.914219e+01 2.917025e+01 3.030982e+01 2.241541e+01 2.677063e+01 3.377354e+01 4.175195e+01 2.665509e+01 4.959155e-03 2.070280e-01 3.278582e-01 4.609089e-01 7.416203e-01 6.686220e-01 7.260741e-01 8.450814e-01 7.623622e-01 8.580624e-01 8.744023e-01 8.434203e-01 7.243514e-01 5.308484e-05 4.361369e-02 6.830293e-02 8.979154e-02 1.267268e-01 1.200336e-01 1.506637e-01 1.521429e-01 1.447700e-01 1.543040e-01 1.510431e-01 1.399245e-01 1.302844e-01 6.749885e-06
<GCONST> 5.151453e+01
<MIXTURE> 8 3.196260e-02
<MEAN> 39
 -8.456825e-01 1.532666e+00 -1.072656e+00 -2.677760e-01 -3.567559e-01 -4.011072e-01 -1.148526e+00 -1.238705e+00 -5.786093e-01 -2.249095e-01 -6.296312e-01 5.237605e-01 9.692269e-01 -1.331181e-01 -5.212083e-01 -6.567097e-01 -5.553496e-01 -6.447145e-01 -6.523134e-01 -6.471233e-01 -7.252302e-01 -4.740737e-01 -5.833378e-01 -4.215174e-01 -4.486657e-01 -1.568466e-03 -4.381989e-02 -8.917720e-02 -9.296925e-02 -1.277666e-01 -1.500917e-01 -1.903493e-01 -9.526054e-02 -4.200182e-02 -1.539414e-01 -1.406548e-01 -1.095671e-01 -1.218675e-01 -8.493967e-04
<VARIANCE> 39
 3.962996e+00 3.961040e+00 7.584499e+00 7.587042e+00 7.521001e+00 8.478304e+00 9.845892e+00 9.268297e+00 8.614247e+00 1.003839e+01 1.678341e+01 1.030900e+01 8.178990e-04 1.808514e-01 2.888200e-01 2.634591e-01 4.806083e-01 6.268497e-01 5.943098e-01 8.637602e-01 9.400002e-01 8.201995e-01 5.841896e-01 1.202658e+00 6.511655e-01 3.754082e-05 2.069922e-02 4.787926e-02 7.691366e-02 9.109253e-02 1.180830e-01 1.081760e-01 1.104681e-01 1.749204e-01 9.246872e-02 1.090661e-01 1.817081e-01 9.008004e-02 3.730629e-06
<GCONST> 3.087947e+01
