~o
<STREAMINFO> 1 39
<VECSIZE> 39<NULLD><MFCC_E_D_A_Z><DIAGC>
~s "silst"
<NUMMIXES> 3
<MIXTURE> 1 3.815190e-01
<MEAN> 39
 -3.288646e+00 -3.132054e+00 2.923462e+00 3.872727e+00 3.973155e+00 5.469700e+00 3.963593e+00 4.811794e+00 4.518016e+00 4.457230e+00 3.305812e+00 1.878822e+00 1.543083e-01 -1.644811e+00 -6.135319e-01 -8.138637e-01 3.030936e-01 1.649332e-01 6.611573e-01 8.717896e-01 1.254145e+00 9.389625e-01 8.272490e-01 4.787906e-01 1.165553e-01 -5.858568e-02 3.987768e-01 6.900684e-01 3.982498e-02 -5.309966e-02 -2.262020e-01 -3.697511e-01 -4.031120e-01 -4.366624e-01 -3.994455e-01 -4.034133e-01 -2.767012e-01 -1.447117e-01 3.526792e-02
<VARIANCE> 39
 1.778865e+01 4.057337e+01 3.180937e+01 3.347198e+01 3.690644e+01 4.080956e+01 3.819364e+01 4.272826e+01 3.815275e+01 3.417181e+01 3.678949e+01 2.840685e+01 2.545021e-02 2.192203e+00 2.909441e+00 2.828449e+00 2.928231e+00 3.083990e+00 3.882061e+00 4.338246e+00 4.776061e+00 3.931676e+00 3.534779e+00 3.518933e+00 3.123334e+00 4.806322e-03 3.768121e-01 4.665975e-01 4.538125e-01 5.395396e-01 6.015521e-01 6.063589e-01 6.358253e-01 6.916505e-01 6.882067e-01 6.734743e-01 6.518442e-01 5.724662e-01 6.313240e-04
<GCONST> 1.054718e+02
<MIXTURE> 2 1.779085e-01
<MEAN> 39
 -1.221790e+00 8.250957e-01 4.991209e+00 4.884290e+00 3.816920e+00 3.131147e+00 1.595562e+00 7.348460e-01 2.338394e+00 1.337911e+00 9.662886e-01 1.845406e+00 2.419432e-01 2.305165e+00 2.234132e+00 1.901639e-01 -9.093522e-01 -1.316754e+00 -1.557501e+00 -1.555871e+00 -1.325808e+00 -1.059852e+00 -6.550047e-01 -5.585455e-01 -2.945029e-01 1.668728e-01 1.697041e-01 -1.334533e-02 -4.731560e-01 -6.270120e-01 -3.883134e-01 -2.577448e-01 -1.946431e-01 4.234352e-02 -5.997570e-02 -4.261886e-03 2.967570e-02 5.344043e-03 1.567179e-02
<VARIANCE> 39
 2.630419e+01 4.767999e+01 3.807818e+01 2.830966e+01 3.644509e+01 4.145399e+01 3.935701e+01 4.520899e+01 3.700629e+01 3.771908e+01 3.946339e+01 2.863607e+01 4.831858e-02 2.157244e+00 2.860908e+00 4.383755e+00 3.538420e+00 3.830970e+00 3.989398e+00 4.519149e+00 3.857703e+00 3.541867e+00 3.460306e+00 3.945188e+00 3.158183e+00 4.065487e-03 5.023842e-01 4.666521e-01 5.126042e-01 5.100552e-01 5.330016e-01 6.257064e-01 6.414168e-01 6.200917e-01 7.038758e-01 6.379499e-01 6.668118e-01 5.163783e-01 8.991288e-04
<GCONST> 1.078170e+02
<MIXTURE> 3 4.405704e-01
<MEAN> 39
 -1.948410e+00 -1.051191e+00 2.159627e+00 2.709877e+00 3.105486e+00 3.687341e+00 1.460611e+00 2.606296e+00 3.279256e+00 1.504770e+00 1.731555e+00 1.003706e+00 -4.108278e-03 -1.656178e-01 1.741819e-01 6.729411e-02 4.970098e-02 -6.840820e-02 2.107326e-02 -7.654268e-03 5.223395e-02 -3.689846e-02 -8.261229e-02 -7.526877e-02 -8.273098e-02 -1.098936e-02 9.841322e-02 1.253355e-01 8.664151e-02 1.041978e-01 3.484957e-02 5.003077e-02 2.421072e-02 8.114005e-03 -1.179887e-02 1.385456e-02 -7.024878e-03 7.274944e-03 1.441383e-02
<VARIANCE> 39
 1.033969e+01 4.149075e+01 2.107313e+01 2.425142e+01 2.509188e+01 2.541424e+01 2.536760e+01 3.357748e+01 2.392799e+01 2.552806e+01 2.513932e+01 1.882931e+01 1.526403e-02 5.915733e-01 9.604208e-01 9.584362e-01 1.256998e+00 1.535522e+00 1.599355e+00 1.611655e+00 1.896967e+00 1.864535e+00 1.875042e+00 1.604333e+00 1.506832e+00 1.429646e-03 1.446242e-01 2.220541e-01 2.046442e-01 2.379911e-01 3.087617e-01 3.392506e-01 3.423132e-01 4.040721e-01 4.099149e-01 3.657434e-01 3.249688e-01 3.128977e-01 3.613229e-04
<GCONST> 7.998958e+01
~h "#i"
<BEGINHMM>
<NUMSTATES> 15
<STATE> 2
<NUMMIXES> 25
<MIXTURE> 2 2.947284e-02
<MEAN> 39
 -1.949846e+00 4.693490e+00 -5.232013e+00 -7.425375e+00 -6.305640e+00 -5.652951e+00 2.827306e+00 4.858282e+00 1.128341e+01 1.230554e+01 1.132821e+01 4.218853e+00 6.483018e-01 -5.508451e-01 8.557592e-01 -2.932843e-01 5.224270e-01 -3.930099e-01 -1.039099e+00 -1.596549e+00 -9.499121e-01 -8.824645e-01 2.743153e-01 2.736742e-01 4.059243e-01 3.778058e-02 2.775559e-01 1.515907e-01 4.869207e-01 5.503127e-01 3.576975e-01 6.131482e-01 -7.706498e-02 -4.058926e-02 -8.569014e-01 -9.231941e-01 -1.340267e+00 -5.529569e-01 -4.684470e-03
<VARIANCE> 39
 1.243901e+01 2.825496e+01 3.775018e+01 1.847849e+01 1.677881e+01 1.923672e+01 5.880342e+01 6.198856e+01 7.681908e+01 7.415093e+01 6.562251e+01 1.345181e+02 4.887446e-02 1.963252e+00 2.501022e+00 3.460108e+00 2.447759e+00 2.430253e+00 3.486434e+00 5.835927e+00 8.295772e+00 1.503528e+01 1.674915e+01 1.322804e+01 8.613586e+00 2.302281e-03 2.324938e-01 5.741619e-01 5.171545e-01 5.505536e-01 4.966496e-01 4.857275e-01 1.203785e+00 1.484862e+00 1.215170e+00 1.601374e+00 1.423705e+00 2.813488e+00 7.395255e-04
<GCONST> 1.174474e+02
<MIXTURE> 3 1.437461e-02
<MEAN> 39
 -3.207086e+00 9.031205e+00 -6.442688e+00 -3.392110e+00 -5.618277e+00 -4.578615e+00 1.144587e+00 -8.374017e-01 3.722703e+00 5.868311e+00 7.798124e+00 1.163245e+01 8.745686e-01 -9.775730e-01 -3.721560e-01 -3.116539e-01 -1.887011e-01 -5.424582e-01 -4.388400e-01 -1.078007e+00 -7.266973e-01 7.898648e-01 1.653408e+00 2.163356e+00 2.347265e+00 3.252915e-02 3.463264e-01 -3.804379e-02 3.103231e-01 1.946771e-01 1.360567e-01 1.876149e-01 2.457515e-01 3.428385e-01 8.900950e-02 -1.686530e-01 -4.954362e-01 -7.630369e-01 -1.479761e-02
<VARIANCE> 39
 2.284593e+01 2.715481e+01 2.080111e+01 1.529250e+01 2.088250e+01 1.646675e+01 2.245596e+01 2.736991e+01 5.423407e+01 6.742799e+01 5.255230e+01 7.162910e+01 4.615290e-03 6.567866e-01 5.102127e-01 7.139409e-01 1.065299e+00 1.045529e+00 1.197926e+00 2.067668e+00 1.661139e+00 3.040256e+00 3.158983e+00 4.503580e+00 4.909647e+00 3.008729e-04 1.349904e-01 1.194779e-01 1.951249e-01 2.128650e-01 2.451358e-01 3.065503e-01 3.633668e-01 2.974783e-01 3.805121e-01 7.373019e-01 5.745381e-01 6.082906e-01 1.806513e-04
<GCONST> 8.146923e+01
<MIXTURE> 4 2.413028e-02
<MEAN> 39
 1.511868e+00 1.109704e+01 -3.515511e+00 -2.858132e+00 -5.340361e+00 -5.024145e+00 -2.257127e+00 8.172914e-02 -2.630830e+00 -2.115639e+00 -5.052675e+00 -2.388535e+00 6.830559e-01 -1.833599e-02 8.971847e-01 2.862406e-03 4.011769e-01 -6.374123e-01 1.216121e-01 -6.737260e-01 -4.415772e-01 -6.285334e-01 4.985783e-02 -2.425976e-01 6.485268e-01 1.144477e-02 -1.004605e-01 -1.379604e-01 1.945488e-01 -1.284252e-01 1.989506e-01 1.002096e-02 -4.128971e-03 -1.611766e-02 1.586905e-01 1.434179e-01 5.032164e-01 3.313763e-01 7.935900e-03
<VARIANCE> 39
 1.330109e+01 2.468903e+01 1.826769e+01 2.755807e+01 1.974263e+01 1.932503e+01 3.930526e+01 3.239701e+01 3.668846e+01 3.350328e+01 5.924936e+01 4.764591e+01 1.586260e-02 8.488470e-01 1.648820e+00 1.119208e+00 1.651193e+00 1.544331e+00 2.148221e+00 2.638552e+00 2.676996e+00 2.494706e+00 2.392936e+00 4.495551e+00 4.313611e+00 1.318370e-03 1.126071e-01 2.566453e-01 1.961949e-01 3.355063e-01 2.315069e-01 4.238806e-01 4.883781e-01 3.987362e-01 4.319848e-01 5.709571e-01 5.841150e-01 5.358133e-01 1.140379e-04
<GCONST> 8.806431e+01
<MIXTURE> 5 1.437461e-02
<MEAN> 39
 -3.207086e+00 9.031205e+00 -6.442688e+00 -3.392110e+00 -5.618277e+00 -4.578615e+00 1.144587e+00 -8.374017e-01 3.722703e+00 5.868311e+00 7.798124e+00 1.163245e+01 8.745686e-01 -9.775730e-01 -3.721560e-01 -3.116539e-01 -1.887011e-01 -5.424582e-01 -4.388400e-01 -1.078007e+00 -7.266973e-01 7.898648e-01 1.653408e+00 2.163356e+00 2.347265e+00 3.252915e-02 3.463264e-01 -3.804379e-02 3.103231e-01 1.946771e-01 1.360567e-01 1.876149e-01 2.457515e-01 3.428385e-01 8.900950e-02 -1.686530e-01 -4.954362e-01 -7.630369e-01 -1.479761e-02
<VARIANCE> 39
 2.284593e+01 2.715481e+01 2.080111e+01 1.529250e+01 2.088250e+01 1.646675e+01 2.245596e+01 2.736991e+01 5.423407e+01 6.742799e+01 5.255230e+01 7.162910e+01 4.615290e-03 6.567866e-01 5.102127e-01 7.139409e-01 1.065299e+00 1.045529e+00 1.197926e+00 2.067668e+00 1.661139e+00 3.040256e+00 3.158983e+00 4.503580e+00 4.909647e+00 3.008729e-04 1.349904e-01 1.194779e-01 1.951249e-01 2.128650e-01 2.451358e-01 3.065503e-01 3.633668e-01 2.974783e-01 3.805121e-01 7.373019e-01 5.745381e-01 6.082906e-01 1.806513e-04
<GCONST> 8.146923e+01
<MIXTURE> 6 2.576813e-02
<MEAN> 39
 1.446917e+00 1.129253e+01 -3.694128e+00 -3.000887e+00 -5.143245e+00 -4.943355e+00 -2.113832e+00 1.248355e-01 -2.949289e+00 -2.108764e+00 -5.592465e+00 -2.503320e+00 6.890456e-01 1.732270e-02 8.449455e-01 -5.314722e-03 4.133216e-01 -6.433878e-01 1.308429e-01 -6.379644e-01 -5.039502e-01 -6.477375e-01 5.893951e-02 -2.876382e-01 7.478932e-01 9.508610e-03 -9.438802e-02 -1.308227e-01 2.023221e-01 -1.180628e-01 1.911791e-01 -2.577818e-02 -2.031633e-02 -2.512000e-02 1.565287e-01 1.218920e-01 5.224729e-01 3.067233e-01 8.210794e-03
<VARIANCE> 39
 1.289839e+01 2.290100e+01 1.738156e+01 2.811671e+01 1.891169e+01 1.885866e+01 3.844156e+01 3.062384e+01 3.570724e+01 2.974836e+01 5.631849e+01 4.692551e+01 1.442280e-02 7.921774e-01 1.430367e+00 1.068003e+00 1.635538e+00 1.537649e+00 2.090149e+00 2.523494e+00 2.476207e+00 2.404795e+00 2.345520e+00 4.203692e+00 3.867404e+00 1.121621e-03 1.040713e-01 2.357040e-01 1.871009e-01 3.407503e-01 2.333463e-01 4.244892e-01 4.802411e-01 3.696274e-01 4.051634e-01 5.533051e-01 5.475243e-01 5.092301e-01 1.002221e-04
<GCONST> 8.603979e+01
<MIXTURE> 7 2.576813e-02
<MEAN> 39
 1.446917e+00 1.129253e+01 -3.694128e+00 -3.000887e+00 -5.143245e+00 -4.943355e+00 -2.113832e+00 1.248355e-01 -2.949289e+00 -2.108764e+00 -5.592465e+00 -2.503320e+00 6.890456e-01 1.732270e-02 8.449455e-01 -5.314722e-03 4.133216e-01 -6.433878e-01 1.308429e-01 -6.379644e-01 -5.039502e-01 -6.477375e-01 5.893951e-02 -2.876382e-01 7.478932e-01 9.508610e-03 -9.438802e-02 -1.308227e-01 2.023221e-01 -1.180628e-01 1.911791e-01 -2.577818e-02 -2.031633e-02 -2.512000e-02 1.565287e-01 1.218920e-01 5.224729e-01 3.067233e-01 8.210794e-03
<VARIANCE> 39
 1.289839e+01 2.290100e+01 1.738156e+01 2.811671e+01 1.891169e+01 1.885866e+01 3.844156e+01 3.062384e+01 3.570724e+01 2.974836e+01 5.631849e+01 4.692551e+01 1.442280e-02 7.921774e-01 1.430367e+00 1.068003e+00 1.635538e+00 1.537649e+00 2.090149e+00 2.523494e+00 2.476207e+00 2.404795e+00 2.345520e+00 4.203692e+00 3.867404e+00 1.121621e-03 1.040713e-01 2.357040e-01 1.871009e-01 3.407503e-01 2.333463e-01 4.244892e-01 4.802411e-01 3.696274e-01 4.051634e-01 5.533051e-01 5.475243e-01 5.092301e-01 1.002221e-04
<GCONST> 8.603979e+01
<MIXTURE> 8 4.425863e-02
<MEAN> 39
 2.747702e+00 1.333928e+01 -1.390615e+00 -6.045054e-01 -3.267522e+00 -2.918798e+00 2.546240e+00 3.018890e+00 1.422762e+00 4.387592e+00 1.512129e-01 5.135430e+00 6.744816e-01 1.190016e-01 8.204650e-01 -2.657592e-01 -1.608432e-03 -7.430387e-01 -3.011937e-01 -5.201340e-01 -3.387452e-01 -5.889140e-01 -4.037495e-01 -7.865858e-01 2.056548e-01 2.558301e-02 -2.385647e-01 -4.006569e-01 -1.855699e-01 -2.639418e-01 -1.003185e-01 -2.595444e-01 -3.142954e-01 -2.957023e-01 -2.931110e-01 -5.317251e-01 -2.906610e-01 -4.381929e-01 8.452044e-03
<VARIANCE> 39
 8.966974e+00 2.496229e+01 2.086788e+01 1.792548e+01 1.625965e+01 1.710985e+01 2.694902e+01 2.500574e+01 2.632274e+01 2.597118e+01 2.324646e+01 3.143866e+01 1.196199e-02 5.848933e-01 1.213426e+00 8.661228e-01 1.085688e+00 1.056279e+00 1.582578e+00 1.787502e+00 1.663771e+00 2.029613e+00 2.030208e+00 2.570185e+00 1.937042e+00 1.027990e-03 9.461430e-02 2.839099e-01 1.460666e-01 2.286682e-01 2.892386e-01 2.923863e-01 3.186315e-01 3.100422e-01 3.466401e-01 2.811784e-01 4.048161e-01 3.797055e-01 1.367134e-04
<GCONST> 7.629012e+01
<MIXTURE> 9 1.437461e-02
<MEAN> 39
 -3.207086e+00 9.031205e+00 -6.442688e+00 -3.392110e+00 -5.618277e+00 -4.578615e+00 1.144587e+00 -8.374017e-01 3.722703e+00 5.868311e+00 7.798124e+00 1.163245e+01 8.745686e-01 -9.775730e-01 -3.721560e-01 -3.116539e-01 -1.887011e-01 -5.424582e-01 -4.388400e-01 -1.078007e+00 -7.266973e-01 7.898648e-01 1.653408e+00 2.163356e+00 2.347265e+00 3.252915e-02 3.463264e-01 -3.804379e-02 3.103231e-01 1.946771e-01 1.360567e-01 1.876149e-01 2.457515e-01 3.428385e-01 8.900950e-02 -1.686530e-01 -4.954362e-01 -7.630369e-01 -1.479761e-02
<VARIANCE> 39
 2.284593e+01 2.715481e+01 2.080111e+01 1.529250e+01 2.088250e+01 1.646675e+01 2.245596e+01 2.736991e+01 5.423407e+01 6.742799e+01 5.255230e+01 7.162910e+01 4.615290e-03 6.567866e-01 5.102127e-01 7.139409e-01 1.065299e+00 1.045529e+00 1.197926e+00 2.067668e+00 1.661139e+00 3.040256e+00 3.158983e+00 4.503580e+00 4.909647e+00 3.008729e-04 1.349904e-01 1.194779e-01 1.951249e-01 2.128650e-01 2.451358e-01 3.065503e-01 3.633668e-01 2.974783e-01 3.805121e-01 7.373019e-01 5.745381e-01 6.082906e-01 1.806513e-04
<GCONST> 8.146923e+01
<MIXTURE> 10 6.510310e-02
<MEAN> 39
 -9.344932e-01 1.313224e+01 8.908472e-01 -3.404768e+00 -3.935907e+00 -5.204965e+00 -8.932893e+00 -1.573895e-01 8.852957e-01 -3.453119e+00 4.747849e+00 -1.740476e+00 8.062779e-01 -3.268586e-01 1.490798e+00 -5.314365e-01 9.448969e-01 -5.532258e-01 -1.017025e-01 -1.072071e+00 -1.600867e-01 -6.600441e-01 -9.078174e-01 7.416737e-01 -9.432942e-01 8.659961e-03 1.322882e-01 -4.849140e-01 1.392775e-01 -1.699084e-01 -2.241112e-01 2.561354e-01 3.015207e-01 1.294891e-01 -1.186762e-01 3.166302e-01 -4.238428e-01 2.281618e-02 1.997402e-03
<VARIANCE> 39
 8.869659e+00 2.899293e+01 1.743655e+01 2.735740e+01 1.794029e+01 2.314107e+01 2.114650e+01 2.064105e+01 2.616574e+01 2.843607e+01 2.202675e+01 2.500487e+01 7.280171e-03 4.017261e-01 9.342427e-01 9.936845e-01 1.633256e+00 1.480779e+00 1.741822e+00 1.648564e+00 1.882507e+00 1.895556e+00 1.891203e+00 1.520842e+00 1.664897e+00 2.991822e-04 5.849867e-02 2.247533e-01 1.979120e-01 2.739375e-01 2.612743e-01 2.706717e-01 2.458255e-01 2.983076e-01 3.158712e-01 3.397353e-01 2.922049e-01 3.223208e-01 3.312061e-05
<GCONST> 7.176028e+01
<MIXTURE> 11 6.662009e-02
<MEAN> 39
 -1.051876e+00 1.302916e+01 1.087960e+00 -3.596698e+00 -3.835891e+00 -5.301279e+00 -8.768086e+00 -2.083321e-01 1.086907e+00 -3.518687e+00 4.732864e+00 -1.466901e+00 8.069769e-01 -3.097124e-01 1.504652e+00 -5.613425e-01 1.006294e+00 -5.837485e-01 -1.129721e-01 -1.061613e+00 -1.966680e-01 -6.411469e-01 -9.570066e-01 7.756023e-01 -9.961879e-01 7.983056e-03 1.360556e-01 -4.856932e-01 1.286564e-01 -1.645441e-01 -2.434476e-01 2.837329e-01 2.936172e-01 1.422804e-01 -1.388252e-01 3.317254e-01 -4.288017e-01 1.237696e-04 2.153122e-03
<VARIANCE> 39
 8.939670e+00 2.791969e+01 1.726949e+01 2.678168e+01 1.785601e+01 2.263999e+01 2.090602e+01 2.098694e+01 2.638604e+01 2.918747e+01 2.201929e+01 2.574336e+01 7.320572e-03 3.833779e-01 9.075994e-01 9.647146e-01 1.589125e+00 1.465255e+00 1.752663e+00 1.640637e+00 1.835503e+00 1.893716e+00 1.903771e+00 1.549318e+00 1.693881e+00 2.870413e-04 5.715263e-02 2.161483e-01 1.898341e-01 2.680365e-01 2.596383e-01 2.719602e-01 2.449594e-01 2.936333e-01 3.093300e-01 3.382286e-01 2.948692e-01 3.365918e-01 3.011370e-05
<GCONST> 7.136504e+01
<MIXTURE> 12 7.557766e-02
<MEAN> 39
 2.102083e+00 1.146542e+01 -2.838883e+00 -2.820976e+00 -6.105835e+00 -4.185783e+00 -9.321544e-01 1.973293e+00 9.361860e-01 1.797237e+00 6.978654e-01 2.907649e+00 7.262717e-01 -4.488872e-01 1.946188e+00 -1.425213e+00 -1.521254e+00 -1.868107e+00 -2.062585e+00 -1.534382e+00 -1.487081e+00 -1.598170e+00 -1.260931e+00 -5.914126e-01 1.597766e-01 1.334942e-01 -5.679009e-01 -1.100076e+00 5.171924e-01 5.622475e-01 8.021804e-01 7.898583e-01 1.847516e-01 9.898410e-02 1.399518e-02 -4.443901e-02 2.603447e-02 -1.893178e-01 -4.527826e-02
<VARIANCE> 39
 1.288791e+01 4.938922e+01 2.350943e+01 2.121466e+01 2.278165e+01 2.582150e+01 4.784610e+01 2.818271e+01 3.496184e+01 3.418158e+01 3.223632e+01 5.115277e+01 1.339357e-02 1.737065e+00 4.204943e+00 2.105614e+00 1.790902e+00 2.567821e+00 2.661252e+00 2.561851e+00 3.052492e+00 3.057715e+00 3.878719e+00 6.460813e+00 7.804373e+00 3.945917e-03 1.901385e-01 3.844486e-01 4.496256e-01 4.270645e-01 4.177322e-01 4.557145e-01 6.347661e-01 5.048566e-01 5.331795e-01 5.124498e-01 6.350087e-01 6.860331e-01 3.137390e-04
<GCONST> 9.900468e+01
<MIXTURE> 13 6.731842e-02
<MEAN> 39
 -1.087605e+00 1.298689e+01 1.146618e+00 -3.669072e+00 -3.804726e+00 -5.333581e+00 -8.716490e+00 -2.227520e-01 1.142724e+00 -3.533523e+00 4.723612e+00 -1.379288e+00 8.075054e-01 -3.038535e-01 1.506789e+00 -5.686808e-01 1.023646e+00 -5.907643e-01 -1.201871e-01 -1.055064e+00 -2.087547e-01 -6.357867e-01 -9.690563e-01 7.848650e-01 -1.010628e+00 7.746703e-03 1.364921e-01 -4.840170e-01 1.245471e-01 -1.619989e-01 -2.491626e-01 2.919535e-01 2.906871e-01 1.452295e-01 -1.427796e-01 3.347208e-01 -4.294185e-01 -7.271772e-03 2.190656e-03
<VARIANCE> 39
 8.961702e+00 2.759024e+01 1.717940e+01 2.658258e+01 1.781187e+01 2.242282e+01 2.080422e+01 2.106577e+01 2.644270e+01 2.937525e+01 2.205328e+01 2.597764e+01 7.329040e-03 3.757826e-01 8.991108e-01 9.545321e-01 1.569782e+00 1.455340e+00 1.753553e+00 1.635223e+00 1.816346e+00 1.888575e+00 1.904519e+00 1.557286e+00 1.699767e+00 2.828213e-04 5.648249e-02 2.127559e-01 1.863920e-01 2.654645e-01 2.582484e-01 2.713038e-01 2.442176e-01 2.911973e-01 3.059377e-01 3.374563e-01 2.952233e-01 3.404197e-01 2.916305e-05
<GCONST> 7.116154e+01
<MIXTURE> 14 7.557766e-02
<MEAN> 39
 2.102083e+00 1.146542e+01 -2.838883e+00 -2.820976e+00 -6.105835e+00 -4.185783e+00 -9.321544e-01 1.973293e+00 9.361860e-01 1.797237e+00 6.978654e-01 2.907649e+00 7.262717e-01 -4.488872e-01 1.946188e+00 -1.425213e+00 -1.521254e+00 -1.868107e+00 -2.062585e+00 -1.534382e+00 -1.487081e+00 -1.598170e+00 -1.260931e+00 -5.914126e-01 1.597766e-01 1.334942e-01 -5.679009e-01 -1.100076e+00 5.171924e-01 5.622475e-01 8.021804e-01 7.898583e-01 1.847516e-01 9.898410e-02 1.399518e-02 -4.443901e-02 2.603447e-02 -1.893178e-01 -4.527826e-02
<VARIANCE> 39
 1.288791e+01 4.938922e+01 2.350943e+01 2.121466e+01 2.278165e+01 2.582150e+01 4.784610e+01 2.818271e+01 3.496184e+01 3.418158e+01 3.223632e+01 5.115277e+01 1.339357e-02 1.737065e+00 4.204943e+00 2.105614e+00 1.790902e+00 2.567821e+00 2.661252e+00 2.561851e+00 3.052492e+00 3.057715e+00 3.878719e+00 6.460813e+00 7.804373e+00 3.945917e-03 1.901385e-01 3.844486e-01 4.496256e-01 4.270645e-01 4.177322e-01 4.557145e-01 6.347661e-01 5.048566e-01 5.331795e-01 5.124498e-01 6.350087e-01 6.860331e-01 3.137390e-04
<GCONST> 9.900468e+01
<MIXTURE> 15 9.509622e-02
<MEAN> 39
 8.594211e-01 1.057688e+01 -2.611098e+00 -3.644679e+00 -6.554116e+00 -4.946416e+00 -3.745975e+00 4.790089e-01 -2.025740e+00 -1.034878e+00 -4.923767e-01 5.744434e-01 7.832957e-01 -9.660236e-01 8.064829e-01 -5.004907e-01 -5.003277e-01 -4.878894e-01 -5.973025e-01 -1.113076e+00 -7.528996e-01 -1.268876e+00 -1.289614e+00 -6.242115e-01 -7.525164e-01 6.827831e-02 -3.416464e-01 -9.173877e-01 4.341086e-01 6.822879e-01 8.054992e-01 8.270636e-01 5.046209e-01 3.164646e-01 5.023614e-01 3.660221e-01 2.428545e-01 1.774197e-01 -4.225019e-02
<VARIANCE> 39
 1.485589e+01 5.551908e+01 1.804622e+01 1.765986e+01 2.200638e+01 3.027745e+01 4.664392e+01 2.528006e+01 2.399686e+01 3.591652e+01 3.379789e+01 5.675503e+01 1.232542e-02 9.102662e-01 2.360703e+00 9.975939e-01 1.819511e+00 1.839003e+00 1.775675e+00 1.847701e+00 3.127332e+00 2.470838e+00 1.928904e+00 5.475439e+00 4.533422e+00 1.260714e-03 2.276119e-01 3.970779e-01 3.013455e-01 2.725537e-01 3.130279e-01 4.326090e-01 5.614029e-01 3.928790e-01 3.562481e-01 4.130770e-01 4.525633e-01 6.834838e-01 2.521972e-04
<GCONST> 9.025979e+01
<MIXTURE> 16 9.532096e-03
<MEAN> 39
 5.442913e-01 6.655789e+00 -8.826839e-01 -1.391282e+01 -2.059980e+00 -4.797463e+00 -5.640899e+00 3.695997e+00 -3.096623e+00 -8.049568e+00 6.021091e-01 -6.411344e+00 7.941115e-01 -1.183989e+00 1.880312e+00 -2.378630e+00 1.821327e-01 -5.018073e-01 -4.028378e+00 1.629809e+00 -7.210561e-01 -1.801118e+00 3.945984e-01 -1.859023e+00 -7.640210e-01 -2.142120e-02 1.584986e-01 5.138367e-02 2.726412e-01 6.185071e-01 -6.707615e-01 3.087499e-01 1.663138e-01 -4.477125e-01 3.338797e-01 7.276243e-01 -3.960412e-01 4.825259e-01 -2.993678e-03
<VARIANCE> 39
 1.305617e+01 7.846696e+00 1.177402e+01 1.374565e+01 2.769003e+01 3.753666e+01 1.672980e+01 3.858649e+01 3.220825e+01 6.854252e+01 4.747594e+01 1.622529e+01 8.178990e-04 1.793137e-01 9.290690e-01 2.819248e-01 1.801250e+00 1.275450e+00 8.151525e-01 3.808590e-01 5.428714e-01 4.525936e+00 4.301795e+00 5.791738e+00 2.482485e+00 1.232797e-04 1.376360e-01 1.402003e-01 2.278162e-01 4.603112e-01 4.760382e-01 1.686666e+00 1.788998e-01 2.131506e-01 7.718343e-01 3.571126e-01 3.967819e-01 6.079628e-01 6.945115e-06
<GCONST> 7.039648e+01
<MIXTURE> 17 1.437461e-02
<MEAN> 39
 -3.207086e+00 9.031205e+00 -6.442688e+00 -3.392110e+00 -5.618277e+00 -4.578615e+00 1.144587e+00 -8.374017e-01 3.722703e+00 5.868311e+00 7.798124e+00 1.163245e+01 8.745686e-01 -9.775730e-01 -3.721560e-01 -3.116539e-01 -1.887011e-01 -5.424582e-01 -4.388400e-01 -1.078007e+00 -7.266973e-01 7.898648e-01 1.653408e+00 2.163356e+00 2.347265e+00 3.252915e-02 3.463264e-01 -3.804379e-02 3.103231e-01 1.946771e-01 1.360567e-01 1.876149e-01 2.457515e-01 3.428385e-01 8.900950e-02 -1.686530e-01 -4.954362e-01 -7.630369e-01 -1.479761e-02
<VARIANCE> 39
 2.284593e+01 2.715481e+01 2.080111e+01 1.529250e+01 2.088250e+01 1.646675e+01 2.245596e+01 2.736991e+01 5.423407e+01 6.742799e+01 5.255230e+01 7.162910e+01 4.615290e-03 6.567866e-01 5.102127e-01 7.139409e-01 1.065299e+00 1.045529e+00 1.197926e+00 2.067668e+00 1.661139e+00 3.040256e+00 3.158983e+00 4.503580e+00 4.909647e+00 3.008729e-04 1.349904e-01 1.194779e-01 1.951249e-01 2.128650e-01 2.451358e-01 3.065503e-01 3.633668e-01 2.974783e-01 3.805121e-01 7.373019e-01 5.745381e-01 6.082906e-01 1.806513e-04
<GCONST> 8.146923e+01
<MIXTURE> 18 2.418989e-02
<MEAN> 39
 1.515902e+00 1.109220e+01 -3.509384e+00 -2.869206e+00 -5.364381e+00 -5.030168e+00 -2.267623e+00 4.354516e-02 -2.674736e+00 -2.158706e+00 -5.083104e+00 -2.401634e+00 6.831128e-01 -2.118335e-02 8.943547e-01 -4.532572e-04 3.981514e-01 -6.347311e-01 1.155667e-01 -6.699326e-01 -4.419407e-01 -6.279671e-01 4.154314e-02 -2.360957e-01 6.474616e-01 1.159871e-02 -1.008772e-01 -1.347589e-01 1.924680e-01 -1.254572e-01 2.005565e-01 1.023590e-02 -2.092989e-03 -1.190584e-02 1.635654e-01 1.485253e-01 5.066606e-01 3.329763e-01 7.920804e-03
<VARIANCE> 39
 1.330390e+01 2.470391e+01 1.820390e+01 2.750216e+01 1.973697e+01 1.930598e+01 3.927428e+01 3.221635e+01 3.627274e+01 3.313378e+01 5.933186e+01 4.764692e+01 1.580596e-02 8.495883e-01 1.643412e+00 1.121659e+00 1.646135e+00 1.542046e+00 2.144101e+00 2.635152e+00 2.671332e+00 2.481736e+00 2.384604e+00 4.486505e+00 4.332788e+00 1.305529e-03 1.124540e-01 2.564247e-01 1.960931e-01 3.353915e-01 2.314658e-01 4.228193e-01 4.882711e-01 3.951905e-01 4.273556e-01 5.694711e-01 5.844693e-01 5.365809e-01 1.136618e-04
<GCONST> 8.797155e+01
<MIXTURE> 19 2.471777e-02
<MEAN> 39
 1.397177e+00 9.894126e+00 -3.045998e+00 -2.533207e+00 -6.297289e+00 -5.218270e+00 -3.254563e+00 -6.259620e-01 -1.175683e+00 -2.532548e+00 -2.540789e+00 -1.633614e+00 6.465428e-01 -6.680568e-02 1.299579e+00 1.171566e-01 4.288848e-01 -6.211796e-01 2.074121e-01 -7.674800e-01 -9.294512e-02 -4.988382e-01 4.566437e-02 -3.343280e-01 -1.424958e-01 2.176666e-02 -1.045191e-01 -1.039674e-01 1.825416e-01 -1.910172e-01 2.006323e-01 1.524548e-01 4.254507e-02 8.431552e-02 2.080003e-01 2.757275e-01 4.741333e-01 3.950948e-01 6.094901e-03
<VARIANCE> 39
 1.579983e+01 3.642329e+01 2.348743e+01 2.413129e+01 2.223102e+01 2.015846e+01 4.162783e+01 4.738627e+01 4.421610e+01 6.197126e+01 6.135187e+01 4.991499e+01 2.306577e-02 1.083561e+00 2.667383e+00 1.287750e+00 1.675449e+00 1.535247e+00 2.375988e+00 3.263884e+00 3.578925e+00 3.288947e+00 2.602840e+00 5.834725e+00 7.739805e+00 1.945066e-03 1.601039e-01 4.210490e-01 2.536369e-01 3.034714e-01 2.087670e-01 4.127843e-01 5.838085e-01 6.391616e-01 7.129681e-01 7.164317e-01 7.433832e-01 6.453890e-01 1.579572e-04
<GCONST> 9.667738e+01
<MIXTURE> 20 4.422148e-02
<MEAN> 39
 2.747998e+00 1.335745e+01 -1.383090e+00 -5.976954e-01 -3.288245e+00 -2.924671e+00 2.536713e+00 3.026346e+00 1.426917e+00 4.393465e+00 1.486880e-01 5.140901e+00 6.748727e-01 1.166415e-01 8.185943e-01 -2.681533e-01 -4.237768e-03 -7.443492e-01 -3.029058e-01 -5.255895e-01 -3.424576e-01 -5.985026e-01 -4.121665e-01 -7.951751e-01 2.024112e-01 2.573029e-02 -2.399878e-01 -4.043502e-01 -1.858696e-01 -2.644592e-01 -9.752445e-02 -2.583672e-01 -3.127757e-01 -2.963141e-01 -2.919158e-01 -5.316265e-01 -2.888883e-01 -4.385950e-01 8.360929e-03
<VARIANCE> 39
 8.967026e+00 2.492140e+01 2.079122e+01 1.792290e+01 1.624820e+01 1.715124e+01 2.692470e+01 2.503477e+01 2.628019e+01 2.588596e+01 2.321700e+01 3.139616e+01 1.192928e-02 5.875571e-01 1.215624e+00 8.701411e-01 1.087831e+00 1.058584e+00 1.590050e+00 1.783093e+00 1.660890e+00 2.035092e+00 2.033436e+00 2.575367e+00 1.935515e+00 1.029464e-03 9.470116e-02 2.845765e-01 1.462128e-01 2.289120e-01 2.899322e-01 2.923202e-01 3.186179e-01 3.109452e-01 3.471422e-01 2.811530e-01 4.060871e-01 3.804392e-01 1.373754e-04
<GCONST> 7.632057e+01
<MIXTURE> 21 2.471777e-02
<MEAN> 39
 1.397177e+00 9.894126e+00 -3.045998e+00 -2.533207e+00 -6.297289e+00 -5.218270e+00 -3.254563e+00 -6.259620e-01 -1.175683e+00 -2.532548e+00 -2.540789e+00 -1.633614e+00 6.465428e-01 -6.680568e-02 1.299579e+00 1.171566e-01 4.288848e-01 -6.211796e-01 2.074121e-01 -7.674800e-01 -9.294512e-02 -4.988382e-01 4.566437e-02 -3.343280e-01 -1.424958e-01 2.176666e-02 -1.045191e-01 -1.039674e-01 1.825416e-01 -1.910172e-01 2.006323e-01 1.524548e-01 4.254507e-02 8.431552e-02 2.080003e-01 2.757275e-01 4.741333e-01 3.950948e-01 6.094901e-03
<VARIANCE> 39
 1.579983e+01 3.642329e+01 2.348743e+01 2.413129e+01 2.223102e+01 2.015846e+01 4.162783e+01 4.738627e+01 4.421610e+01 6.197126e+01 6.135187e+01 4.991499e+01 2.306577e-02 1.083561e+00 2.667383e+00 1.287750e+00 1.675449e+00 1.535247e+00 2.375988e+00 3.263884e+00 3.578925e+00 3.288947e+00 2.602840e+00 5.834725e+00 7.739805e+00 1.945066e-03 1.601039e-01 4.210490e-01 2.536369e-01 3.034714e-01 2.087670e-01 4.127843e-01 5.838085e-01 6.391616e-01 7.129681e-01 7.164317e-01 7.433832e-01 6.453890e-01 1.579572e-04
<GCONST> 9.667738e+01
<MIXTURE> 22 4.429757e-02
<MEAN> 39
 2.747563e+00 1.335925e+01 -1.400564e+00 -5.986939e-01 -3.272314e+00 -2.926117e+00 2.558098e+00 2.997253e+00 1.417858e+00 4.384457e+00 1.615661e-01 5.152482e+00 6.747265e-01 1.197179e-01 8.182651e-01 -2.664906e-01 -3.995366e-04 -7.438662e-01 -2.984865e-01 -5.182118e-01 -3.388251e-01 -5.892249e-01 -4.043859e-01 -7.844185e-01 2.101606e-01 2.540107e-02 -2.381795e-01 -4.008229e-01 -1.861950e-01 -2.656893e-01 -1.011342e-01 -2.615632e-01 -3.143885e-01 -2.941347e-01 -2.932182e-01 -5.334731e-01 -2.954097e-01 -4.409029e-01 8.486791e-03
<VARIANCE> 39
 8.992233e+00 2.492487e+01 2.088075e+01 1.799796e+01 1.626447e+01 1.705891e+01 2.686108e+01 2.486838e+01 2.632423e+01 2.602707e+01 2.325320e+01 3.145007e+01 1.193433e-02 5.835348e-01 1.209936e+00 8.657074e-01 1.089209e+00 1.056283e+00 1.591810e+00 1.785704e+00 1.663846e+00 2.038548e+00 2.034368e+00 2.578555e+00 1.948358e+00 1.020188e-03 9.445291e-02 2.821472e-01 1.458833e-01 2.297174e-01 2.883919e-01 2.923516e-01 3.184849e-01 3.088700e-01 3.474042e-01 2.818352e-01 4.034192e-01 3.802175e-01 1.354371e-04
<GCONST> 7.627660e+01
<MIXTURE> 23 4.423960e-02
<MEAN> 39
 2.766862e+00 1.334580e+01 -1.398382e+00 -6.206544e-01 -3.265030e+00 -2.909239e+00 2.528792e+00 2.988640e+00 1.395063e+00 4.360972e+00 1.453978e-01 5.126297e+00 6.749607e-01 1.151468e-01 8.110710e-01 -2.681316e-01 -5.935510e-03 -7.414489e-01 -3.049431e-01 -5.147431e-01 -3.376822e-01 -5.827114e-01 -4.089579e-01 -7.797796e-01 2.017548e-01 2.549902e-02 -2.402251e-01 -3.970802e-01 -1.875590e-01 -2.602259e-01 -1.018686e-01 -2.624627e-01 -3.153359e-01 -2.943741e-01 -2.931988e-01 -5.311588e-01 -2.926275e-01 -4.380046e-01 8.441269e-03
<VARIANCE> 39
 8.984443e+00 2.497474e+01 2.092056e+01 1.781739e+01 1.624672e+01 1.703320e+01 2.700883e+01 2.495444e+01 2.629906e+01 2.600401e+01 2.321874e+01 3.156009e+01 1.194861e-02 5.809146e-01 1.198534e+00 8.644058e-01 1.081758e+00 1.051708e+00 1.567037e+00 1.779697e+00 1.658659e+00 2.020110e+00 2.025688e+00 2.571734e+00 1.936233e+00 1.013292e-03 9.422763e-02 2.802206e-01 1.449285e-01 2.269548e-01 2.873057e-01 2.894303e-01 3.173240e-01 3.081580e-01 3.455007e-01 2.800481e-01 4.029965e-01 3.792416e-01 1.353553e-04
<GCONST> 7.613563e+01
<MIXTURE> 24 1.089723e-01
<MEAN> 39
 -1.824742e+00 1.108773e+01 -1.790939e+00 -7.145363e+00 -2.007928e+00 -1.073614e+01 1.111155e+00 3.314889e-01 4.539448e-01 -4.389270e-01 -8.843035e-01 -1.401291e+00 7.976931e-01 -2.381762e-01 2.155802e+00 -1.442624e+00 2.369661e+00 -1.194351e+00 -5.012687e-01 -5.958962e-01 -1.337763e+00 -1.202069e+00 -7.870159e-01 -2.021858e-01 8.032401e-01 -8.948733e-03 3.275306e-01 -8.012428e-01 3.143725e-01 3.331757e-01 -5.174004e-01 1.080279e+00 -1.793928e-01 2.466465e-02 -2.065247e-01 -1.229161e-01 -1.383135e-01 1.629389e-02 3.423630e-03
<VARIANCE> 39
 9.289541e+00 2.457837e+01 2.446049e+01 3.589119e+01 2.384990e+01 2.520162e+01 3.571861e+01 3.516687e+01 3.686909e+01 3.190240e+01 3.412421e+01 3.323028e+01 1.153342e-02 6.496111e-01 1.505494e+00 1.050019e+00 1.588437e+00 2.516977e+00 4.618672e+00 2.945255e+00 2.509092e+00 3.855127e+00 5.802818e+00 3.743120e+00 3.861912e+00 3.232215e-04 9.885480e-02 2.776606e-01 2.706867e-01 6.149364e-01 6.406106e-01 4.082856e-01 3.897280e-01 5.735151e-01 6.413094e-01 6.510293e-01 5.753340e-01 6.212142e-01 4.133960e-05
<GCONST> 8.952132e+01
<MIXTURE> 25 2.291993e-02
<MEAN> 39
 1.461825e+00 1.076838e+01 -3.292919e+00 -2.679862e+00 -5.684200e+00 -5.158026e+00 -2.589728e+00 -1.320373e-02 -1.920906e+00 -2.127246e+00 -3.997226e+00 -2.156939e+00 6.737162e-01 -4.157881e-02 1.037817e+00 3.450536e-02 4.055104e-01 -6.538988e-01 1.454879e-01 -7.614649e-01 -3.262451e-01 -6.071354e-01 7.301884e-02 -2.478009e-01 4.325380e-01 1.524246e-02 -9.685721e-02 -1.413809e-01 1.955967e-01 -1.590230e-01 2.078667e-01 6.614587e-02 1.045357e-02 -3.028399e-03 1.500352e-01 1.695193e-01 4.643704e-01 3.608619e-01 7.382375e-03
<VARIANCE> 39
 1.387342e+01 2.789765e+01 2.021735e+01 2.653520e+01 2.106014e+01 2.020662e+01 4.054927e+01 3.800050e+01 4.089088e+01 4.392982e+01 6.172090e+01 4.919069e+01 1.828619e-02 9.094867e-01 1.974339e+00 1.199428e+00 1.677092e+00 1.553639e+00 2.278813e+00 2.798801e+00 3.056399e+00 2.764882e+00 2.493116e+00 4.961497e+00 5.179088e+00 1.491947e-03 1.232069e-01 2.949785e-01 2.155067e-01 3.284204e-01 2.269137e-01 4.297441e-01 5.132369e-01 4.847706e-01 5.278544e-01 6.132829e-01 6.365201e-01 5.701200e-01 1.289952e-04
<GCONST> 9.140955e+01
<STATE> 3
<NUMMIXES> 25
<MIXTURE> 1 6.783989e-04
<MEAN> 39
 -9.222593e+00 1.809765e+01 -6.699024e+00 -3.396321e+00 -1.109437e+01 -5.139926e+00 -9.997174e+00 -6.728352e+00 6.315451e-01 -1.274954e+00 -2.745883e+00 1.092229e+01 7.603796e-01 9.300752e-01 2.345727e+00 2.992041e+00 2.299529e+00 1.047929e+00 4.057094e+00 4.249472e+00 1.445913e+00 2.896761e+00 2.139575e+00 1.963861e+00 2.581223e+00 1.365488e-02 3.678875e-01 3.823711e-01 3.414450e-01 4.357339e-01 6.398757e-01 1.196040e-01 4.225713e-01 5.186287e-01 -5.980273e-02 -4.834566e-02 4.332166e-01 -3.406241e-02 3.558413e-03
<VARIANCE> 39
 4.872062e-01 8.793837e-01 4.467798e-01 5.986336e-01 4.655360e-01 5.547998e-01 5.233105e-01 5.238746e-01 4.623669e-01 4.285940e-01 4.554257e-01 4.065517e-01 8.178990e-04 2.131718e-02 2.467502e-02 2.295796e-02 3.262999e-02 2.705514e-02 3.277762e-02 3.157425e-02 3.330884e-02 3.002590e-02 2.830696e-02 2.829967e-02 2.573834e-02 3.754082e-05 3.006852e-03 3.204699e-03 3.548019e-03 5.152391e-03 4.554175e-03 5.507924e-03 5.410464e-03 5.677051e-03 5.208372e-03 4.984414e-03 4.887287e-03 4.422382e-03 3.730629e-06
<GCONST> -7.391186e+01
<MIXTURE> 2 2.161358e-02
<MEAN> 39
 -4.179055e+00 1.045030e+01 -5.944095e+00 -5.111344e+00 -8.805817e+00 -1.025237e+01 -5.831838e+00 -5.403100e+00 -5.817288e+00 -4.368154e+00 -6.937414e+00 -8.477063e-01 8.757526e-01 -2.292479e-01 -4.175308e-02 6.391280e-02 5.446121e-01 1.212570e-01 2.804535e-01 -2.029057e-01 -7.028731e-01 -3.694009e-01 -4.161172e-01 -3.569843e-01 2.317008e-01 1.719416e-02 4.525243e-01 2.299323e-01 5.695347e-01 4.694512e-01 6.471845e-01 7.863094e-01 6.511965e-01 7.656385e-01 7.072057e-01 7.243394e-01 7.153333e-01 4.779002e-01 -6.718616e-03
<VARIANCE> 39
 1.261922e+01 3.673207e+01 1.346980e+01 1.455126e+01 1.625510e+01 2.291216e+01 2.884041e+01 2.056834e+01 2.790542e+01 2.191934e+01 3.083365e+01 4.616280e+01 6.267116e-03 3.438271e-01 2.927704e-01 6.372941e-01 9.666570e-01 9.593261e-01 9.161493e-01 1.208087e+00 1.191874e+00 8.682019e-01 1.150766e+00 1.984371e+00 2.643802e+00 2.036199e-04 7.831368e-02 7.549662e-02 1.454814e-01 2.014845e-01 1.591734e-01 2.618408e-01 2.160500e-01 1.839455e-01 1.713632e-01 2.399538e-01 3.687592e-01 3.663802e-01 6.406297e-05
<GCONST> 6.470456e+01
<MIXTURE> 3 1.129068e-02
<MEAN> 39
 -4.428988e+00 8.998297e+00 -8.722466e+00 -4.904283e+00 -9.824141e+00 -1.009534e+01 -4.069747e+00 -5.006135e+00 4.106622e-01 2.174762e+00 3.994171e+00 1.198295e+01 8.993852e-01 -2.011848e-01 8.053493e-02 1.334421e-01 4.589645e-01 6.357812e-02 1.583595e-01 -3.445277e-01 -2.431934e-01 2.034136e-01 1.913753e-01 7.088804e-01 8.948320e-01 1.457710e-02 4.480417e-01 3.595952e-01 3.966754e-01 3.833187e-01 6.073529e-01 5.925664e-01 5.818232e-01 6.038771e-01 2.857470e-01 6.861869e-02 -2.695098e-02 -3.449294e-01 -5.514089e-03
<VARIANCE> 39
 2.147583e+01 2.616956e+01 2.083719e+01 1.408542e+01 1.963353e+01 1.474559e+01 2.308096e+01 2.604058e+01 5.511325e+01 7.004945e+01 1.069521e+02 1.293287e+02 6.193937e-03 3.548901e-01 2.892273e-01 5.768522e-01 8.758946e-01 1.166288e+00 7.834665e-01 9.760639e-01 9.904273e-01 8.505003e-01 1.716684e+00 1.749723e+00 3.369776e+00 1.136154e-04 5.377229e-02 9.637608e-02 1.347928e-01 1.840032e-01 1.737155e-01 1.388756e-01 2.404843e-01 1.898315e-01 3.085633e-01 4.478670e-01 5.497594e-01 5.799595e-01 2.787231e-05
<GCONST> 6.907288e+01
<MIXTURE> 4 2.481409e-02
<MEAN> 39
 -4.108757e-01 1.109262e+01 -3.707874e+00 -1.745572e+00 -6.032543e+00 -4.206653e+00 -2.563828e+00 -2.643240e+00 -4.294153e+00 -2.705061e+00 -2.815888e+00 2.553141e+00 8.325666e-01 5.113252e-02 6.233671e-01 2.952237e-01 8.282077e-01 -2.185723e-02 1.018261e-01 -3.212508e-01 -1.525630e-01 -2.333849e-01 -1.156063e-01 1.638915e-01 7.997984e-01 1.777253e-02 1.016485e-01 -3.174138e-02 9.313076e-02 -8.967310e-02 2.171466e-01 -1.116892e-01 1.085867e-01 3.544363e-01 5.065632e-01 3.296839e-01 1.544542e-01 -1.301461e-01 -2.520169e-03
<VARIANCE> 39
 1.200232e+01 2.986358e+01 2.197277e+01 2.036696e+01 2.538487e+01 3.116916e+01 2.636633e+01 2.508171e+01 2.276523e+01 2.479712e+01 4.427480e+01 3.669685e+01 7.703541e-03 4.284254e-01 6.261445e-01 8.413063e-01 1.085289e+00 1.230425e+00 1.497590e+00 1.684926e+00 1.619458e+00 2.187449e+00 2.361443e+00 2.657313e+00 1.862577e+00 2.412690e-04 8.196874e-02 1.008100e-01 1.564779e-01 2.205686e-01 2.892762e-01 2.737675e-01 2.635053e-01 3.387252e-01 3.394350e-01 2.985706e-01 3.883181e-01 4.159927e-01 5.761843e-05
<GCONST> 7.382510e+01
<MIXTURE> 5 1.129068e-02
<MEAN> 39
 -4.428988e+00 8.998297e+00 -8.722466e+00 -4.904283e+00 -9.824141e+00 -1.009534e+01 -4.069747e+00 -5.006135e+00 4.106622e-01 2.174762e+00 3.994171e+00 1.198295e+01 8.993852e-01 -2.011848e-01 8.053493e-02 1.334421e-01 4.589645e-01 6.357812e-02 1.583595e-01 -3.445277e-01 -2.431934e-01 2.034136e-01 1.913753e-01 7.088804e-01 8.948320e-01 1.457710e-02 4.480417e-01 3.595952e-01 3.966754e-01 3.833187e-01 6.073529e-01 5.925664e-01 5.818232e-01 6.038771e-01 2.857470e-01 6.861869e-02 -2.695098e-02 -3.449294e-01 -5.514089e-03
<VARIANCE> 39
 2.147583e+01 2.616956e+01 2.083719e+01 1.408542e+01 1.963353e+01 1.474559e+01 2.308096e+01 2.604058e+01 5.511325e+01 7.004945e+01 1.069521e+02 1.293287e+02 6.193937e-03 3.548901e-01 2.892273e-01 5.768522e-01 8.758946e-01 1.166288e+00 7.834665e-01 9.760639e-01 9.904273e-01 8.505003e-01 1.716684e+00 1.749723e+00 3.369776e+00 1.136154e-04 5.377229e-02 9.637608e-02 1.347928e-01 1.840032e-01 1.737155e-01 1.388756e-01 2.404843e-01 1.898315e-01 3.085633e-01 4.478670e-01 5.497594e-01 5.799595e-01 2.787231e-05
<GCONST> 6.907288e+01
<MIXTURE> 6 2.482730e-02
<MEAN> 39
 -4.225202e-01 1.113124e+01 -3.709161e+00 -1.743842e+00 -6.048677e+00 -4.247303e+00 -2.529605e+00 -2.629911e+00 -4.328467e+00 -2.731833e+00 -2.896452e+00 2.543295e+00 8.315086e-01 5.387729e-02 6.237543e-01 2.933261e-01 8.315064e-01 -1.915451e-02 1.008198e-01 -3.279345e-01 -1.520555e-01 -2.231609e-01 -1.161570e-01 1.534167e-01 7.959975e-01 1.778116e-02 1.008706e-01 -3.074823e-02 9.176327e-02 -9.133510e-02 2.182700e-01 -1.110796e-01 1.051329e-01 3.522868e-01 5.059339e-01 3.293591e-01 1.576053e-01 -1.311168e-01 -2.450193e-03
<VARIANCE> 39
 1.191323e+01 2.981642e+01 2.171585e+01 2.041272e+01 2.521657e+01 3.102080e+01 2.631146e+01 2.494495e+01 2.247502e+01 2.459607e+01 4.383840e+01 3.640656e+01 7.792774e-03 4.245416e-01 6.225068e-01 8.342565e-01 1.084204e+00 1.224102e+00 1.491452e+00 1.677875e+00 1.605839e+00 2.166454e+00 2.332692e+00 2.632243e+00 1.849717e+00 2.406632e-04 8.133723e-02 1.010759e-01 1.552605e-01 2.203943e-01 2.874928e-01 2.728586e-01 2.629037e-01 3.342933e-01 3.365285e-01 2.967656e-01 3.851442e-01 4.132758e-01 5.723395e-05
<GCONST> 7.359843e+01
<MIXTURE> 7 2.482730e-02
<MEAN> 39
 -4.225202e-01 1.113124e+01 -3.709161e+00 -1.743842e+00 -6.048677e+00 -4.247303e+00 -2.529605e+00 -2.629911e+00 -4.328467e+00 -2.731833e+00 -2.896452e+00 2.543295e+00 8.315086e-01 5.387729e-02 6.237543e-01 2.933261e-01 8.315064e-01 -1.915451e-02 1.008198e-01 -3.279345e-01 -1.520555e-01 -2.231609e-01 -1.161570e-01 1.534167e-01 7.959975e-01 1.778116e-02 1.008706e-01 -3.074823e-02 9.176327e-02 -9.133510e-02 2.182700e-01 -1.110796e-01 1.051329e-01 3.522868e-01 5.059339e-01 3.293591e-01 1.576053e-01 -1.311168e-01 -2.450193e-03
<VARIANCE> 39
 1.191323e+01 2.981642e+01 2.171585e+01 2.041272e+01 2.521657e+01 3.102080e+01 2.631146e+01 2.494495e+01 2.247502e+01 2.459607e+01 4.383840e+01 3.640656e+01 7.792774e-03 4.245416e-01 6.225068e-01 8.342565e-01 1.084204e+00 1.224102e+00 1.491452e+00 1.677875e+00 1.605839e+00 2.166454e+00 2.332692e+00 2.632243e+00 1.849717e+00 2.406632e-04 8.133723e-02 1.010759e-01 1.552605e-01 2.203943e-01 2.874928e-01 2.728586e-01 2.629037e-01 3.342933e-01 3.365285e-01 2.967656e-01 3.851442e-01 4.132758e-01 5.723395e-05
<GCONST> 7.359843e+01
<MIXTURE> 8 2.990999e-02
<MEAN> 39
 1.069704e-01 1.577389e+01 -7.289616e-01 -1.136924e+00 -6.636116e+00 -5.028048e+00 -1.095015e+01 3.698262e+00 -3.935691e+00 -7.118688e-01 1.966673e+00 -4.527508e+00 8.012997e-01 -5.313279e-01 5.813022e-01 1.146237e-01 1.099731e-01 -1.039704e-01 1.042521e-01 -2.397226e-01 7.811412e-02 -2.945094e-01 1.797724e-05 -4.301712e-01 -1.878275e-01 2.242389e-02 1.478784e-02 -3.566062e-01 5.630973e-02 -1.088630e-02 1.829390e-01 7.615474e-02 3.577664e-01 -2.621621e-01 1.122766e-01 -7.618439e-03 -2.541763e-02 2.391215e-01 -5.185679e-03
<VARIANCE> 39
 8.177529e+00 2.469697e+01 2.002460e+01 2.282397e+01 2.154599e+01 3.363365e+01 3.573126e+01 2.902255e+01 3.351223e+01 2.735718e+01 3.150197e+01 1.949328e+01 8.028929e-03 5.019613e-01 1.133629e+00 8.932091e-01 1.807711e+00 1.523325e+00 1.163757e+00 1.698681e+00 1.784559e+00 1.330239e+00 2.311175e+00 1.558518e+00 1.334481e+00 3.514096e-04 7.258334e-02 1.755980e-01 1.534443e-01 2.919478e-01 2.439173e-01 2.972870e-01 3.105685e-01 3.635316e-01 2.702690e-01 3.172431e-01 2.837265e-01 3.188899e-01 7.918601e-05
<GCONST> 7.397872e+01
<MIXTURE> 9 1.129068e-02
<MEAN> 39
 -4.428988e+00 8.998297e+00 -8.722466e+00 -4.904283e+00 -9.824141e+00 -1.009534e+01 -4.069747e+00 -5.006135e+00 4.106622e-01 2.174762e+00 3.994171e+00 1.198295e+01 8.993852e-01 -2.011848e-01 8.053493e-02 1.334421e-01 4.589645e-01 6.357812e-02 1.583595e-01 -3.445277e-01 -2.431934e-01 2.034136e-01 1.913753e-01 7.088804e-01 8.948320e-01 1.457710e-02 4.480417e-01 3.595952e-01 3.966754e-01 3.833187e-01 6.073529e-01 5.925664e-01 5.818232e-01 6.038771e-01 2.857470e-01 6.861869e-02 -2.695098e-02 -3.449294e-01 -5.514089e-03
<VARIANCE> 39
 2.147583e+01 2.616956e+01 2.083719e+01 1.408542e+01 1.963353e+01 1.474559e+01 2.308096e+01 2.604058e+01 5.511325e+01 7.004945e+01 1.069521e+02 1.293287e+02 6.193937e-03 3.548901e-01 2.892273e-01 5.768522e-01 8.758946e-01 1.166288e+00 7.834665e-01 9.760639e-01 9.904273e-01 8.505003e-01 1.716684e+00 1.749723e+00 3.369776e+00 1.136154e-04 5.377229e-02 9.637608e-02 1.347928e-01 1.840032e-01 1.737155e-01 1.388756e-01 2.404843e-01 1.898315e-01 3.085633e-01 4.478670e-01 5.497594e-01 5.799595e-01 2.787231e-05
<GCONST> 6.907288e+01
<MIXTURE> 10 8.615848e-02
<MEAN> 39
 -1.579180e+00 1.545081e+01 8.265437e-01 -2.513195e+00 -5.635899e+00 -4.127211e+00 -1.048247e+01 3.092921e-01 -1.441545e+00 -4.215339e+00 5.474526e+00 -3.682547e+00 8.313445e-01 -3.375073e-01 4.764278e-01 -1.464537e-01 2.115694e-01 -2.016207e-01 1.123039e-01 -1.817073e-01 -8.406030e-02 -2.730518e-01 -3.954519e-01 1.458120e-01 -2.790388e-01 1.575991e-02 1.031584e-01 -2.115286e-01 4.441453e-02 -1.043446e-01 1.031545e-01 -1.806188e-02 1.343710e-01 -1.424628e-03 8.756031e-02 1.371059e-01 -1.338296e-01 1.426961e-01 -2.805654e-03
<VARIANCE> 39
 7.815193e+00 2.551264e+01 1.080439e+01 1.412624e+01 1.503508e+01 1.682027e+01 1.684534e+01 2.059494e+01 2.266411e+01 2.773991e+01 1.380225e+01 9.948895e+00 5.172693e-03 3.992910e-01 3.828245e-01 3.926833e-01 5.963038e-01 5.364738e-01 6.455311e-01 7.397283e-01 9.045445e-01 1.059673e+00 5.747640e-01 7.590901e-01 8.632446e-01 1.900695e-04 6.654309e-02 7.438424e-02 7.970068e-02 1.231157e-01 9.492646e-02 1.101008e-01 1.302662e-01 1.538433e-01 1.440891e-01 1.395905e-01 1.101899e-01 1.077947e-01 2.542512e-05
<GCONST> 4.788250e+01
<MIXTURE> 11 8.632134e-02
<MEAN> 39
 -1.572399e+00 1.544460e+01 8.150024e-01 -2.529813e+00 -5.620139e+00 -4.141591e+00 -1.046621e+01 3.074901e-01 -1.443435e+00 -4.203979e+00 5.481119e+00 -3.678619e+00 8.314560e-01 -3.375052e-01 4.753839e-01 -1.465642e-01 2.142486e-01 -1.996225e-01 1.104079e-01 -1.819228e-01 -8.450784e-02 -2.731844e-01 -3.946643e-01 1.433422e-01 -2.806351e-01 1.574527e-02 1.025438e-01 -2.107021e-01 4.467234e-02 -1.036838e-01 1.024536e-01 -1.763233e-02 1.332006e-01 -9.976161e-04 8.739624e-02 1.362342e-01 -1.337939e-01 1.426369e-01 -2.801477e-03
<VARIANCE> 39
 7.787044e+00 2.548751e+01 1.072221e+01 1.410344e+01 1.503039e+01 1.672902e+01 1.678570e+01 2.050562e+01 2.262856e+01 2.756613e+01 1.378169e+01 9.923402e+00 5.175206e-03 3.974048e-01 3.806507e-01 3.905551e-01 5.927328e-01 5.351422e-01 6.423084e-01 7.366793e-01 8.993172e-01 1.055452e+00 5.714665e-01 7.571463e-01 8.611047e-01 1.900813e-04 6.604495e-02 7.405759e-02 7.923616e-02 1.223254e-01 9.460040e-02 1.093171e-01 1.295718e-01 1.529186e-01 1.435139e-01 1.386610e-01 1.098306e-01 1.074648e-01 2.543719e-05
<GCONST> 4.772688e+01
<MIXTURE> 12 4.290224e-02
<MEAN> 39
 -1.469977e+00 1.090090e+01 -4.386094e+00 -1.746929e+00 -6.465853e+00 -6.761485e+00 -2.348471e+00 -1.646460e+00 -3.759213e+00 -9.829728e-01 -5.591443e+00 3.311962e+00 8.584762e-01 -7.024149e-01 -5.991203e-01 -5.851729e-01 2.566897e-03 -5.000100e-01 -8.839618e-01 -1.349618e+00 -1.442046e+00 -1.114581e+00 -1.128306e+00 -1.038199e+00 -5.463482e-01 2.795963e-02 3.067008e-01 4.207490e-02 2.890658e-01 1.874981e-01 2.434356e-01 3.029044e-01 3.122132e-01 3.457432e-01 4.378999e-01 3.827929e-01 4.538469e-01 1.850499e-01 -9.252554e-03
<VARIANCE> 39
 1.207128e+01 3.157612e+01 1.660210e+01 1.463184e+01 1.430151e+01 1.352537e+01 1.630303e+01 2.134017e+01 1.699275e+01 2.290583e+01 1.836123e+01 2.506776e+01 6.607096e-03 4.000985e-01 4.158642e-01 6.955206e-01 6.417574e-01 9.406089e-01 9.249706e-01 8.552080e-01 1.309555e+00 1.022169e+00 1.431815e+00 2.037763e+00 2.229620e+00 1.851423e-04 6.439272e-02 8.916692e-02 6.623592e-02 1.128875e-01 1.197635e-01 1.424380e-01 1.845449e-01 1.541497e-01 1.737907e-01 2.141029e-01 2.364512e-01 2.902095e-01 4.758642e-05
<GCONST> 5.837057e+01
<MIXTURE> 13 8.605967e-02
<MEAN> 39
 -1.582079e+00 1.545133e+01 8.330266e-01 -2.505685e+00 -5.635522e+00 -4.129933e+00 -1.048656e+01 3.011904e-01 -1.435717e+00 -4.218710e+00 5.475719e+00 -3.680067e+00 8.313546e-01 -3.363365e-01 4.778906e-01 -1.468644e-01 2.113380e-01 -2.034228e-01 1.129542e-01 -1.824123e-01 -8.443914e-02 -2.746864e-01 -3.959691e-01 1.467440e-01 -2.789610e-01 1.573331e-02 1.031215e-01 -2.119071e-01 4.441030e-02 -1.053925e-01 1.033131e-01 -1.781287e-02 1.350059e-01 -9.775655e-04 8.774715e-02 1.374233e-01 -1.341024e-01 1.429520e-01 -2.795531e-03
<VARIANCE> 39
 7.820820e+00 2.551746e+01 1.086077e+01 1.416580e+01 1.502044e+01 1.686316e+01 1.687485e+01 2.065245e+01 2.269700e+01 2.787238e+01 1.382059e+01 9.970271e+00 5.170484e-03 3.984774e-01 3.838367e-01 3.936580e-01 5.979201e-01 5.375038e-01 6.474270e-01 7.418693e-01 9.063847e-01 1.060749e+00 5.763170e-01 7.604918e-01 8.655740e-01 1.900290e-04 6.652303e-02 7.448795e-02 7.991827e-02 1.235631e-01 9.505069e-02 1.105390e-01 1.306717e-01 1.542171e-01 1.444692e-01 1.402579e-01 1.103715e-01 1.081238e-01 2.537325e-05
<GCONST> 4.795871e+01
<MIXTURE> 14 4.290224e-02
<MEAN> 39
 -1.469977e+00 1.090090e+01 -4.386094e+00 -1.746929e+00 -6.465853e+00 -6.761485e+00 -2.348471e+00 -1.646460e+00 -3.759213e+00 -9.829728e-01 -5.591443e+00 3.311962e+00 8.584762e-01 -7.024149e-01 -5.991203e-01 -5.851729e-01 2.566897e-03 -5.000100e-01 -8.839618e-01 -1.349618e+00 -1.442046e+00 -1.114581e+00 -1.128306e+00 -1.038199e+00 -5.463482e-01 2.795963e-02 3.067008e-01 4.207490e-02 2.890658e-01 1.874981e-01 2.434356e-01 3.029044e-01 3.122132e-01 3.457432e-01 4.378999e-01 3.827929e-01 4.538469e-01 1.850499e-01 -9.252554e-03
<VARIANCE> 39
 1.207128e+01 3.157612e+01 1.660210e+01 1.463184e+01 1.430151e+01 1.352537e+01 1.630303e+01 2.134017e+01 1.699275e+01 2.290583e+01 1.836123e+01 2.506776e+01 6.607096e-03 4.000985e-01 4.158642e-01 6.955206e-01 6.417574e-01 9.406089e-01 9.249706e-01 8.552080e-01 1.309555e+00 1.022169e+00 1.431815e+00 2.037763e+00 2.229620e+00 1.851423e-04 6.439272e-02 8.916692e-02 6.623592e-02 1.128875e-01 1.197635e-01 1.424380e-01 1.845449e-01 1.541497e-01 1.737907e-01 2.141029e-01 2.364512e-01 2.902095e-01 4.758642e-05
<GCONST> 5.837057e+01
<MIXTURE> 15 4.324076e-02
<MEAN> 39
 -1.552724e+00 1.050523e+01 -4.111535e+00 -1.798960e+00 -6.124428e+00 -6.507536e+00 -2.186435e+00 -1.432540e+00 -3.679497e+00 -8.199255e-01 -5.189842e+00 3.385198e+00 8.609082e-01 -7.004659e-01 -5.674833e-01 -5.396581e-01 4.125675e-02 -4.410916e-01 -8.421189e-01 -1.321390e+00 -1.407206e+00 -1.093755e+00 -1.050451e+00 -9.435318e-01 -4.684809e-01 2.868745e-02 3.060578e-01 3.123677e-02 2.796003e-01 1.872954e-01 2.225228e-01 2.991433e-01 2.990612e-01 3.322413e-01 4.369829e-01 3.735282e-01 4.316561e-01 1.558765e-01 -9.635380e-03
<VARIANCE> 39
 1.158922e+01 3.267713e+01 1.555912e+01 1.474901e+01 1.498035e+01 1.441398e+01 1.609314e+01 2.086959e+01 1.681849e+01 2.251963e+01 1.861332e+01 2.480668e+01 6.473797e-03 4.144590e-01 3.956701e-01 6.788849e-01 6.329817e-01 9.494451e-01 9.158129e-01 8.795083e-01 1.275285e+00 1.026352e+00 1.343948e+00 1.931946e+00 2.175430e+00 1.992476e-04 6.482013e-02 8.857635e-02 6.452341e-02 1.128491e-01 1.196520e-01 1.399618e-01 1.737073e-01 1.492957e-01 1.697294e-01 2.071993e-01 2.264813e-01 2.848393e-01 5.207832e-05
<GCONST> 5.805653e+01
<MIXTURE> 16 1.701680e-02
<MEAN> 39
 -3.217433e+00 1.460122e+01 -5.645782e+00 -3.759538e+00 -8.549024e+00 -8.625312e+00 -3.843037e+00 -3.206932e+00 -6.689714e+00 -1.063919e+00 -6.076782e+00 4.700388e+00 8.534798e-01 -6.741035e-01 -1.112589e+00 -1.261103e+00 -1.591622e+00 -1.822302e+00 -1.878379e+00 -1.524235e+00 -1.518875e+00 -1.452455e+00 -8.680357e-01 -4.428181e-01 -1.009755e-01 1.639144e-02 1.459025e-01 4.392438e-02 1.605312e-01 -2.345806e-02 2.439796e-01 2.063144e-01 2.495301e-01 1.306260e-01 3.100789e-01 -1.351615e-01 7.494424e-03 -1.092909e-02 -3.511416e-03
<VARIANCE> 39
 1.653492e+00 1.638370e+01 5.110047e+00 1.211787e+01 1.315832e+01 1.238754e+01 3.507272e+01 1.880716e+01 1.314560e+01 1.269627e+01 2.471431e+01 9.458288e+00 3.521545e-03 2.023370e-01 2.275111e-01 3.781907e-01 6.318242e-01 9.400715e-01 2.008972e-01 7.551698e-01 9.284893e-01 1.078328e+00 1.497776e+00 4.956953e-01 5.424802e-01 4.949668e-05 3.224047e-02 8.343844e-02 4.997089e-02 1.567687e-01 2.358207e-01 1.344139e-01 1.880310e-01 1.227651e-01 1.755700e-01 1.842950e-01 1.510007e-01 1.459337e-01 6.156427e-06
<GCONST> 4.109959e+01
<MIXTURE> 17 5.606735e-02
<MEAN> 39
 -3.113841e+00 1.115914e+01 -6.404058e+00 -3.545348e+00 -9.560465e+00 -1.041294e+01 -7.308210e+00 -5.480793e+00 -7.453612e+00 -5.103352e+00 -8.045222e+00 -3.695843e-01 8.820682e-01 -1.038547e-01 -2.772577e-01 -2.437734e-01 9.141089e-02 -2.145360e-01 -1.226300e-01 -6.027543e-01 -5.049619e-01 -4.047112e-01 -5.818374e-01 -3.360745e-01 -2.992568e-01 1.455806e-02 3.190829e-01 2.789028e-01 4.815601e-01 3.226872e-01 5.302806e-01 5.596612e-01 7.054654e-01 6.632559e-01 6.673925e-01 6.786925e-01 6.449267e-01 4.487018e-01 -5.285251e-03
<VARIANCE> 39
 9.915961e+00 2.562728e+01 1.259752e+01 1.373193e+01 7.972567e+00 1.204900e+01 2.559138e+01 2.110436e+01 2.454791e+01 1.459692e+01 2.088871e+01 3.913213e+01 4.969407e-03 2.405059e-01 3.589278e-01 3.553658e-01 6.138081e-01 7.235035e-01 6.008048e-01 8.752505e-01 9.448627e-01 7.744663e-01 1.015360e+00 9.716256e-01 1.310385e+00 9.347577e-05 4.492147e-02 7.936461e-02 5.668864e-02 1.126830e-01 8.814769e-02 9.769225e-02 1.290331e-01 1.873244e-01 1.654255e-01 1.602974e-01 2.269072e-01 2.309785e-01 2.463719e-05
<GCONST> 4.987902e+01
<MIXTURE> 18 2.484380e-02
<MEAN> 39
 -4.437185e-01 1.114036e+01 -3.681786e+00 -1.724818e+00 -6.055413e+00 -4.250331e+00 -2.502825e+00 -2.605592e+00 -4.354051e+00 -2.768888e+00 -2.970338e+00 2.529172e+00 8.307763e-01 5.572141e-02 6.230056e-01 2.907181e-01 8.331283e-01 -1.550779e-02 9.955820e-02 -3.319730e-01 -1.495526e-01 -2.129263e-01 -1.181546e-01 1.392842e-01 7.864847e-01 1.781221e-02 1.007314e-01 -3.005294e-02 8.927447e-02 -9.414302e-02 2.185088e-01 -1.121712e-01 1.027001e-01 3.483605e-01 5.053614e-01 3.307941e-01 1.611274e-01 -1.298053e-01 -2.406507e-03
<VARIANCE> 39
 1.185960e+01 2.993958e+01 2.144620e+01 2.050559e+01 2.500672e+01 3.101217e+01 2.624751e+01 2.480069e+01 2.215766e+01 2.442594e+01 4.332840e+01 3.600862e+01 7.848840e-03 4.212172e-01 6.203117e-01 8.268473e-01 1.082918e+00 1.216216e+00 1.485109e+00 1.671222e+00 1.596255e+00 2.148064e+00 2.295310e+00 2.587708e+00 1.826214e+00 2.395491e-04 8.148841e-02 1.014510e-01 1.539717e-01 2.211152e-01 2.861899e-01 2.731005e-01 2.625391e-01 3.315262e-01 3.350084e-01 2.954543e-01 3.825462e-01 4.106279e-01 5.689229e-05
<GCONST> 7.339417e+01
<MIXTURE> 19 2.485243e-02
<MEAN> 39
 -4.328678e-01 1.114615e+01 -3.683603e+00 -1.728584e+00 -6.069517e+00 -4.266529e+00 -2.512511e+00 -2.610641e+00 -4.359910e+00 -2.769645e+00 -2.976032e+00 2.514843e+00 8.307052e-01 5.713717e-02 6.258250e-01 2.898220e-01 8.328214e-01 -1.737355e-02 9.954190e-02 -3.315929e-01 -1.490586e-01 -2.131090e-01 -1.181739e-01 1.394910e-01 7.864884e-01 1.773771e-02 9.955709e-02 -3.022924e-02 8.931599e-02 -9.464265e-02 2.200117e-01 -1.115811e-01 1.027969e-01 3.483662e-01 5.050865e-01 3.299886e-01 1.608000e-01 -1.296290e-01 -2.373803e-03
<VARIANCE> 39
 1.185319e+01 2.985314e+01 2.150367e+01 2.050478e+01 2.508381e+01 3.099979e+01 2.628974e+01 2.484123e+01 2.218024e+01 2.446705e+01 4.335443e+01 3.599063e+01 7.842288e-03 4.207989e-01 6.213741e-01 8.309468e-01 1.084123e+00 1.219289e+00 1.486913e+00 1.675368e+00 1.599516e+00 2.150501e+00 2.299984e+00 2.587767e+00 1.825326e+00 2.395643e-04 8.110395e-02 1.015178e-01 1.543766e-01 2.210982e-01 2.866091e-01 2.731325e-01 2.632821e-01 3.321619e-01 3.354011e-01 2.958452e-01 3.825820e-01 4.098731e-01 5.654893e-05
<GCONST> 7.341856e+01
<MIXTURE> 20 7.629110e-02
<MEAN> 39
 -5.997574e-02 1.509023e+01 -7.872120e-01 -1.086118e+00 -5.739852e+00 -8.219756e+00 -1.031894e+01 3.661901e+00 -5.548420e+00 3.480248e+00 -2.378295e+00 -3.169832e+00 7.917641e-01 -2.132327e-01 7.899615e-01 1.918238e-01 3.902272e-02 -4.321030e-01 -3.459284e-01 -6.619329e-01 -2.319493e-01 -2.842736e-02 3.293617e-01 -5.996314e-01 -1.328644e-01 1.068508e-02 3.082011e-02 -2.266179e-01 -3.468717e-02 -2.239290e-01 8.503689e-02 2.454672e-01 4.026374e-01 -1.260027e-01 6.393463e-02 -3.108959e-01 1.507024e-01 1.705856e-01 2.956003e-04
<VARIANCE> 39
 8.029007e+00 1.749742e+01 2.359130e+01 1.691773e+01 1.479092e+01 1.831175e+01 2.595031e+01 3.577046e+01 3.553744e+01 2.269988e+01 3.509758e+01 3.744096e+01 4.445773e-03 3.161015e-01 6.290448e-01 6.740507e-01 9.177871e-01 1.146645e+00 1.806999e+00 1.626727e+00 1.464300e+00 1.400627e+00 2.144676e+00 1.462174e+00 1.307408e+00 1.831287e-04 4.227320e-02 6.884488e-02 1.495847e-01 1.868674e-01 2.369106e-01 2.847156e-01 2.986323e-01 2.975554e-01 2.342170e-01 2.623234e-01 2.755659e-01 3.677901e-01 1.318043e-05
<GCONST> 6.529856e+01
<MIXTURE> 21 2.485243e-02
<MEAN> 39
 -4.328678e-01 1.114615e+01 -3.683603e+00 -1.728584e+00 -6.069517e+00 -4.266529e+00 -2.512511e+00 -2.610641e+00 -4.359910e+00 -2.769645e+00 -2.976032e+00 2.514843e+00 8.307052e-01 5.713717e-02 6.258250e-01 2.898220e-01 8.328214e-01 -1.737355e-02 9.954190e-02 -3.315929e-01 -1.490586e-01 -2.131090e-01 -1.181739e-01 1.394910e-01 7.864884e-01 1.773771e-02 9.955709e-02 -3.022924e-02 8.931599e-02 -9.464265e-02 2.200117e-01 -1.115811e-01 1.027969e-01 3.483662e-01 5.050865e-01 3.299886e-01 1.608000e-01 -1.296290e-01 -2.373803e-03
<VARIANCE> 39
 1.185319e+01 2.985314e+01 2.150367e+01 2.050478e+01 2.508381e+01 3.099979e+01 2.628974e+01 2.484123e+01 2.218024e+01 2.446705e+01 4.335443e+01 3.599063e+01 7.842288e-03 4.207989e-01 6.213741e-01 8.309468e-01 1.084123e+00 1.219289e+00 1.486913e+00 1.675368e+00 1.599516e+00 2.150501e+00 2.299984e+00 2.587767e+00 1.825326e+00 2.395643e-04 8.110395e-02 1.015178e-01 1.543766e-01 2.210982e-01 2.866091e-01 2.731325e-01 2.632821e-01 3.321619e-01 3.354011e-01 2.958452e-01 3.825820e-01 4.098731e-01 5.654893e-05
<GCONST> 7.341856e+01
<MIXTURE> 22 6.738736e-02
<MEAN> 39
 3.593271e-01 1.328335e+01 -4.881207e-01 -4.179387e+00 -7.571554e+00 -3.768342e+00 -9.385148e+00 1.362001e+00 -1.684188e+00 -2.648787e+00 2.661568e+00 -3.964216e+00 7.974792e-01 -8.740833e-01 5.446273e-01 -8.413434e-02 -4.585286e-02 -1.934463e-01 -9.340372e-03 -1.116170e-01 2.219138e-02 -9.251236e-02 -3.670980e-01 1.982304e-01 -2.697808e-01 4.804378e-02 -1.430468e-01 -5.981749e-01 8.215518e-02 4.772395e-01 4.402480e-01 2.904323e-01 5.486291e-01 -5.251674e-02 1.604716e-01 1.631087e-01 -1.166691e-01 4.464696e-01 -2.597353e-02
<VARIANCE> 39
 9.771103e+00 4.879461e+01 2.182941e+01 2.003289e+01 3.510524e+01 3.405043e+01 4.301759e+01 3.271325e+01 2.536959e+01 2.996000e+01 2.784209e+01 2.237206e+01 1.423394e-02 7.916796e-01 1.242750e+00 1.455093e+00 1.684215e+00 1.267083e+00 1.489786e+00 1.146619e+00 2.285687e+00 1.968567e+00 1.685659e+00 1.712993e+00 2.413798e+00 5.771191e-04 1.781535e-01 2.538368e-01 2.173508e-01 2.126262e-01 3.396952e-01 3.322626e-01 3.399636e-01 3.655102e-01 2.525651e-01 2.715790e-01 3.626170e-01 2.976623e-01 3.690956e-04
<GCONST> 8.146869e+01
<MIXTURE> 23 2.841623e-02
<MEAN> 39
 -8.535253e-01 1.406753e+01 -1.135691e+00 -1.603391e+00 -6.546339e+00 -5.737938e+00 -7.516707e+00 4.075808e+00 -3.399830e-01 2.096553e+00 2.988636e+00 -3.207997e+00 8.194055e-01 -2.139509e-01 6.279776e-01 2.211134e-01 4.651192e-01 -1.635959e-01 1.349487e-01 -3.237515e-01 3.132371e-02 -9.438431e-02 2.307319e-01 -4.580308e-01 -2.373872e-01 1.630942e-02 4.997844e-02 -2.731527e-01 -3.247493e-02 -1.064416e-01 1.641890e-01 1.334506e-01 1.987691e-01 -2.821150e-01 -5.724712e-02 -2.274584e-01 -1.536704e-01 1.314981e-01 -3.282753e-03
<VARIANCE> 39
 1.192761e+01 2.996445e+01 2.546366e+01 2.537636e+01 1.917018e+01 2.600510e+01 6.149269e+01 3.489194e+01 1.007022e+02 7.351821e+01 5.118667e+01 4.756097e+01 9.195276e-03 6.072854e-01 1.368382e+00 8.812154e-01 1.828636e+00 1.834233e+00 1.340404e+00 1.897312e+00 1.456989e+00 1.385653e+00 2.129582e+00 1.556656e+00 1.291915e+00 2.886166e-04 9.423485e-02 1.735035e-01 1.603626e-01 2.503963e-01 2.185042e-01 3.232657e-01 3.449895e-01 3.919538e-01 5.170848e-01 4.832602e-01 3.871804e-01 3.767405e-01 4.336203e-05
<GCONST> 8.042947e+01
<MIXTURE> 24 1.072974e-01
<MEAN> 39
 1.421882e+00 1.343930e+01 -2.631975e+00 -7.301595e-01 -4.878783e+00 -4.301596e+00 1.068866e+00 8.672383e-01 -4.066571e-01 9.491268e-01 -3.730506e+00 4.931632e+00 7.976288e-01 -9.578518e-01 -5.633786e-01 -9.137801e-01 -3.775517e-01 -9.136486e-01 -1.163074e+00 -1.570960e+00 -1.393075e+00 -1.291686e+00 -1.530734e+00 -1.331660e+00 -7.433176e-01 3.509646e-02 -1.146193e-01 -3.086969e-01 -9.570265e-02 -7.222034e-02 -2.298144e-02 -1.806433e-01 -2.099725e-01 -2.171703e-01 -1.686186e-01 -8.283009e-02 -2.577314e-02 -1.430088e-01 -4.668854e-03
<VARIANCE> 39
 1.441346e+01 2.598394e+01 1.318051e+01 1.265330e+01 9.970723e+00 1.161641e+01 1.403561e+01 2.795962e+01 1.595494e+01 2.502922e+01 1.688321e+01 1.883059e+01 6.787754e-03 4.895664e-01 4.594879e-01 5.461767e-01 7.637727e-01 8.895681e-01 1.190905e+00 1.038488e+00 1.089693e+00 1.322002e+00 1.508917e+00 1.795333e+00 2.039586e+00 3.000297e-04 9.257222e-02 8.367953e-02 1.167435e-01 1.504547e-01 2.013937e-01 1.581336e-01 2.016556e-01 2.278607e-01 2.172136e-01 1.911978e-01 2.547369e-01 2.460924e-01 4.688973e-05
<GCONST> 6.054691e+01
<MIXTURE> 25 2.484652e-02
<MEAN> 39
 -4.396051e-01 1.114646e+01 -3.683466e+00 -1.728005e+00 -6.058945e+00 -4.259877e+00 -2.504405e+00 -2.605002e+00 -4.358523e+00 -2.767421e+00 -2.977379e+00 2.524544e+00 8.306827e-01 5.649193e-02 6.242284e-01 2.903236e-01 8.333114e-01 -1.581051e-02 9.916529e-02 -3.321193e-01 -1.496833e-01 -2.118544e-01 -1.176654e-01 1.389268e-01 7.864574e-01 1.778564e-02 1.001524e-01 -3.000422e-02 8.917686e-02 -9.430331e-02 2.188344e-01 -1.118817e-01 1.023884e-01 3.480902e-01 5.049790e-01 3.301046e-01 1.612170e-01 -1.300710e-01 -2.389391e-03
<VARIANCE> 39
 1.184998e+01 2.989845e+01 2.145008e+01 2.050771e+01 2.501711e+01 3.098166e+01 2.625937e+01 2.480312e+01 2.214705e+01 2.441263e+01 4.330000e+01 3.599570e+01 7.852650e-03 4.207036e-01 6.203008e-01 8.280130e-01 1.083132e+00 1.217055e+00 1.485066e+00 1.672222e+00 1.595882e+00 2.146877e+00 2.295406e+00 2.587114e+00 1.825474e+00 2.394760e-04 8.125831e-02 1.014340e-01 1.539863e-01 2.210131e-01 2.861458e-01 2.728560e-01 2.627141e-01 3.311820e-01 3.347821e-01 2.953010e-01 3.821856e-01 4.101773e-01 5.672936e-05
<GCONST> 7.337972e+01
<STATE> 4
<NUMMIXES> 25
<MIXTURE> 1 6.363023e-02
<MEAN> 39
 -2.365739e+00 1.009072e+01 -5.978862e+00 -2.324086e+00 -8.262721e+00 -8.058747e+00 -5.420216e+00 -5.283738e+00 -5.798634e+00 -2.527178e+00 -5.558160e+00 2.383254e+00 9.054126e-01 3.310429e-01 2.876029e-01 4.277236e-01 5.508010e-01 5.583178e-01 6.775492e-01 4.797312e-01 4.494826e-01 3.443779e-01 3.726819e-01 6.444675e-01 4.825577e-01 7.681145e-03 1.346806e-01 1.890600e-01 2.382448e-01 1.553449e-01 3.024249e-01 2.741353e-01 3.998029e-01 4.193799e-01 3.185335e-01 2.516408e-01 2.389685e-01 1.273293e-01 -3.645172e-03
<VARIANCE> 39
 1.136860e+01 2.700691e+01 9.839413e+00 1.737248e+01 1.005468e+01 1.384701e+01 1.566764e+01 1.718205e+01 2.002633e+01 2.103154e+01 2.746282e+01 3.675166e+01 6.994981e-03 1.638298e-01 2.658526e-01 2.708704e-01 4.714326e-01 4.801495e-01 6.355600e-01 7.652410e-01 5.649517e-01 4.969948e-01 6.185685e-01 7.012488e-01 6.963116e-01 5.203288e-05 2.692859e-02 3.310233e-02 6.224133e-02 9.165705e-02 9.811138e-02 1.071663e-01 1.011459e-01 1.124897e-01 1.192377e-01 1.340966e-01 2.016110e-01 1.329164e-01 6.939531e-06
<GCONST> 4.124339e+01
<MIXTURE> 2 4.909601e-02
<MEAN> 39
 -1.403662e+00 1.415375e+01 -1.371824e+00 -1.998608e+00 -6.297504e+00 -4.228402e+00 -7.095926e+00 -4.467361e-01 -2.993438e+00 -2.736990e+00 9.691060e-01 -4.224817e-01 8.779972e-01 8.703347e-02 2.460992e-01 1.340955e-01 3.299188e-01 2.156889e-01 8.071227e-02 2.096808e-01 1.305111e-01 3.720635e-01 6.204927e-02 6.899087e-02 1.856586e-01 9.152573e-03 7.004427e-02 -9.531493e-02 3.173986e-02 -2.803090e-02 9.528394e-02 -7.307468e-02 4.886005e-02 1.056770e-01 1.613824e-01 1.345004e-01 1.976808e-03 -5.828711e-02 -3.399101e-03
<VARIANCE> 39
 1.151534e+01 3.334847e+01 2.062742e+01 1.218621e+01 2.268399e+01 3.212308e+01 4.361136e+01 2.971981e+01 3.176789e+01 3.708958e+01 4.610580e+01 5.389838e+01 4.450936e-03 2.249063e-01 4.369152e-01 6.675231e-01 6.804900e-01 8.515064e-01 8.454412e-01 1.159298e+00 1.179200e+00 1.180455e+00 9.897906e-01 1.298380e+00 1.125609e+00 5.556448e-05 3.974412e-02 6.514542e-02 8.294965e-02 9.255029e-02 1.466230e-01 1.452931e-01 1.801887e-01 2.025082e-01 2.202793e-01 1.529748e-01 2.228367e-01 2.052050e-01 1.190546e-05
<GCONST> 5.820077e+01
<MIXTURE> 3 4.473641e-02
<MEAN> 39
 -1.436886e+00 1.389500e+01 -1.686632e+00 -1.983084e+00 -6.382364e+00 -4.621756e+00 -6.112587e+00 -1.167997e+00 -2.329914e+00 -2.846812e+00 1.169944e+00 6.152238e-01 8.774067e-01 1.137710e-01 3.183318e-01 1.284120e-01 3.748309e-01 2.515688e-01 1.196274e-01 2.133863e-01 1.523196e-01 3.747227e-01 5.278105e-02 1.711960e-01 2.425689e-01 9.087346e-03 7.387625e-02 -9.336399e-02 3.069759e-02 -4.003668e-02 1.024003e-01 -5.139822e-02 3.885935e-02 1.180382e-01 1.523666e-01 1.514932e-01 -3.070002e-02 -7.977813e-02 -3.361735e-03
<VARIANCE> 39
 1.284654e+01 3.605770e+01 2.544356e+01 1.259343e+01 2.234750e+01 3.249187e+01 4.497771e+01 2.929190e+01 3.339136e+01 4.443215e+01 5.206126e+01 6.595127e+01 4.929345e-03 2.538924e-01 4.484732e-01 7.337258e-01 7.400530e-01 9.501069e-01 9.277493e-01 1.262474e+00 1.226816e+00 1.165561e+00 1.087758e+00 1.313131e+00 1.250277e+00 6.127222e-05 4.164779e-02 6.637705e-02 8.959685e-02 1.019978e-01 1.523013e-01 1.578195e-01 1.913934e-01 2.073214e-01 2.289762e-01 1.651072e-01 2.541040e-01 2.322220e-01 1.311431e-05
<GCONST> 6.115968e+01
<MIXTURE> 4 1.970568e-02
<MEAN> 39
 -1.082809e+00 1.159326e+01 -2.503072e+00 3.913546e-02 -3.736764e+00 -4.790979e+00 -5.679038e+00 -1.794120e-01 -5.036070e+00 -6.269058e-01 -1.073133e+00 3.595168e+00 9.145094e-01 1.066342e-01 2.507718e-01 1.757679e-01 3.113726e-01 2.938105e-01 1.720935e-01 9.530236e-02 1.973079e-01 2.418369e-01 1.203817e-01 6.146980e-02 1.400001e-01 4.389507e-03 -1.793086e-02 -6.896871e-02 -4.264921e-02 -1.077390e-01 -6.908501e-02 -6.993622e-02 4.859812e-03 -3.176997e-02 7.138428e-02 -5.376267e-04 4.572026e-03 -1.268529e-01 -2.266801e-03
<VARIANCE> 39
 9.711114e+00 3.162647e+01 7.852679e+00 1.444838e+01 1.150473e+01 2.004485e+01 2.377549e+01 2.768172e+01 1.944749e+01 1.948627e+01 3.324461e+01 3.803929e+01 3.449332e-03 9.881360e-02 1.354939e-01 2.027289e-01 3.086141e-01 4.065252e-01 3.456011e-01 3.537814e-01 4.249597e-01 3.569107e-01 3.828551e-01 3.356420e-01 4.606256e-01 3.835837e-05 1.498232e-02 2.867831e-02 3.794489e-02 4.860589e-02 6.808800e-02 5.844837e-02 6.070887e-02 7.334606e-02 7.484020e-02 7.662353e-02 7.524481e-02 6.938839e-02 4.760851e-06
<GCONST> 2.884800e+01
<MIXTURE> 5 4.473641e-02
<MEAN> 39
 -1.436886e+00 1.389500e+01 -1.686632e+00 -1.983084e+00 -6.382364e+00 -4.621756e+00 -6.112587e+00 -1.167997e+00 -2.329914e+00 -2.846812e+00 1.169944e+00 6.152238e-01 8.774067e-01 1.137710e-01 3.183318e-01 1.284120e-01 3.748309e-01 2.515688e-01 1.196274e-01 2.133863e-01 1.523196e-01 3.747227e-01 5.278105e-02 1.711960e-01 2.425689e-01 9.087346e-03 7.387625e-02 -9.336399e-02 3.069759e-02 -4.003668e-02 1.024003e-01 -5.139822e-02 3.885935e-02 1.180382e-01 1.523666e-01 1.514932e-01 -3.070002e-02 -7.977813e-02 -3.361735e-03
<VARIANCE> 39
 1.284654e+01 3.605770e+01 2.544356e+01 1.259343e+01 2.234750e+01 3.249187e+01 4.497771e+01 2.929190e+01 3.339136e+01 4.443215e+01 5.206126e+01 6.595127e+01 4.929345e-03 2.538924e-01 4.484732e-01 7.337258e-01 7.400530e-01 9.501069e-01 9.277493e-01 1.262474e+00 1.226816e+00 1.165561e+00 1.087758e+00 1.313131e+00 1.250277e+00 6.127222e-05 4.164779e-02 6.637705e-02 8.959685e-02 1.019978e-01 1.523013e-01 1.578195e-01 1.913934e-01 2.073214e-01 2.289762e-01 1.651072e-01 2.541040e-01 2.322220e-01 1.311431e-05
<GCONST> 6.115968e+01
<MIXTURE> 6 1.969335e-02
<MEAN> 39
 -1.105773e+00 1.154064e+01 -2.510217e+00 3.992087e-02 -3.738195e+00 -4.776490e+00 -5.638526e+00 -2.075835e-01 -5.006445e+00 -6.275796e-01 -1.076920e+00 3.649091e+00 9.149521e-01 1.084243e-01 2.515928e-01 1.786638e-01 3.128285e-01 2.968443e-01 1.752284e-01 1.003268e-01 1.996918e-01 2.449269e-01 1.233334e-01 6.398308e-02 1.405339e-01 4.369013e-03 -1.835521e-02 -6.824905e-02 -4.278458e-02 -1.073709e-01 -6.909530e-02 -7.021425e-02 5.088006e-03 -3.187989e-02 7.040357e-02 -9.134941e-04 3.550557e-03 -1.260795e-01 -2.258444e-03
<VARIANCE> 39
 9.826684e+00 3.149812e+01 7.865616e+00 1.442276e+01 1.144615e+01 2.000628e+01 2.372540e+01 2.757642e+01 1.945800e+01 1.949059e+01 3.333223e+01 3.833362e+01 3.444314e-03 9.900466e-02 1.351321e-01 2.033407e-01 3.076901e-01 4.071843e-01 3.464354e-01 3.526988e-01 4.236147e-01 3.548783e-01 3.812780e-01 3.357106e-01 4.588492e-01 3.831453e-05 1.496654e-02 2.858129e-02 3.785345e-02 4.848653e-02 6.774889e-02 5.834668e-02 6.044042e-02 7.316222e-02 7.446931e-02 7.618283e-02 7.470369e-02 6.909779e-02 4.748443e-06
<GCONST> 2.878704e+01
<MIXTURE> 7 1.969335e-02
<MEAN> 39
 -1.105773e+00 1.154064e+01 -2.510217e+00 3.992087e-02 -3.738195e+00 -4.776490e+00 -5.638526e+00 -2.075835e-01 -5.006445e+00 -6.275796e-01 -1.076920e+00 3.649091e+00 9.149521e-01 1.084243e-01 2.515928e-01 1.786638e-01 3.128285e-01 2.968443e-01 1.752284e-01 1.003268e-01 1.996918e-01 2.449269e-01 1.233334e-01 6.398308e-02 1.405339e-01 4.369013e-03 -1.835521e-02 -6.824905e-02 -4.278458e-02 -1.073709e-01 -6.909530e-02 -7.021425e-02 5.088006e-03 -3.187989e-02 7.040357e-02 -9.134941e-04 3.550557e-03 -1.260795e-01 -2.258444e-03
<VARIANCE> 39
 9.826684e+00 3.149812e+01 7.865616e+00 1.442276e+01 1.144615e+01 2.000628e+01 2.372540e+01 2.757642e+01 1.945800e+01 1.949059e+01 3.333223e+01 3.833362e+01 3.444314e-03 9.900466e-02 1.351321e-01 2.033407e-01 3.076901e-01 4.071843e-01 3.464354e-01 3.526988e-01 4.236147e-01 3.548783e-01 3.812780e-01 3.357106e-01 4.588492e-01 3.831453e-05 1.496654e-02 2.858129e-02 3.785345e-02 4.848653e-02 6.774889e-02 5.834668e-02 6.044042e-02 7.316222e-02 7.446931e-02 7.618283e-02 7.470369e-02 6.909779e-02 4.748443e-06
<GCONST> 2.878704e+01
<MIXTURE> 8 3.378752e-02
<MEAN> 39
 -4.002835e-01 1.359301e+01 -4.555764e+00 -2.230803e+00 -5.294723e+00 -8.426138e+00 -3.947966e+00 2.617649e-03 -4.947441e+00 -1.809154e+00 -5.575212e+00 1.627647e+00 8.190192e-01 1.597235e-02 -9.946746e-03 -1.043078e-01 -6.046622e-02 2.826707e-02 -1.036632e-02 1.088301e-01 -1.519786e-01 6.345075e-02 -1.084352e-01 -2.213950e-02 -3.127417e-02 -2.593699e-05 -1.256263e-03 -1.210248e-02 1.449349e-04 -2.647057e-02 -8.652984e-04 -4.988988e-03 -4.354992e-03 -8.068639e-03 3.445295e-02 1.399856e-02 1.829799e-02 -3.778707e-02 -8.472508e-04
<VARIANCE> 39
 3.856885e+00 6.968343e+00 1.072258e+01 1.482057e+01 1.805213e+01 2.013664e+01 2.491291e+01 2.132000e+01 3.009433e+01 2.882815e+01 1.225985e+01 1.765907e+01 8.979758e-03 4.056619e-02 7.897646e-02 1.140424e-01 2.015021e-01 2.090553e-01 2.730030e-01 2.276811e-01 2.902823e-01 2.717199e-01 1.835206e-01 2.136631e-01 2.533976e-01 3.754082e-05 8.714627e-03 1.230448e-02 1.966502e-02 3.093941e-02 3.286775e-02 4.983909e-02 3.887060e-02 4.809691e-02 5.291367e-02 3.515724e-02 4.001356e-02 4.753230e-02 3.730629e-06
<GCONST> 1.414449e+01
<MIXTURE> 9 4.473641e-02
<MEAN> 39
 -1.436886e+00 1.389500e+01 -1.686632e+00 -1.983084e+00 -6.382364e+00 -4.621756e+00 -6.112587e+00 -1.167997e+00 -2.329914e+00 -2.846812e+00 1.169944e+00 6.152238e-01 8.774067e-01 1.137710e-01 3.183318e-01 1.284120e-01 3.748309e-01 2.515688e-01 1.196274e-01 2.133863e-01 1.523196e-01 3.747227e-01 5.278105e-02 1.711960e-01 2.425689e-01 9.087346e-03 7.387625e-02 -9.336399e-02 3.069759e-02 -4.003668e-02 1.024003e-01 -5.139822e-02 3.885935e-02 1.180382e-01 1.523666e-01 1.514932e-01 -3.070002e-02 -7.977813e-02 -3.361735e-03
<VARIANCE> 39
 1.284654e+01 3.605770e+01 2.544356e+01 1.259343e+01 2.234750e+01 3.249187e+01 4.497771e+01 2.929190e+01 3.339136e+01 4.443215e+01 5.206126e+01 6.595127e+01 4.929345e-03 2.538924e-01 4.484732e-01 7.337258e-01 7.400530e-01 9.501069e-01 9.277493e-01 1.262474e+00 1.226816e+00 1.165561e+00 1.087758e+00 1.313131e+00 1.250277e+00 6.127222e-05 4.164779e-02 6.637705e-02 8.959685e-02 1.019978e-01 1.523013e-01 1.578195e-01 1.913934e-01 2.073214e-01 2.289762e-01 1.651072e-01 2.541040e-01 2.322220e-01 1.311431e-05
<GCONST> 6.115968e+01
<MIXTURE> 10 8.483955e-02
<MEAN> 39
 -2.830541e+00 1.518953e+01 6.202745e-02 -2.292816e+00 -3.826292e+00 -4.935449e+00 -7.692138e+00 -1.182914e-01 -9.691167e-01 -3.297918e+00 4.896444e+00 -1.386933e+00 8.891430e-01 1.032595e-02 2.875177e-02 -2.738201e-02 -9.387526e-02 7.205435e-02 -3.430973e-02 3.430435e-02 -2.519383e-02 1.903727e-02 2.675169e-02 -2.254531e-02 1.576454e-02 3.978233e-04 1.738282e-02 -3.019063e-02 1.114091e-02 -2.235747e-02 9.050968e-03 -9.209180e-03 1.038171e-02 1.289769e-02 1.355519e-02 1.930147e-02 -1.090790e-02 2.468807e-02 -1.069688e-03
<VARIANCE> 39
 8.134535e+00 3.854001e+01 8.086599e+00 6.809495e+00 7.804650e+00 1.197716e+01 2.030499e+01 1.338572e+01 1.853428e+01 2.701146e+01 1.759768e+01 2.620745e+01 5.682059e-03 5.346123e-02 8.202931e-02 9.403441e-02 1.218958e-01 1.339239e-01 1.413664e-01 1.566409e-01 1.842021e-01 1.919744e-01 2.045752e-01 1.325826e-01 1.618067e-01 3.754082e-05 7.609609e-03 1.675186e-02 1.601891e-02 1.864402e-02 2.580897e-02 2.170928e-02 2.543718e-02 3.153939e-02 3.393038e-02 3.205715e-02 2.227699e-02 2.919400e-02 3.730629e-06
<GCONST> 5.716316e+00
<MIXTURE> 11 8.476361e-02
<MEAN> 39
 -2.828583e+00 1.514601e+01 4.947416e-02 -2.293075e+00 -3.811873e+00 -4.936435e+00 -7.649711e+00 -1.211157e-01 -9.667533e-01 -3.247999e+00 4.895933e+00 -1.321483e+00 8.895385e-01 1.075296e-02 2.838152e-02 -2.725219e-02 -9.375002e-02 7.211939e-02 -3.342280e-02 3.424872e-02 -2.443161e-02 1.900454e-02 2.659621e-02 -2.238977e-02 1.528061e-02 3.769686e-04 1.731940e-02 -2.995668e-02 1.114739e-02 -2.217269e-02 8.997995e-03 -9.350721e-03 1.022003e-02 1.320528e-02 1.359495e-02 1.905621e-02 -1.097000e-02 2.430403e-02 -1.064497e-03
<VARIANCE> 39
 8.101775e+00 3.861676e+01 8.063732e+00 6.779675e+00 7.795525e+00 1.195829e+01 2.051436e+01 1.332213e+01 1.863577e+01 2.721411e+01 1.775722e+01 2.681532e+01 5.683165e-03 5.316816e-02 8.193333e-02 9.377715e-02 1.217579e-01 1.334608e-01 1.410686e-01 1.566323e-01 1.834146e-01 1.907661e-01 2.042072e-01 1.323238e-01 1.614317e-01 3.754082e-05 7.546938e-03 1.672093e-02 1.597324e-02 1.859487e-02 2.570295e-02 2.163000e-02 2.538463e-02 3.141630e-02 3.375892e-02 3.196687e-02 2.223397e-02 2.914075e-02 3.730629e-06
<GCONST> 5.681013e+00
<MIXTURE> 12 2.263956e-02
<MEAN> 39
 -2.912755e+00 1.004433e+01 -2.810796e+00 -9.770467e-01 -4.939294e+00 -4.785680e+00 -2.563352e+00 -6.965710e-01 -1.298690e+00 9.039052e-01 1.608181e+00 9.391339e+00 9.246765e-01 -1.653620e-01 -4.705923e-01 -4.624938e-01 -3.054633e-01 -3.767846e-01 -6.111853e-01 -4.921250e-01 -4.433363e-01 -2.586114e-01 -2.464828e-01 -1.244625e-01 -1.450711e-01 4.962817e-03 -1.589404e-02 -1.863745e-02 -3.618583e-02 -9.087545e-02 -8.650174e-02 -4.812349e-02 8.947291e-03 -3.452181e-02 -2.519987e-02 -2.730446e-02 -1.054086e-01 -1.575600e-01 -2.409965e-03
<VARIANCE> 39
 1.697890e+01 1.758879e+01 1.141919e+01 1.118621e+01 1.576526e+01 2.451771e+01 1.692098e+01 1.102715e+01 3.448916e+01 3.968471e+01 5.621482e+01 5.208157e+01 4.311833e-03 1.137277e-01 1.320806e-01 2.181856e-01 2.759972e-01 3.221862e-01 3.637868e-01 3.306374e-01 3.983070e-01 3.243649e-01 2.686533e-01 5.919979e-01 6.611555e-01 4.472202e-05 2.238714e-02 2.318307e-02 3.897842e-02 3.811758e-02 6.995665e-02 6.080440e-02 5.675234e-02 7.146381e-02 6.710611e-02 6.373076e-02 1.106868e-01 7.365882e-02 4.099636e-06
<GCONST> 3.088577e+01
<MIXTURE> 13 8.487911e-02
<MEAN> 39
 -2.850845e+00 1.518717e+01 7.852768e-02 -2.290176e+00 -3.841352e+00 -4.928236e+00 -7.693297e+00 -1.180056e-01 -9.518935e-01 -3.329566e+00 4.901422e+00 -1.398998e+00 8.894170e-01 1.015253e-02 2.892396e-02 -2.731069e-02 -9.321748e-02 7.227263e-02 -3.457034e-02 3.420708e-02 -2.508054e-02 1.862374e-02 2.757069e-02 -2.273642e-02 1.572299e-02 3.969799e-04 1.743291e-02 -3.024598e-02 1.098217e-02 -2.232915e-02 9.251169e-03 -9.062603e-03 1.039638e-02 1.255963e-02 1.336461e-02 1.948244e-02 -1.088959e-02 2.497535e-02 -1.072354e-03
<VARIANCE> 39
 8.235533e+00 3.848733e+01 8.134743e+00 6.845024e+00 7.836284e+00 1.198763e+01 2.025001e+01 1.344818e+01 1.845825e+01 2.712874e+01 1.755846e+01 2.613028e+01 5.682385e-03 5.373457e-02 8.220603e-02 9.412239e-02 1.218101e-01 1.343859e-01 1.413716e-01 1.563622e-01 1.842701e-01 1.926452e-01 2.045180e-01 1.324807e-01 1.623050e-01 3.754082e-05 7.666507e-03 1.681240e-02 1.605758e-02 1.862706e-02 2.589282e-02 2.172557e-02 2.541632e-02 3.158949e-02 3.402256e-02 3.209040e-02 2.226077e-02 2.932441e-02 3.730629e-06
<GCONST> 5.780243e+00
<MIXTURE> 14 2.263956e-02
<MEAN> 39
 -2.912755e+00 1.004433e+01 -2.810796e+00 -9.770467e-01 -4.939294e+00 -4.785680e+00 -2.563352e+00 -6.965710e-01 -1.298690e+00 9.039052e-01 1.608181e+00 9.391339e+00 9.246765e-01 -1.653620e-01 -4.705923e-01 -4.624938e-01 -3.054633e-01 -3.767846e-01 -6.111853e-01 -4.921250e-01 -4.433363e-01 -2.586114e-01 -2.464828e-01 -1.244625e-01 -1.450711e-01 4.962817e-03 -1.589404e-02 -1.863745e-02 -3.618583e-02 -9.087545e-02 -8.650174e-02 -4.812349e-02 8.947291e-03 -3.452181e-02 -2.519987e-02 -2.730446e-02 -1.054086e-01 -1.575600e-01 -2.409965e-03
<VARIANCE> 39
 1.697890e+01 1.758879e+01 1.141919e+01 1.118621e+01 1.576526e+01 2.451771e+01 1.692098e+01 1.102715e+01 3.448916e+01 3.968471e+01 5.621482e+01 5.208157e+01 4.311833e-03 1.137277e-01 1.320806e-01 2.181856e-01 2.759972e-01 3.221862e-01 3.637868e-01 3.306374e-01 3.983070e-01 3.243649e-01 2.686533e-01 5.919979e-01 6.611555e-01 4.472202e-05 2.238714e-02 2.318307e-02 3.897842e-02 3.811758e-02 6.995665e-02 6.080440e-02 5.675234e-02 7.146381e-02 6.710611e-02 6.373076e-02 1.106868e-01 7.365882e-02 4.099636e-06
<GCONST> 3.088577e+01
<MIXTURE> 15 2.269357e-02
<MEAN> 39
 -2.916203e+00 1.001427e+01 -2.854930e+00 -1.032579e+00 -4.992573e+00 -4.797651e+00 -2.562835e+00 -6.892508e-01 -1.251055e+00 9.569234e-01 1.588448e+00 9.356973e+00 9.249766e-01 -1.610770e-01 -4.697732e-01 -4.622338e-01 -3.024619e-01 -3.797007e-01 -6.165464e-01 -4.963447e-01 -4.441640e-01 -2.595727e-01 -2.498364e-01 -1.281353e-01 -1.445964e-01 5.064835e-03 -1.377027e-02 -1.689431e-02 -3.399061e-02 -8.754594e-02 -8.312906e-02 -4.324318e-02 1.143400e-02 -3.228670e-02 -2.508580e-02 -2.691441e-02 -1.043860e-01 -1.563916e-01 -2.446491e-03
<VARIANCE> 39
 1.692023e+01 1.783732e+01 1.150128e+01 1.123032e+01 1.557310e+01 2.423886e+01 1.704979e+01 1.104084e+01 3.564466e+01 4.054530e+01 5.629809e+01 5.182528e+01 4.281701e-03 1.171548e-01 1.336046e-01 2.204274e-01 2.771346e-01 3.211846e-01 3.711087e-01 3.355340e-01 4.015984e-01 3.234552e-01 2.687178e-01 5.964029e-01 6.626288e-01 4.528589e-05 2.267869e-02 2.310900e-02 3.949143e-02 3.791815e-02 6.988387e-02 6.167693e-02 5.694021e-02 7.141490e-02 6.761755e-02 6.486251e-02 1.109631e-01 7.341108e-02 4.147564e-06
<GCONST> 3.112068e+01
<MIXTURE> 16 7.057934e-02
<MEAN> 39
 -1.985083e+00 2.537333e+00 -1.377037e+00 -1.995978e-01 -9.943267e-01 -9.155961e-01 -1.011443e+00 -4.720586e-01 -4.607054e-01 -1.865664e+00 -1.151384e+00 7.885462e-01 9.798903e-01 -7.997178e-03 -3.987976e-02 -3.089745e-02 1.362022e-02 -4.040514e-03 -8.947372e-03 -9.274467e-03 -1.763955e-02 -3.666337e-02 -5.672703e-02 1.252064e-02 -1.466101e-01 -8.268172e-06 -3.751985e-03 -2.449615e-02 -1.268230e-04 -5.564181e-02 -4.081178e-02 -3.413377e-02 -8.272977e-03 1.002322e-02 -3.334833e-02 -7.971922e-03 -1.540851e-02 -4.499746e-02 -9.979149e-04
<VARIANCE> 39
 2.139803e+00 3.008281e+00 2.839317e+00 5.197035e+00 4.445586e+00 5.303145e+00 9.304932e+00 2.092782e+00 4.430679e+00 3.032742e+00 9.764697e+00 4.717563e+00 8.178990e-04 6.493045e-02 9.078243e-02 1.666005e-01 1.688792e-01 2.391713e-01 2.933981e-01 3.060566e-01 2.158412e-01 2.411218e-01 2.111646e-01 1.475069e-01 2.152282e-01 3.754082e-05 7.933930e-03 1.079665e-02 2.159872e-02 1.710822e-02 2.994883e-02 4.111626e-02 5.666765e-02 2.310857e-02 2.924183e-02 3.394936e-02 2.875533e-02 3.765396e-02 3.730629e-06
<GCONST> -5.864918e+00
<MIXTURE> 17 3.379177e-02
<MEAN> 39
 -1.499347e+00 1.163376e+01 -3.494721e+00 -3.040299e+00 -5.509837e+00 -4.969075e+00 -4.987784e+00 -1.871070e+00 2.016399e-01 -7.341607e-01 2.822791e+00 3.981911e-01 8.637491e-01 -3.061503e-01 3.265778e-01 1.114691e-01 4.552897e-01 1.849760e-01 3.879229e-01 5.053759e-01 -6.891125e-02 9.870709e-02 3.446501e-01 7.869483e-01 7.005527e-01 2.020542e-02 1.630253e-01 -1.100782e-01 1.512944e-01 1.161680e-01 1.862983e-01 1.243415e-01 2.038317e-01 1.521298e-01 1.531114e-01 1.152852e-01 -1.042280e-01 -2.102137e-02 -7.940043e-03
<VARIANCE> 39
 1.246998e+01 4.673310e+01 3.213477e+01 2.437123e+01 3.334317e+01 3.014682e+01 3.966893e+01 4.645010e+01 5.415819e+01 6.258935e+01 3.774918e+01 6.537111e+01 1.105072e-02 6.415308e-01 1.206010e+00 1.778346e+00 1.511680e+00 2.085653e+00 2.192048e+00 2.454670e+00 2.122511e+00 2.033982e+00 2.539951e+00 2.938560e+00 4.469041e+00 2.304861e-04 1.146344e-01 1.858582e-01 2.036562e-01 2.736550e-01 3.355167e-01 2.049725e-01 2.851361e-01 4.091705e-01 3.466873e-01 2.931817e-01 2.903887e-01 3.878575e-01 1.349852e-04
<GCONST> 8.537759e+01
<MIXTURE> 18 1.968800e-02
<MEAN> 39
 -1.108807e+00 1.154159e+01 -2.504732e+00 3.245541e-02 -3.737319e+00 -4.781713e+00 -5.632159e+00 -2.050584e-01 -5.003268e+00 -6.280092e-01 -1.070965e+00 3.646267e+00 9.149309e-01 1.083994e-01 2.517530e-01 1.783793e-01 3.133519e-01 2.972464e-01 1.755295e-01 1.000846e-01 1.996028e-01 2.444265e-01 1.228956e-01 6.443098e-02 1.417046e-01 4.374675e-03 -1.824518e-02 -6.856027e-02 -4.307005e-02 -1.074581e-01 -6.893755e-02 -7.017148e-02 4.720034e-03 -3.230764e-02 7.017146e-02 -1.007940e-03 3.474713e-03 -1.262596e-01 -2.259186e-03
<VARIANCE> 39
 9.823339e+00 3.150113e+01 7.866265e+00 1.441002e+01 1.146252e+01 2.002531e+01 2.372733e+01 2.753945e+01 1.948091e+01 1.951612e+01 3.336082e+01 3.834512e+01 3.448194e-03 9.892782e-02 1.352174e-01 2.033534e-01 3.078451e-01 4.076800e-01 3.464264e-01 3.531833e-01 4.234120e-01 3.554325e-01 3.815256e-01 3.361778e-01 4.589001e-01 3.835718e-05 1.497496e-02 2.861094e-02 3.783121e-02 4.850367e-02 6.783909e-02 5.841807e-02 6.049594e-02 7.320858e-02 7.451113e-02 7.622064e-02 7.479793e-02 6.907617e-02 4.749355e-06
<GCONST> 2.880686e+01
<MIXTURE> 19 1.970644e-02
<MEAN> 39
 -1.080908e+00 1.159845e+01 -2.501425e+00 3.831033e-02 -3.736386e+00 -4.792771e+00 -5.682174e+00 -1.756804e-01 -5.038600e+00 -6.264431e-01 -1.071539e+00 3.589716e+00 9.144669e-01 1.064474e-01 2.507174e-01 1.754376e-01 3.112745e-01 2.935747e-01 1.717996e-01 9.480984e-02 1.970774e-01 2.414597e-01 1.200406e-01 6.128756e-02 1.401042e-01 4.391148e-03 -1.788492e-02 -6.908929e-02 -4.267995e-02 -1.077837e-01 -6.906287e-02 -6.992453e-02 4.767532e-03 -3.183601e-02 7.142974e-02 -5.287700e-04 4.657894e-03 -1.269487e-01 -2.267292e-03
<VARIANCE> 39
 9.700102e+00 3.163190e+01 7.851314e+00 1.445063e+01 1.151213e+01 2.005252e+01 2.378136e+01 2.768762e+01 1.945108e+01 1.949116e+01 3.324170e+01 3.801775e+01 3.449929e-03 9.878911e-02 1.355492e-01 2.026893e-01 3.087187e-01 4.065109e-01 3.455213e-01 3.539318e-01 4.250583e-01 3.571873e-01 3.830068e-01 3.357090e-01 4.607973e-01 3.836065e-05 1.498475e-02 2.869163e-02 3.795114e-02 4.861757e-02 6.813018e-02 5.846464e-02 6.074332e-02 7.336669e-02 7.488810e-02 7.667209e-02 7.531757e-02 6.941655e-02 4.761199e-06
<GCONST> 2.885648e+01
<MIXTURE> 20 3.317402e-02
<MEAN> 39
 -4.492669e-01 1.353154e+01 -4.628194e+00 -2.289598e+00 -5.514875e+00 -8.520297e+00 -4.200893e+00 -3.994008e-02 -5.249429e+00 -1.831852e+00 -5.629097e+00 1.630503e+00 8.212494e-01 1.241595e-02 -1.427429e-02 -1.153161e-01 -6.483924e-02 2.326334e-02 -2.098742e-02 9.726405e-02 -1.563551e-01 6.344492e-02 -1.159215e-01 -2.485187e-02 -3.727958e-02 5.507908e-05 1.857911e-03 -8.687401e-03 6.836130e-03 -2.101393e-02 5.720749e-03 5.311503e-03 4.886742e-03 3.652053e-04 4.490573e-02 1.763922e-02 2.442972e-02 -3.661871e-02 -8.564054e-04
<VARIANCE> 39
 3.952168e+00 7.212428e+00 1.084667e+01 1.502671e+01 1.839497e+01 1.911906e+01 2.525685e+01 2.147719e+01 3.049378e+01 2.881788e+01 1.260074e+01 1.779932e+01 8.534871e-03 4.140648e-02 8.100137e-02 1.181590e-01 2.024177e-01 2.191701e-01 2.754390e-01 2.336681e-01 2.923711e-01 2.805943e-01 1.803181e-01 2.149948e-01 2.618625e-01 3.754082e-05 9.101520e-03 1.284956e-02 2.048527e-02 3.140515e-02 3.492797e-02 5.087160e-02 4.052423e-02 4.889898e-02 5.605616e-02 3.598075e-02 4.150134e-02 4.922712e-02 3.730629e-06
<GCONST> 1.487718e+01
<MIXTURE> 21 1.970644e-02
<MEAN> 39
 -1.080908e+00 1.159845e+01 -2.501425e+00 3.831033e-02 -3.736386e+00 -4.792771e+00 -5.682174e+00 -1.756804e-01 -5.038600e+00 -6.264431e-01 -1.071539e+00 3.589716e+00 9.144669e-01 1.064474e-01 2.507174e-01 1.754376e-01 3.112745e-01 2.935747e-01 1.717996e-01 9.480984e-02 1.970774e-01 2.414597e-01 1.200406e-01 6.128756e-02 1.401042e-01 4.391148e-03 -1.788492e-02 -6.908929e-02 -4.267995e-02 -1.077837e-01 -6.906287e-02 -6.992453e-02 4.767532e-03 -3.183601e-02 7.142974e-02 -5.287700e-04 4.657894e-03 -1.269487e-01 -2.267292e-03
<VARIANCE> 39
 9.700102e+00 3.163190e+01 7.851314e+00 1.445063e+01 1.151213e+01 2.005252e+01 2.378136e+01 2.768762e+01 1.945108e+01 1.949116e+01 3.324170e+01 3.801775e+01 3.449929e-03 9.878911e-02 1.355492e-01 2.026893e-01 3.087187e-01 4.065109e-01 3.455213e-01 3.539318e-01 4.250583e-01 3.571873e-01 3.830068e-01 3.357090e-01 4.607973e-01 3.836065e-05 1.498475e-02 2.869163e-02 3.795114e-02 4.861757e-02 6.813018e-02 5.846464e-02 6.074332e-02 7.336669e-02 7.488810e-02 7.667209e-02 7.531757e-02 6.941655e-02 4.761199e-06
<GCONST> 2.885648e+01
<MIXTURE> 22 3.323749e-02
<MEAN> 39
 -4.448650e-01 1.353682e+01 -4.626793e+00 -2.283637e+00 -5.487689e+00 -8.505607e+00 -4.157025e+00 -4.325589e-02 -5.207546e+00 -1.843907e+00 -5.622798e+00 1.627130e+00 8.208320e-01 1.293772e-02 -1.360374e-02 -1.135555e-01 -6.367075e-02 2.398977e-02 -1.934413e-02 9.864304e-02 -1.549492e-01 6.356044e-02 -1.144819e-01 -2.454892e-02 -3.654503e-02 4.334497e-05 1.423399e-03 -9.124577e-03 5.920635e-03 -2.176485e-02 4.868235e-03 3.923213e-03 3.619193e-03 -7.735730e-04 4.332719e-02 1.723137e-02 2.345026e-02 -3.665703e-02 -8.551501e-04
<VARIANCE> 39
 3.940368e+00 7.158707e+00 1.080748e+01 1.499541e+01 1.836255e+01 1.929476e+01 2.519076e+01 2.141327e+01 3.044033e+01 2.874813e+01 1.254543e+01 1.778274e+01 8.626367e-03 4.130138e-02 8.074965e-02 1.177624e-01 2.024768e-01 2.178323e-01 2.752843e-01 2.327719e-01 2.922814e-01 2.794462e-01 1.808197e-01 2.149802e-01 2.604245e-01 3.754082e-05 9.066650e-03 1.277647e-02 2.038908e-02 3.137869e-02 3.464542e-02 5.080647e-02 4.028425e-02 4.881223e-02 5.565451e-02 3.588257e-02 4.129044e-02 4.892365e-02 3.730629e-06
<GCONST> 1.478408e+01
<MIXTURE> 23 3.309478e-02
<MEAN> 39
 -4.571230e-01 1.352411e+01 -4.630829e+00 -2.308873e+00 -5.563579e+00 -8.538610e+00 -4.263924e+00 -3.210102e-02 -5.315624e+00 -1.816456e+00 -5.630831e+00 1.631365e+00 8.215459e-01 1.200822e-02 -1.437817e-02 -1.174306e-01 -6.531648e-02 2.350949e-02 -2.224955e-02 9.593055e-02 -1.571930e-01 6.520934e-02 -1.179967e-01 -2.415467e-02 -3.838897e-02 7.732141e-05 2.668770e-03 -7.950714e-03 8.401664e-03 -1.956337e-02 7.262451e-03 7.719846e-03 6.815169e-03 2.035218e-03 4.780687e-02 1.843808e-02 2.565249e-02 -3.686278e-02 -8.564976e-04
<VARIANCE> 39
 3.965244e+00 7.299686e+00 1.091182e+01 1.508477e+01 1.848053e+01 1.887684e+01 2.536009e+01 2.156540e+01 3.061436e+01 2.896208e+01 1.265856e+01 1.780517e+01 8.428246e-03 4.159658e-02 8.129481e-02 1.190137e-01 2.026158e-01 2.212565e-01 2.759733e-01 2.350055e-01 2.936676e-01 2.827747e-01 1.796893e-01 2.154362e-01 2.646030e-01 3.754082e-05 9.168088e-03 1.297782e-02 2.067147e-02 3.153981e-02 3.549939e-02 5.115690e-02 4.093768e-02 4.912534e-02 5.686445e-02 3.617569e-02 4.195675e-02 4.977570e-02 3.730629e-06
<GCONST> 1.506719e+01
<MIXTURE> 24 5.504818e-02
<MEAN> 39
 8.599715e-01 1.550797e+01 -1.387321e+00 1.217527e+00 -6.499320e+00 -8.634645e+00 -3.997194e+00 1.115506e+00 7.702050e-01 6.778157e-03 -3.387830e+00 1.274621e+00 8.466293e-01 1.369299e-01 3.248126e-01 2.026543e-02 3.634706e-01 1.109210e-01 -6.431048e-02 -8.874182e-02 1.340419e-02 1.500527e-03 4.367979e-01 -1.428434e-01 -1.140530e-01 9.342055e-03 -4.947840e-02 -3.141862e-01 -3.364770e-01 -3.931816e-01 -6.296827e-02 5.163713e-02 -1.321501e-02 -2.442135e-01 -3.919368e-01 -2.271585e-01 8.698485e-02 -7.573245e-02 -2.524975e-03
<VARIANCE> 39
 7.884680e+00 1.994911e+01 1.581281e+01 2.062119e+01 2.895547e+01 1.832203e+01 2.739737e+01 2.241389e+01 3.556471e+01 4.713763e+01 5.546941e+01 5.258061e+01 6.058858e-03 1.760398e-01 6.567668e-01 7.177491e-01 6.849337e-01 9.201077e-01 9.796959e-01 6.625974e-01 1.128674e+00 1.053877e+00 1.098344e+00 1.190315e+00 1.673608e+00 9.938544e-05 4.712791e-02 6.308444e-02 1.009771e-01 1.227566e-01 2.127240e-01 2.249326e-01 1.428130e-01 1.411374e-01 1.730520e-01 2.398170e-01 2.274346e-01 1.982202e-01 1.847771e-05
<GCONST> 5.953711e+01
<MIXTURE> 25 1.970066e-02
<MEAN> 39
 -1.093179e+00 1.156991e+01 -2.508449e+00 4.186046e-02 -3.738259e+00 -4.783802e+00 -5.662975e+00 -1.933607e-01 -5.023830e+00 -6.262218e-01 -1.076565e+00 3.622184e+00 9.147163e-01 1.074251e-01 2.512044e-01 1.772036e-01 3.118289e-01 2.952493e-01 1.734915e-01 9.776765e-02 1.985445e-01 2.433854e-01 1.218803e-01 6.252366e-02 1.399882e-01 4.374896e-03 -1.818069e-02 -6.857594e-02 -4.260459e-02 -1.075719e-01 -6.910283e-02 -7.014411e-02 5.053110e-03 -3.171709e-02 7.096364e-02 -7.586160e-04 4.072558e-03 -1.264570e-01 -2.261399e-03
<VARIANCE> 39
 9.768712e+00 3.155957e+01 7.860835e+00 1.444226e+01 1.147165e+01 2.002190e+01 2.375026e+01 2.764402e+01 1.944720e+01 1.948223e+01 3.327990e+01 3.818757e+01 3.446344e-03 9.887022e-02 1.353104e-01 2.030278e-01 3.081411e-01 4.067143e-01 3.459778e-01 3.531728e-01 4.244521e-01 3.558494e-01 3.819823e-01 3.355762e-01 4.598277e-01 3.830032e-05 1.496515e-02 2.862027e-02 3.790754e-02 4.855670e-02 6.789447e-02 5.837176e-02 6.056067e-02 7.323682e-02 7.465055e-02 7.639553e-02 7.496695e-02 6.924669e-02 4.752538e-06
<GCONST> 2.881267e+01
<STATE> 5
<NUMMIXES> 25
<MIXTURE> 1 5.042448e-03
<MEAN> 39
 -7.299136e+00 7.238606e+00 -7.501749e+00 -5.198343e+00 -1.298155e+01 -1.203633e+01 -7.255691e+00 -6.711975e+00 -3.438794e+00 -3.160425e+00 9.307342e-01 1.251052e+01 8.802496e-01 4.510129e-01 1.016285e+00 8.726493e-01 1.013405e+00 1.047015e+00 1.065755e+00 1.033979e+00 1.018152e+00 8.466948e-01 2.926827e-01 1.964595e-01 1.547622e-02 -8.191281e-04 2.794920e-01 3.366455e-01 3.944425e-01 5.671604e-01 6.632780e-01 6.605520e-01 4.900817e-01 4.481727e-01 3.976696e-01 2.766441e-01 2.248732e-01 -4.051290e-02 -1.236381e-03
<VARIANCE> 39
 7.692455e+00 1.016794e+01 4.412903e+00 5.189612e+00 1.252101e+01 5.144928e+00 1.815593e+01 1.234691e+01 5.091129e+01 1.520339e+01 1.151041e+02 1.375351e+02 4.666597e-03 4.112487e-02 1.980463e-01 1.236375e-01 3.252199e-01 1.618106e-01 2.631650e-01 1.316824e-01 3.877073e-01 2.330138e-01 6.883365e-01 6.280245e-02 1.714291e-01 3.754082e-05 1.299937e-02 2.129311e-02 2.901180e-02 5.822750e-02 9.193949e-02 2.886168e-02 4.512892e-02 1.589271e-01 9.678106e-02 1.509770e-01 8.472117e-02 1.230720e-01 3.730629e-06
<GCONST> 2.225958e+01
<MIXTURE> 2 7.713985e-02
<MEAN> 39
 -4.534597e-01 1.299179e+01 -6.293712e+00 -1.939515e+00 -8.279737e+00 -8.470617e+00 -4.379205e+00 -3.675796e+00 -3.764751e+00 -3.242657e+00 -6.775731e+00 6.975677e-01 8.826485e-01 2.326504e-01 3.631526e-01 3.129341e-01 4.311763e-01 5.239139e-01 6.473845e-01 6.428449e-01 5.109703e-01 5.633454e-01 5.215764e-01 5.471972e-01 2.449232e-01 -1.253748e-03 9.375721e-02 1.115916e-01 2.116387e-01 1.589519e-01 2.772009e-01 2.369386e-01 3.135725e-01 2.392475e-01 1.973718e-01 2.165848e-01 2.085193e-01 1.427706e-01 -1.066754e-03
<VARIANCE> 39
 1.508657e+01 1.973902e+01 1.216658e+01 1.104721e+01 1.317600e+01 2.403442e+01 1.497186e+01 2.671869e+01 1.559047e+01 2.538203e+01 1.661704e+01 2.489938e+01 5.976246e-03 7.047054e-02 1.721078e-01 2.264050e-01 3.634103e-01 4.328361e-01 3.808234e-01 4.422062e-01 4.487559e-01 4.581138e-01 4.357085e-01 3.353685e-01 3.515743e-01 3.754082e-05 9.237737e-03 3.077747e-02 3.478833e-02 4.141462e-02 5.389824e-02 8.250175e-02 8.455205e-02 7.263581e-02 8.891807e-02 7.451036e-02 7.062263e-02 9.793443e-02 3.730629e-06
<GCONST> 2.893470e+01
<MIXTURE> 3 1.388722e-02
<MEAN> 39
 -5.439349e-01 1.215459e+01 -6.575737e+00 -3.701906e+00 -1.089823e+01 -8.895275e+00 -5.851566e+00 -3.993999e+00 -6.057375e+00 -7.573608e+00 -7.804013e+00 -2.461854e+00 8.662133e-01 1.112580e-01 1.150478e-01 8.283389e-02 1.108735e-01 1.360196e-01 1.485563e-01 1.708757e-01 1.579210e-01 3.411640e-01 -3.724355e-02 -9.273688e-03 -5.761110e-02 -1.148036e-03 1.669168e-01 1.979421e-01 3.394719e-01 3.869006e-01 4.885149e-01 4.379144e-01 4.145838e-01 4.019633e-01 4.902178e-01 4.931453e-01 3.930866e-01 2.733173e-01 -9.968246e-04
<VARIANCE> 39
 1.692930e+01 2.148330e+01 2.211916e+01 2.087363e+01 1.289586e+01 2.068853e+01 2.577282e+01 2.629591e+01 2.493116e+01 3.484903e+01 3.291670e+01 4.596336e+01 6.095985e-03 1.756924e-01 2.385284e-01 3.659664e-01 4.999198e-01 4.350402e-01 7.845748e-01 6.449295e-01 5.598365e-01 7.205086e-01 8.086092e-01 6.481491e-01 7.583281e-01 3.754082e-05 2.588031e-02 4.746711e-02 5.052729e-02 9.500716e-02 8.975551e-02 7.744949e-02 1.119622e-01 8.882622e-02 1.133238e-01 1.284236e-01 1.671647e-01 1.722444e-01 4.418307e-06
<GCONST> 4.466968e+01
<MIXTURE> 4 2.531323e-02
<MEAN> 39
 -1.611950e+00 1.403321e+01 -8.912482e+00 -2.754413e+00 -7.106261e+00 -6.618108e+00 5.390392e-01 -6.071451e-01 6.254797e+00 7.014843e+00 8.624442e+00 1.285790e+01 8.878479e-01 3.735005e-01 3.994768e-01 5.113738e-01 5.404113e-01 4.866816e-01 6.798211e-01 3.388090e-01 2.892821e-01 1.386558e-01 2.641270e-01 -3.020955e-02 -2.732016e-01 3.887932e-04 1.167913e-02 -4.285942e-02 4.838306e-02 -5.915611e-02 4.350120e-02 -4.292851e-03 -1.377437e-04 -4.741658e-02 -1.007140e-01 1.066497e-02 -7.528368e-02 -7.483023e-02 -1.551900e-03
<VARIANCE> 39
 1.650987e+01 4.408982e+01 3.364541e+01 1.431166e+01 1.469686e+01 1.669198e+01 1.461024e+01 2.440089e+01 5.915727e+01 8.879426e+01 6.572785e+01 8.116139e+01 7.016973e-03 2.875680e-01 5.076718e-01 6.193824e-01 8.016042e-01 8.601415e-01 6.894898e-01 6.074674e-01 8.615186e-01 7.746542e-01 1.063630e+00 7.719851e-01 1.512534e+00 3.754082e-05 2.575671e-02 4.289106e-02 8.215436e-02 9.122819e-02 1.069786e-01 9.565283e-02 6.136221e-02 6.761192e-02 6.737134e-02 1.329621e-01 1.023308e-01 9.650011e-02 3.730629e-06
<GCONST> 5.038852e+01
<MIXTURE> 5 1.388722e-02
<MEAN> 39
 -5.439349e-01 1.215459e+01 -6.575737e+00 -3.701906e+00 -1.089823e+01 -8.895275e+00 -5.851566e+00 -3.993999e+00 -6.057375e+00 -7.573608e+00 -7.804013e+00 -2.461854e+00 8.662133e-01 1.112580e-01 1.150478e-01 8.283389e-02 1.108735e-01 1.360196e-01 1.485563e-01 1.708757e-01 1.579210e-01 3.411640e-01 -3.724355e-02 -9.273688e-03 -5.761110e-02 -1.148036e-03 1.669168e-01 1.979421e-01 3.394719e-01 3.869006e-01 4.885149e-01 4.379144e-01 4.145838e-01 4.019633e-01 4.902178e-01 4.931453e-01 3.930866e-01 2.733173e-01 -9.968246e-04
<VARIANCE> 39
 1.692930e+01 2.148330e+01 2.211916e+01 2.087363e+01 1.289586e+01 2.068853e+01 2.577282e+01 2.629591e+01 2.493116e+01 3.484903e+01 3.291670e+01 4.596336e+01 6.095985e-03 1.756924e-01 2.385284e-01 3.659664e-01 4.999198e-01 4.350402e-01 7.845748e-01 6.449295e-01 5.598365e-01 7.205086e-01 8.086092e-01 6.481491e-01 7.583281e-01 3.754082e-05 2.588031e-02 4.746711e-02 5.052729e-02 9.500716e-02 8.975551e-02 7.744949e-02 1.119622e-01 8.882622e-02 1.133238e-01 1.284236e-01 1.671647e-01 1.722444e-01 4.418307e-06
<GCONST> 4.466968e+01
<MIXTURE> 6 1.744365e-02
<MEAN> 39
 5.734180e-01 1.347263e+01 -5.023111e+00 7.752867e-02 -6.478342e+00 -5.698191e+00 -1.985219e+00 -1.982327e+00 -1.714162e+00 -1.646934e+00 -2.272260e+00 3.864129e+00 8.946437e-01 3.953363e-01 5.284747e-01 6.689379e-01 7.832496e-01 8.853661e-01 9.202613e-01 9.563314e-01 7.187064e-01 8.402355e-01 7.641680e-01 6.443303e-01 4.838723e-01 5.618807e-04 -6.967735e-02 -1.077794e-01 -8.835166e-02 -1.949229e-01 -7.635474e-02 -1.692227e-01 -6.965312e-02 -1.632690e-01 -1.320543e-01 -1.109288e-03 -9.205462e-02 -1.254415e-01 -1.132674e-03
<VARIANCE> 39
 1.711005e+01 2.316790e+01 1.762683e+01 1.314785e+01 1.425232e+01 2.160231e+01 1.406335e+01 2.444630e+01 2.130326e+01 3.126047e+01 4.339225e+01 5.974804e+01 5.818081e-03 1.906440e-01 3.627247e-01 3.187656e-01 5.432119e-01 7.496399e-01 9.146456e-01 8.418114e-01 9.342290e-01 7.908813e-01 9.525701e-01 8.222498e-01 1.143193e+00 3.754082e-05 2.574177e-02 5.260480e-02 7.197564e-02 8.865344e-02 1.068853e-01 1.371057e-01 1.131056e-01 1.248883e-01 1.064956e-01 1.737766e-01 1.650051e-01 1.363762e-01 4.021095e-06
<GCONST> 4.796264e+01
<MIXTURE> 7 1.744365e-02
<MEAN> 39
 5.734180e-01 1.347263e+01 -5.023111e+00 7.752867e-02 -6.478342e+00 -5.698191e+00 -1.985219e+00 -1.982327e+00 -1.714162e+00 -1.646934e+00 -2.272260e+00 3.864129e+00 8.946437e-01 3.953363e-01 5.284747e-01 6.689379e-01 7.832496e-01 8.853661e-01 9.202613e-01 9.563314e-01 7.187064e-01 8.402355e-01 7.641680e-01 6.443303e-01 4.838723e-01 5.618807e-04 -6.967735e-02 -1.077794e-01 -8.835166e-02 -1.949229e-01 -7.635474e-02 -1.692227e-01 -6.965312e-02 -1.632690e-01 -1.320543e-01 -1.109288e-03 -9.205462e-02 -1.254415e-01 -1.132674e-03
<VARIANCE> 39
 1.711005e+01 2.316790e+01 1.762683e+01 1.314785e+01 1.425232e+01 2.160231e+01 1.406335e+01 2.444630e+01 2.130326e+01 3.126047e+01 4.339225e+01 5.974804e+01 5.818081e-03 1.906440e-01 3.627247e-01 3.187656e-01 5.432119e-01 7.496399e-01 9.146456e-01 8.418114e-01 9.342290e-01 7.908813e-01 9.525701e-01 8.222498e-01 1.143193e+00 3.754082e-05 2.574177e-02 5.260480e-02 7.197564e-02 8.865344e-02 1.068853e-01 1.371057e-01 1.131056e-01 1.248883e-01 1.064956e-01 1.737766e-01 1.650051e-01 1.363762e-01 4.021095e-06
<GCONST> 4.796264e+01
<MIXTURE> 8 8.172762e-02
<MEAN> 39
 1.050671e+00 1.420758e+01 -4.424977e+00 7.848203e-01 -5.706826e+00 -7.301224e+00 -2.675475e+00 -2.604077e+00 -2.571438e+00 -3.666710e-01 -6.215145e+00 2.078119e+00 8.816570e-01 1.744133e-02 1.408189e-03 -7.631543e-02 8.492721e-02 -2.117105e-02 -1.783070e-01 1.557546e-02 -9.172791e-02 2.104570e-01 8.576574e-02 -3.179952e-02 -2.225191e-01 -1.264599e-03 -3.734408e-02 -4.565433e-02 -1.340860e-02 -9.061462e-02 3.124477e-03 -6.679752e-02 -1.746175e-02 2.214448e-02 1.435197e-02 -6.443865e-02 7.010043e-02 -7.154880e-02 -1.064417e-03
<VARIANCE> 39
 1.248026e+01 2.166147e+01 1.600400e+01 1.390992e+01 1.692562e+01 2.010725e+01 1.835177e+01 3.851506e+01 1.848935e+01 2.621526e+01 2.685505e+01 3.272524e+01 3.864988e-03 8.904445e-02 1.490564e-01 2.795107e-01 3.300985e-01 3.668616e-01 4.748588e-01 4.916973e-01 5.612155e-01 5.154977e-01 5.093319e-01 5.163642e-01 5.650554e-01 3.754082e-05 1.477654e-02 2.369350e-02 4.728003e-02 4.597019e-02 6.718470e-02 8.023448e-02 1.206832e-01 8.166499e-02 9.326157e-02 8.602682e-02 9.880419e-02 1.109287e-01 3.730629e-06
<GCONST> 3.421067e+01
<MIXTURE> 9 1.388722e-02
<MEAN> 39
 -5.439349e-01 1.215459e+01 -6.575737e+00 -3.701906e+00 -1.089823e+01 -8.895275e+00 -5.851566e+00 -3.993999e+00 -6.057375e+00 -7.573608e+00 -7.804013e+00 -2.461854e+00 8.662133e-01 1.112580e-01 1.150478e-01 8.283389e-02 1.108735e-01 1.360196e-01 1.485563e-01 1.708757e-01 1.579210e-01 3.411640e-01 -3.724355e-02 -9.273688e-03 -5.761110e-02 -1.148036e-03 1.669168e-01 1.979421e-01 3.394719e-01 3.869006e-01 4.885149e-01 4.379144e-01 4.145838e-01 4.019633e-01 4.902178e-01 4.931453e-01 3.930866e-01 2.733173e-01 -9.968246e-04
<VARIANCE> 39
 1.692930e+01 2.148330e+01 2.211916e+01 2.087363e+01 1.289586e+01 2.068853e+01 2.577282e+01 2.629591e+01 2.493116e+01 3.484903e+01 3.291670e+01 4.596336e+01 6.095985e-03 1.756924e-01 2.385284e-01 3.659664e-01 4.999198e-01 4.350402e-01 7.845748e-01 6.449295e-01 5.598365e-01 7.205086e-01 8.086092e-01 6.481491e-01 7.583281e-01 3.754082e-05 2.588031e-02 4.746711e-02 5.052729e-02 9.500716e-02 8.975551e-02 7.744949e-02 1.119622e-01 8.882622e-02 1.133238e-01 1.284236e-01 1.671647e-01 1.722444e-01 4.418307e-06
<GCONST> 4.466968e+01
<MIXTURE> 10 7.986960e-02
<MEAN> 39
 -1.506056e+00 1.675797e+01 8.787967e-01 -1.539106e+00 -6.730486e+00 -3.423180e+00 -1.186042e+01 3.847615e-01 -4.173938e-01 -5.290439e+00 5.220734e+00 -4.953074e+00 8.632137e-01 5.428900e-03 2.783104e-02 3.294878e-02 -5.726534e-02 1.506533e-01 -5.919039e-02 8.615567e-02 8.411750e-02 6.598766e-02 2.155470e-02 2.599344e-02 -7.294448e-02 -7.315761e-05 7.908817e-04 -6.613244e-02 1.841024e-02 -7.840359e-02 3.348105e-02 -7.146782e-02 5.607870e-02 -4.530691e-02 2.167565e-02 2.977693e-02 -1.233261e-02 5.901351e-02 -1.023375e-03
<VARIANCE> 39
 9.462405e+00 2.595563e+01 1.154978e+01 1.519913e+01 2.411300e+01 2.336774e+01 2.295450e+01 2.624472e+01 2.342642e+01 2.860011e+01 1.598550e+01 1.449304e+01 4.443239e-03 9.189675e-02 1.601977e-01 2.682195e-01 3.142518e-01 3.194809e-01 5.084417e-01 5.519664e-01 5.483766e-01 6.033741e-01 5.432017e-01 4.709086e-01 4.447444e-01 3.754082e-05 1.604842e-02 2.851863e-02 4.478512e-02 5.933858e-02 6.458933e-02 9.454566e-02 9.217955e-02 1.089608e-01 1.375528e-01 9.538126e-02 8.521245e-02 7.706549e-02 3.730629e-06
<GCONST> 3.386963e+01
<MIXTURE> 11 7.987093e-02
<MEAN> 39
 -1.505253e+00 1.675473e+01 8.761009e-01 -1.540132e+00 -6.724288e+00 -3.425251e+00 -1.185478e+01 3.813560e-01 -4.185604e-01 -5.290076e+00 5.221645e+00 -4.950897e+00 8.632238e-01 5.553183e-03 2.773806e-02 3.289279e-02 -5.721975e-02 1.506640e-01 -5.887816e-02 8.611528e-02 8.383279e-02 6.589842e-02 2.154545e-02 2.589008e-02 -7.262587e-02 -7.556835e-05 7.774207e-04 -6.614920e-02 1.847783e-02 -7.836325e-02 3.339620e-02 -7.152543e-02 5.599565e-02 -4.516240e-02 2.164981e-02 2.981288e-02 -1.240080e-02 5.894315e-02 -1.023173e-03
<VARIANCE> 39
 9.461677e+00 2.595809e+01 1.155095e+01 1.520283e+01 2.409223e+01 2.335411e+01 2.293903e+01 2.623633e+01 2.341591e+01 2.861202e+01 1.598956e+01 1.448995e+01 4.444573e-03 9.196772e-02 1.601925e-01 2.681147e-01 3.141248e-01 3.193158e-01 5.080376e-01 5.515695e-01 5.479765e-01 6.023960e-01 5.428820e-01 4.705528e-01 4.445606e-01 3.754082e-05 1.605744e-02 2.851169e-02 4.478398e-02 5.932476e-02 6.454469e-02 9.446154e-02 9.209054e-02 1.088449e-01 1.373097e-01 9.534150e-02 8.513924e-02 7.709127e-02 3.730629e-06
<GCONST> 3.385542e+01
<MIXTURE> 12 3.461092e-02
<MEAN> 39
 -1.172183e+00 1.175748e+01 -5.699653e+00 -2.193594e+00 -8.647094e+00 -8.839590e+00 -5.221084e+00 -3.921179e+00 -4.208848e+00 -4.698644e+00 -6.339353e+00 -1.094660e-01 8.749707e-01 -2.240467e-01 -3.669643e-01 -6.257164e-01 -6.002986e-01 -6.276066e-01 -6.695947e-01 -6.620937e-01 -6.269933e-01 -5.380208e-01 -6.046308e-01 -4.449277e-01 -5.509898e-01 7.622791e-04 6.931533e-02 1.561922e-01 1.925527e-01 1.620757e-01 2.478358e-01 2.763762e-01 2.724374e-01 2.904483e-01 2.759807e-01 1.883833e-01 1.514222e-01 1.508294e-01 -1.327840e-03
<VARIANCE> 39
 1.418907e+01 2.741169e+01 1.182503e+01 1.192660e+01 1.445874e+01 2.487773e+01 2.257877e+01 2.488372e+01 1.523988e+01 2.580141e+01 2.343928e+01 3.324240e+01 6.589931e-03 8.033162e-02 1.701942e-01 2.672522e-01 3.167396e-01 3.331217e-01 4.270032e-01 6.279616e-01 4.491612e-01 4.520956e-01 4.875565e-01 6.434150e-01 5.636018e-01 3.754082e-05 1.212559e-02 3.513866e-02 4.379115e-02 5.225617e-02 7.356312e-02 8.439199e-02 9.084530e-02 1.018333e-01 9.156743e-02 8.854668e-02 7.590227e-02 6.391224e-02 3.730629e-06
<GCONST> 3.347421e+01
<MIXTURE> 13 7.984297e-02
<MEAN> 39
 -1.504817e+00 1.675578e+01 8.793321e-01 -1.535911e+00 -6.732315e+00 -3.420719e+00 -1.186394e+01 3.879748e-01 -4.164689e-01 -5.289689e+00 5.219757e+00 -4.953423e+00 8.632440e-01 5.504205e-03 2.795362e-02 3.309364e-02 -5.708307e-02 1.505782e-01 -5.931788e-02 8.613528e-02 8.446208e-02 6.599236e-02 2.166102e-02 2.600023e-02 -7.323504e-02 -7.163278e-05 7.743339e-04 -6.613226e-02 1.832734e-02 -7.841600e-02 3.352604e-02 -7.151985e-02 5.615773e-02 -4.554150e-02 2.166725e-02 2.971753e-02 -1.237558e-02 5.905228e-02 -1.023806e-03
<VARIANCE> 39
 9.470007e+00 2.594370e+01 1.154966e+01 1.521203e+01 2.412257e+01 2.337369e+01 2.296800e+01 2.624707e+01 2.345334e+01 2.858076e+01 1.599427e+01 1.450393e+01 4.443014e-03 9.192757e-02 1.603254e-01 2.685481e-01 3.145490e-01 3.199227e-01 5.094780e-01 5.527594e-01 5.492911e-01 6.042857e-01 5.437108e-01 4.712687e-01 4.452911e-01 3.754082e-05 1.604617e-02 2.853855e-02 4.481975e-02 5.940048e-02 6.467100e-02 9.471238e-02 9.231716e-02 1.091815e-01 1.378006e-01 9.543944e-02 8.528952e-02 7.707743e-02 3.730629e-06
<GCONST> 3.390051e+01
<MIXTURE> 14 3.461092e-02
<MEAN> 39
